var staticNet = {"sizes":[400,200,2],"layers":[{"0":{},"1":{},"2":{},"3":{},"4":{},"5":{},"6":{},"7":{},"8":{},"9":{},"10":{},"11":{},"12":{},"13":{},"14":{},"15":{},"16":{},"17":{},"18":{},"19":{},"20":{},"21":{},"22":{},"23":{},"24":{},"25":{},"26":{},"27":{},"28":{},"29":{},"30":{},"31":{},"32":{},"33":{},"34":{},"35":{},"36":{},"37":{},"38":{},"39":{},"40":{},"41":{},"42":{},"43":{},"44":{},"45":{},"46":{},"47":{},"48":{},"49":{},"50":{},"51":{},"52":{},"53":{},"54":{},"55":{},"56":{},"57":{},"58":{},"59":{},"60":{},"61":{},"62":{},"63":{},"64":{},"65":{},"66":{},"67":{},"68":{},"69":{},"70":{},"71":{},"72":{},"73":{},"74":{},"75":{},"76":{},"77":{},"78":{},"79":{},"80":{},"81":{},"82":{},"83":{},"84":{},"85":{},"86":{},"87":{},"88":{},"89":{},"90":{},"91":{},"92":{},"93":{},"94":{},"95":{},"96":{},"97":{},"98":{},"99":{},"100":{},"101":{},"102":{},"103":{},"104":{},"105":{},"106":{},"107":{},"108":{},"109":{},"110":{},"111":{},"112":{},"113":{},"114":{},"115":{},"116":{},"117":{},"118":{},"119":{},"120":{},"121":{},"122":{},"123":{},"124":{},"125":{},"126":{},"127":{},"128":{},"129":{},"130":{},"131":{},"132":{},"133":{},"134":{},"135":{},"136":{},"137":{},"138":{},"139":{},"140":{},"141":{},"142":{},"143":{},"144":{},"145":{},"146":{},"147":{},"148":{},"149":{},"150":{},"151":{},"152":{},"153":{},"154":{},"155":{},"156":{},"157":{},"158":{},"159":{},"160":{},"161":{},"162":{},"163":{},"164":{},"165":{},"166":{},"167":{},"168":{},"169":{},"170":{},"171":{},"172":{},"173":{},"174":{},"175":{},"176":{},"177":{},"178":{},"179":{},"180":{},"181":{},"182":{},"183":{},"184":{},"185":{},"186":{},"187":{},"188":{},"189":{},"190":{},"191":{},"192":{},"193":{},"194":{},"195":{},"196":{},"197":{},"198":{},"199":{},"200":{},"201":{},"202":{},"203":{},"204":{},"205":{},"206":{},"207":{},"208":{},"209":{},"210":{},"211":{},"212":{},"213":{},"214":{},"215":{},"216":{},"217":{},"218":{},"219":{},"220":{},"221":{},"222":{},"223":{},"224":{},"225":{},"226":{},"227":{},"228":{},"229":{},"230":{},"231":{},"232":{},"233":{},"234":{},"235":{},"236":{},"237":{},"238":{},"239":{},"240":{},"241":{},"242":{},"243":{},"244":{},"245":{},"246":{},"247":{},"248":{},"249":{},"250":{},"251":{},"252":{},"253":{},"254":{},"255":{},"256":{},"257":{},"258":{},"259":{},"260":{},"261":{},"262":{},"263":{},"264":{},"265":{},"266":{},"267":{},"268":{},"269":{},"270":{},"271":{},"272":{},"273":{},"274":{},"275":{},"276":{},"277":{},"278":{},"279":{},"280":{},"281":{},"282":{},"283":{},"284":{},"285":{},"286":{},"287":{},"288":{},"289":{},"290":{},"291":{},"292":{},"293":{},"294":{},"295":{},"296":{},"297":{},"298":{},"299":{},"300":{},"301":{},"302":{},"303":{},"304":{},"305":{},"306":{},"307":{},"308":{},"309":{},"310":{},"311":{},"312":{},"313":{},"314":{},"315":{},"316":{},"317":{},"318":{},"319":{},"320":{},"321":{},"322":{},"323":{},"324":{},"325":{},"326":{},"327":{},"328":{},"329":{},"330":{},"331":{},"332":{},"333":{},"334":{},"335":{},"336":{},"337":{},"338":{},"339":{},"340":{},"341":{},"342":{},"343":{},"344":{},"345":{},"346":{},"347":{},"348":{},"349":{},"350":{},"351":{},"352":{},"353":{},"354":{},"355":{},"356":{},"357":{},"358":{},"359":{},"360":{},"361":{},"362":{},"363":{},"364":{},"365":{},"366":{},"367":{},"368":{},"369":{},"370":{},"371":{},"372":{},"373":{},"374":{},"375":{},"376":{},"377":{},"378":{},"379":{},"380":{},"381":{},"382":{},"383":{},"384":{},"385":{},"386":{},"387":{},"388":{},"389":{},"390":{},"391":{},"392":{},"393":{},"394":{},"395":{},"396":{},"397":{},"398":{},"399":{}},{"0":{"bias":-0.13514231145381927,"weights":{"0":0.13965430855751038,"1":-0.03830884024500847,"2":0.20214590430259705,"3":0.05687377601861954,"4":0.027850590646266937,"5":0.11115642637014389,"6":0.09809791296720505,"7":-0.05730676278471947,"8":0.06272981315851212,"9":-0.2760165333747864,"10":0.016172055155038834,"11":0.10636622458696365,"12":-0.204809308052063,"13":-0.18851514160633087,"14":0.10158160328865051,"15":-0.2327975183725357,"16":0.06394314020872116,"17":0.12455261498689651,"18":-0.2040557712316513,"19":0.13639682531356812,"20":-0.14702412486076355,"21":0.23678135871887207,"22":-0.11072184145450592,"23":0.06268088519573212,"24":-0.28542274236679077,"25":-0.08984972536563873,"26":-0.11048153787851334,"27":0.3077920377254486,"28":0.18760047852993011,"29":-0.19243964552879333,"30":-0.13047540187835693,"31":-0.11532415449619293,"32":-0.2010146826505661,"33":-0.23206637799739838,"34":0.09271883964538574,"35":-0.16885104775428772,"36":0.029396768659353256,"37":0.09549778699874878,"38":-0.02413582243025303,"39":-0.1607952117919922,"40":0.180343359708786,"41":-0.15192563831806183,"42":-0.009730336256325245,"43":0.023670898750424385,"44":-0.014684181660413742,"45":-0.13251782953739166,"46":-0.10711239278316498,"47":0.07277259975671768,"48":-0.130480095744133,"49":0.10132749378681183,"50":0.0748293474316597,"51":-0.043747976422309875,"52":0.028557073324918747,"53":0.08099676668643951,"54":0.06933779269456863,"55":0.06807122379541397,"56":-0.18693123757839203,"57":0.12030857801437378,"58":0.013912717811763287,"59":-0.04881513863801956,"60":-0.0829865112900734,"61":0.2226044088602066,"62":-0.16978463530540466,"63":0.05324268341064453,"64":0.1742037683725357,"65":-0.1576707661151886,"66":-0.05141603574156761,"67":-0.16437430679798126,"68":0.06896497309207916,"69":-0.03571057692170143,"70":-0.13984821736812592,"71":-0.11391481757164001,"72":-0.1287202537059784,"73":-0.12929801642894745,"74":0.014696300029754639,"75":-0.07521721720695496,"76":0.06035996600985527,"77":-0.1797671616077423,"78":-0.07435319572687149,"79":0.15098543465137482,"80":0.03520822152495384,"81":-0.11662045121192932,"82":0.06466995179653168,"83":-0.021124739199876785,"84":0.02866242825984955,"85":0.1448710411787033,"86":-0.18241024017333984,"87":0.016052166000008583,"88":-0.014150205068290234,"89":-0.15552961826324463,"90":0.1295606642961502,"91":-0.06051391363143921,"92":0.06496281176805496,"93":-0.012951749376952648,"94":-0.09954863786697388,"95":-0.009860905818641186,"96":-0.003110704245045781,"97":0.03293997794389725,"98":0.15131987631320953,"99":-0.16505926847457886,"100":0.04890929535031319,"101":-0.07071322947740555,"102":0.07525476813316345,"103":0.11088238656520844,"104":0.10448405891656876,"105":-0.0642283633351326,"106":-0.015973446890711784,"107":0.025005929172039032,"108":-0.018117861822247505,"109":-0.01874110847711563,"110":-0.028215480968356133,"111":-0.1470731496810913,"112":-0.08187808096408844,"113":0.14401623606681824,"114":-0.025627752766013145,"115":-0.0787644311785698,"116":0.02852676808834076,"117":-0.14185082912445068,"118":-0.09506364166736603,"119":0.14107635617256165,"120":0.08572032302618027,"121":0.09929355978965759,"122":-0.17359977960586548,"123":-0.15572091937065125,"124":0.15449441969394684,"125":0.10315010696649551,"126":0.17558987438678741,"127":0.19450023770332336,"128":-0.15921106934547424,"129":0.07991912961006165,"130":-0.10590185970067978,"131":-0.19518472254276276,"132":0.1289401352405548,"133":-0.06136445701122284,"134":0.008343507535755634,"135":-0.0025131739675998688,"136":-0.06470156461000443,"137":-0.05192715674638748,"138":-0.10991200059652328,"139":-0.1426178514957428,"140":-0.04259921982884407,"141":-0.18963180482387543,"142":0.14733797311782837,"143":0.1595861315727234,"144":-0.03741314634680748,"145":0.18704620003700256,"146":-0.09285812824964523,"147":-0.19797156751155853,"148":-0.04712275415658951,"149":0.14773593842983246,"150":0.016772782430052757,"151":0.16644351184368134,"152":-0.16749568283557892,"153":-0.1341576874256134,"154":-0.16158267855644226,"155":-0.04783513769507408,"156":-0.07790063321590424,"157":0.016345586627721786,"158":-0.11539001017808914,"159":0.12247059494256973,"160":-0.19741079211235046,"161":0.17415283620357513,"162":-0.0951874777674675,"163":0.1784074753522873,"164":-0.14244656264781952,"165":0.09058311581611633,"166":-0.061285875737667084,"167":0.04921076446771622,"168":-0.09366676211357117,"169":0.06968472898006439,"170":0.09761621803045273,"171":0.09808629751205444,"172":0.15397436916828156,"173":0.13488207757472992,"174":-0.07691990584135056,"175":-0.0038428527768701315,"176":0.15013906359672546,"177":-0.047404296696186066,"178":-0.08230866491794586,"179":-0.12688109278678894,"180":-0.12333947420120239,"181":0.03147878497838974,"182":0.06330463290214539,"183":0.05965757742524147,"184":-0.11829877644777298,"185":-0.19219236075878143,"186":0.04316042736172676,"187":-0.13288114964962006,"188":0.16636677086353302,"189":0.15120895206928253,"190":0.03637360408902168,"191":0.0729556605219841,"192":-0.08035566657781601,"193":0.1787850707769394,"194":-0.07424439489841461,"195":0.1086234375834465,"196":0.08995115011930466,"197":-0.14330945909023285,"198":-0.11110077798366547,"199":0.028430979698896408,"200":0.16195796430110931,"201":0.0639411062002182,"202":0.03104310855269432,"203":-0.18588081002235413,"204":0.13241085410118103,"205":0.09681914001703262,"206":-0.07181919366121292,"207":0.16029638051986694,"208":0.005336935166269541,"209":0.10828279703855515,"210":0.09525962918996811,"211":-0.12846803665161133,"212":-0.07965145260095596,"213":-0.03501800820231438,"214":-0.07310640066862106,"215":0.11833491921424866,"216":-0.16082878410816193,"217":0.1880984604358673,"218":-0.1340670883655548,"219":0.09611275047063828,"220":-0.1230812519788742,"221":-0.01933782920241356,"222":-0.14421863853931427,"223":0.10110421478748322,"224":-0.021776091307401657,"225":0.09770982712507248,"226":0.0024395885411649942,"227":-0.0653860792517662,"228":0.12909510731697083,"229":-0.04848809540271759,"230":-0.04881763830780983,"231":0.07143668085336685,"232":0.04769294336438179,"233":-0.06257302314043045,"234":0.16072458028793335,"235":0.0868450254201889,"236":0.03429326415061951,"237":0.010183697566390038,"238":-0.155573770403862,"239":0.13193048536777496,"240":-0.17398828268051147,"241":-0.13381239771842957,"242":0.06593579053878784,"243":-0.11665840446949005,"244":0.03429180011153221,"245":-0.1795823872089386,"246":-0.09456296265125275,"247":-0.005813311785459518,"248":0.014179633930325508,"249":-0.07823758572340012,"250":0.1591956466436386,"251":-0.08901757746934891,"252":-0.09082937240600586,"253":0.06369969993829727,"254":0.19685028493404388,"255":0.04267248511314392,"256":-0.022221354767680168,"257":-0.18011824786663055,"258":-0.10151240974664688,"259":-0.1875237077474594,"260":0.034142665565013885,"261":-0.06216408312320709,"262":-0.1593436449766159,"263":0.044488854706287384,"264":-0.1969774216413498,"265":-0.0894084945321083,"266":0.03929624333977699,"267":-0.04656601697206497,"268":0.15972989797592163,"269":-0.07529006153345108,"270":-0.11746908724308014,"271":0.1726437211036682,"272":0.060003165155649185,"273":0.19711877405643463,"274":0.13618260622024536,"275":0.0433584600687027,"276":0.1464725136756897,"277":-0.171012744307518,"278":-0.07738243788480759,"279":0.13346630334854126,"280":0.021828575059771538,"281":-0.0019655877258628607,"282":0.03753173351287842,"283":0.08356978744268417,"284":0.1530047059059143,"285":-0.04130662605166435,"286":-0.1798977255821228,"287":0.19518370926380157,"288":0.04900572448968887,"289":0.18911810219287872,"290":0.17435045540332794,"291":0.1303815096616745,"292":-0.026248997077345848,"293":0.15440607070922852,"294":0.021342817693948746,"295":-0.15044847130775452,"296":-0.13010801374912262,"297":-0.07606374472379684,"298":0.0756804421544075,"299":-0.15880700945854187,"300":0.06385330110788345,"301":0.1096394807100296,"302":0.20077601075172424,"303":-0.029727952554821968,"304":-0.03180069476366043,"305":0.1387559175491333,"306":-0.15537303686141968,"307":-0.12330789864063263,"308":-0.03046768717467785,"309":-0.01819489151239395,"310":-0.1354013979434967,"311":0.17535527050495148,"312":-0.0965617448091507,"313":-0.13720406591892242,"314":-0.15616779029369354,"315":0.17231684923171997,"316":0.16058242321014404,"317":0.08869113773107529,"318":0.1381765902042389,"319":0.07791285216808319,"320":-0.071861632168293,"321":-0.17256705462932587,"322":-0.03936818987131119,"323":-0.16646818816661835,"324":-0.1574859619140625,"325":0.16613194346427917,"326":0.01830984279513359,"327":0.18448539078235626,"328":-0.12162525951862335,"329":-0.10423307120800018,"330":0.13220812380313873,"331":0.008030647411942482,"332":0.11142848432064056,"333":0.19578634202480316,"334":-0.017537279054522514,"335":0.11722934246063232,"336":0.12836813926696777,"337":-0.09386289119720459,"338":-0.07079530507326126,"339":-0.1096559390425682,"340":0.0848962813615799,"341":-0.10776697099208832,"342":0.16101408004760742,"343":0.08051054924726486,"344":-0.1333785504102707,"345":-0.10663362592458725,"346":-0.0015967104118317366,"347":0.028707703575491905,"348":-0.04258953779935837,"349":-0.18462607264518738,"350":-0.15850511193275452,"351":-0.0171929020434618,"352":-0.021178271621465683,"353":0.0037523594219237566,"354":0.19208353757858276,"355":0.11249994486570358,"356":-0.16695886850357056,"357":0.1788204461336136,"358":-0.09345617890357971,"359":-0.10755997896194458,"360":0.1816776841878891,"361":-0.04739495366811752,"362":-0.01019870862364769,"363":-0.1587669998407364,"364":0.009294805116951466,"365":-0.11073003709316254,"366":-0.04146142303943634,"367":0.16493450105190277,"368":0.11424824595451355,"369":-0.047688182443380356,"370":-0.14959648251533508,"371":0.030431760475039482,"372":-0.14925675094127655,"373":0.10851862281560898,"374":-0.1367853879928589,"375":0.0487263947725296,"376":0.10542939603328705,"377":0.07638102024793625,"378":-0.10674965381622314,"379":0.20117855072021484,"380":0.05141846835613251,"381":0.18966852128505707,"382":-0.11969830840826035,"383":0.19326657056808472,"384":-0.08055435866117477,"385":0.026084784418344498,"386":-0.07675454020500183,"387":-0.160273477435112,"388":0.1761021763086319,"389":-0.17762233316898346,"390":-0.1454721838235855,"391":0.1178220808506012,"392":-0.049836598336696625,"393":0.15175572037696838,"394":-0.19292019307613373,"395":-0.18645432591438293,"396":0.06319046020507812,"397":-0.0495755635201931,"398":0.021715106442570686,"399":0.16796058416366577}},"1":{"bias":0.06172613427042961,"weights":{"0":-0.20148994028568268,"1":0.049003761261701584,"2":-0.1288035660982132,"3":-0.2220003455877304,"4":0.037884000688791275,"5":-0.028099697083234787,"6":0.12404520064592361,"7":-0.13524550199508667,"8":0.08245720714330673,"9":0.11261438578367233,"10":-0.20010614395141602,"11":-0.19410012662410736,"12":0.12253269553184509,"13":0.1530628800392151,"14":-0.20847122371196747,"15":-0.07284882664680481,"16":0.0605783686041832,"17":-0.022074894979596138,"18":0.020661942660808563,"19":-0.1977771818637848,"20":0.016003848984837532,"21":-0.10078936815261841,"22":-0.01736173965036869,"23":0.11514133960008621,"24":-0.14339973032474518,"25":-0.189748615026474,"26":-0.09195942431688309,"27":-0.023067645728588104,"28":-0.031166717410087585,"29":-0.18424323201179504,"30":-0.07284465432167053,"31":-0.17927122116088867,"32":-0.11922749876976013,"33":-0.14332439005374908,"34":0.16301758587360382,"35":-0.19916555285453796,"36":-0.08043894171714783,"37":0.18783825635910034,"38":0.17186304926872253,"39":-0.14683650434017181,"40":-0.1264994591474533,"41":0.1418410986661911,"42":0.14782465994358063,"43":-0.052617721259593964,"44":0.0617225244641304,"45":0.1776791512966156,"46":0.17510448396205902,"47":0.1332111805677414,"48":-0.19016677141189575,"49":-0.09551853686571121,"50":0.05500033497810364,"51":-0.08685190230607986,"52":-0.060802627354860306,"53":0.0010068758856505156,"54":-0.09850803017616272,"55":0.1565684974193573,"56":0.03269623965024948,"57":0.12540391087532043,"58":0.0851186215877533,"59":0.05487784743309021,"60":0.010768034495413303,"61":-0.14868122339248657,"62":0.11153019219636917,"63":-0.17138119041919708,"64":-0.022742951288819313,"65":0.18274974822998047,"66":-0.13952533900737762,"67":-0.0027996867429465055,"68":0.07461011409759521,"69":-0.08575312793254852,"70":0.16505397856235504,"71":-0.18977120518684387,"72":-0.03527165949344635,"73":0.168321430683136,"74":-0.04595502093434334,"75":-0.08381758630275726,"76":-0.14770059287548065,"77":-0.1328817754983902,"78":-0.03439091518521309,"79":-0.17022159695625305,"80":-0.11292100697755814,"81":0.020595813170075417,"82":0.05439172685146332,"83":-0.12382906675338745,"84":-0.1900044083595276,"85":-0.021290386095643044,"86":0.12439285218715668,"87":0.17997565865516663,"88":-0.0632391944527626,"89":0.12983334064483643,"90":0.15761390328407288,"91":0.15368780493736267,"92":-0.17886388301849365,"93":0.06433041393756866,"94":0.10349824279546738,"95":0.010521035641431808,"96":0.18451233208179474,"97":-0.13590838015079498,"98":-0.20801401138305664,"99":0.14909565448760986,"100":0.04744165390729904,"101":-0.13663898408412933,"102":0.11251550167798996,"103":-0.19710883498191833,"104":0.021259386092424393,"105":-0.01309635303914547,"106":0.05959107354283333,"107":0.1323564201593399,"108":0.09741442650556564,"109":-0.040826573967933655,"110":0.1251038759946823,"111":0.04137363284826279,"112":0.14133098721504211,"113":0.1321050524711609,"114":-0.19267219305038452,"115":-0.12761838734149933,"116":-0.09588970988988876,"117":-0.19542552530765533,"118":0.12213649600744247,"119":-0.07674303650856018,"120":-0.17945504188537598,"121":-0.08686907589435577,"122":-0.07671631127595901,"123":0.18545453250408173,"124":-0.09088803082704544,"125":0.09723294526338577,"126":-0.1300041377544403,"127":0.18405671417713165,"128":0.02593548595905304,"129":-0.032231882214546204,"130":0.12869487702846527,"131":0.13718056678771973,"132":-0.16820146143436432,"133":0.006028186529874802,"134":0.04271237179636955,"135":-0.10174810886383057,"136":-0.15382790565490723,"137":0.16685661673545837,"138":0.07190434634685516,"139":-0.16270335018634796,"140":0.04186728596687317,"141":-0.13117223978042603,"142":0.16654494404792786,"143":0.18257281184196472,"144":-0.16357368230819702,"145":0.012631526216864586,"146":0.12339741736650467,"147":-0.046147361397743225,"148":0.10024841129779816,"149":0.029774731025099754,"150":-0.07659486681222916,"151":0.09662840515375137,"152":-0.06777287274599075,"153":0.07138416171073914,"154":-0.05109734088182449,"155":-0.0037939397152513266,"156":0.14906616508960724,"157":0.12044531852006912,"158":-0.016932660713791847,"159":-0.04964698106050491,"160":-0.006491770036518574,"161":-0.17297181487083435,"162":-0.07219494134187698,"163":0.19075335562229156,"164":-0.08989544212818146,"165":0.02000771462917328,"166":0.1636255830526352,"167":-0.08253362774848938,"168":-0.10313333570957184,"169":0.029911600053310394,"170":0.18588630855083466,"171":0.06056690961122513,"172":0.08142691105604172,"173":-0.03642106428742409,"174":-0.14005908370018005,"175":0.15826386213302612,"176":0.08406928181648254,"177":0.10774783045053482,"178":-0.0026942980475723743,"179":-0.048006217926740646,"180":-0.02041446976363659,"181":-0.08365371078252792,"182":0.027749566361308098,"183":0.03743723779916763,"184":-0.038048844784498215,"185":-0.1844005584716797,"186":-0.02785816229879856,"187":-0.07333096116781235,"188":0.10700550675392151,"189":-0.19170615077018738,"190":0.057121604681015015,"191":0.005182116292417049,"192":-0.012240015901625156,"193":0.11451126635074615,"194":-0.13897687196731567,"195":0.016897505149245262,"196":0.1490929275751114,"197":0.00593738816678524,"198":-0.08708980679512024,"199":-0.08875247836112976,"200":-0.12767645716667175,"201":0.10657891631126404,"202":0.0533871091902256,"203":-0.11348436027765274,"204":0.04459817335009575,"205":-0.1555929183959961,"206":0.19709399342536926,"207":-0.19740672409534454,"208":-0.18553824722766876,"209":-0.09738505631685257,"210":-0.04355451464653015,"211":-0.0035625940654426813,"212":0.09267939627170563,"213":0.012827534228563309,"214":0.06792853772640228,"215":-0.008132781833410263,"216":0.11289583146572113,"217":-0.07919859141111374,"218":0.02888013795018196,"219":0.11397386342287064,"220":0.0687706470489502,"221":0.06621899455785751,"222":0.09961117804050446,"223":0.06040671840310097,"224":0.1370985358953476,"225":0.19487608969211578,"226":-0.15122751891613007,"227":0.1155211552977562,"228":-0.09451161324977875,"229":-0.1123296320438385,"230":-0.01898489147424698,"231":0.033791668713092804,"232":-0.11649128794670105,"233":0.11169745773077011,"234":-0.18802322447299957,"235":-0.07789689302444458,"236":-0.032612625509500504,"237":0.03287368640303612,"238":0.1176852360367775,"239":0.06296177208423615,"240":-0.08578675985336304,"241":-0.09603339433670044,"242":0.052355822175741196,"243":-0.13725709915161133,"244":-0.1648477166891098,"245":0.1527138650417328,"246":-0.08145090192556381,"247":-0.044129643589258194,"248":0.15597547590732574,"249":-0.025041919201612473,"250":0.04700815677642822,"251":-0.020157692953944206,"252":0.08251617103815079,"253":0.15236201882362366,"254":0.03722511604428291,"255":0.09222058951854706,"256":-0.1475985050201416,"257":-0.13160958886146545,"258":0.15185809135437012,"259":0.1723620593547821,"260":-0.016992343589663506,"261":0.05148842930793762,"262":0.09847375005483627,"263":-0.019170617684721947,"264":-0.1532975733280182,"265":0.06690678000450134,"266":-0.08366198092699051,"267":-0.061534538865089417,"268":-0.0917656198143959,"269":0.022568296641111374,"270":-0.10324730724096298,"271":-0.033868368715047836,"272":-0.1030397117137909,"273":0.18172858655452728,"274":0.1720493882894516,"275":0.003518732264637947,"276":0.06884698569774628,"277":-0.2008708268404007,"278":0.15504190325737,"279":0.11603857576847076,"280":0.09334338456392288,"281":-0.17332260310649872,"282":-0.19343720376491547,"283":-0.06361646950244904,"284":0.1523023098707199,"285":-0.1516261249780655,"286":-0.022595519199967384,"287":0.08583565056324005,"288":-0.1342838704586029,"289":-0.06225164979696274,"290":-0.16299597918987274,"291":-0.11104552447795868,"292":0.06119847297668457,"293":-0.19312402606010437,"294":-0.01742505468428135,"295":-0.09361432492733002,"296":-0.1554606705904007,"297":0.009413898922502995,"298":0.13385169208049774,"299":0.1836649775505066,"300":-0.09073488414287567,"301":0.016109855845570564,"302":0.08096330612897873,"303":-0.1304878145456314,"304":-0.0704386755824089,"305":-0.12538418173789978,"306":-0.041611649096012115,"307":0.10947879403829575,"308":0.1848890483379364,"309":0.041656214743852615,"310":0.024620145559310913,"311":-0.048789266496896744,"312":-0.09397626668214798,"313":-0.16633714735507965,"314":0.09116029739379883,"315":-0.1270684450864792,"316":0.043953824788331985,"317":0.13322456181049347,"318":-0.10837724059820175,"319":-0.0464508980512619,"320":-0.06167333200573921,"321":0.05952911823987961,"322":-0.12150797992944717,"323":-0.11598660051822662,"324":0.03819895163178444,"325":0.021684935316443443,"326":0.19609542191028595,"327":0.05773894116282463,"328":0.003820552723482251,"329":-0.06311756372451782,"330":-0.027477949857711792,"331":-0.02732752449810505,"332":0.16604681313037872,"333":-0.03991677984595299,"334":-0.12976589798927307,"335":-0.07286714762449265,"336":0.048017993569374084,"337":0.11895758658647537,"338":-0.011291694827377796,"339":0.1310216635465622,"340":0.1879814863204956,"341":-0.15310119092464447,"342":0.019222324714064598,"343":-0.0958588644862175,"344":-0.037781424820423126,"345":-0.05995846167206764,"346":-0.13735058903694153,"347":-0.12969014048576355,"348":-0.10989563912153244,"349":0.1245194599032402,"350":-0.05817073956131935,"351":0.1704733669757843,"352":-0.1333257257938385,"353":0.1613297164440155,"354":-0.18814988434314728,"355":-0.12529462575912476,"356":-0.17376644909381866,"357":-0.0489598885178566,"358":0.14685973525047302,"359":-0.14315585792064667,"360":0.03094804659485817,"361":-0.002757198875769973,"362":-0.10349822044372559,"363":0.19221091270446777,"364":-0.11107515543699265,"365":0.17233906686306,"366":0.12572719156742096,"367":0.11358518898487091,"368":-0.15132224559783936,"369":0.07637417316436768,"370":-0.1866326481103897,"371":0.0652657151222229,"372":0.016289716586470604,"373":-0.11740320920944214,"374":-0.05867846682667732,"375":-0.16130182147026062,"376":-0.18445222079753876,"377":0.14400967955589294,"378":0.15218202769756317,"379":-0.036637648940086365,"380":-0.16618677973747253,"381":-0.02109680324792862,"382":0.14172214269638062,"383":0.09771382808685303,"384":0.01238791923969984,"385":0.05197751149535179,"386":0.07628625631332397,"387":-0.1230313628911972,"388":-0.16992633044719696,"389":0.18451738357543945,"390":0.07906162738800049,"391":0.09377513825893402,"392":0.1229902058839798,"393":-0.18205830454826355,"394":0.11997171491384506,"395":-0.023877877742052078,"396":0.07877088338136673,"397":0.13828012347221375,"398":-0.05927339941263199,"399":-0.1678491234779358}},"2":{"bias":0.12193690985441208,"weights":{"0":-0.09980753064155579,"1":-0.010148672387003899,"2":-0.1119501143693924,"3":-0.012042902410030365,"4":0.15113426744937897,"5":0.10700839757919312,"6":0.14622215926647186,"7":-0.1205117478966713,"8":0.06710263341665268,"9":-0.22863136231899261,"10":0.00029819869087077677,"11":-0.19497914612293243,"12":-0.16222520172595978,"13":0.09721667319536209,"14":0.07871943712234497,"15":-0.006535171996802092,"16":0.017880408093333244,"17":-0.0073199463076889515,"18":-0.15481047332286835,"19":-0.21742086112499237,"20":-0.12066197395324707,"21":0.027826430276036263,"22":-0.20767982304096222,"23":0.00405778968706727,"24":-0.21375954151153564,"25":-0.2643858790397644,"26":0.07981067150831223,"27":0.22269588708877563,"28":0.005169201176613569,"29":-0.10298636555671692,"30":-0.23846161365509033,"31":-0.1595349907875061,"32":-0.06448150426149368,"33":-0.2613478899002075,"34":-0.1434183269739151,"35":-0.15963488817214966,"36":0.05449772998690605,"37":0.10230383276939392,"38":0.25537142157554626,"39":-0.1635388433933258,"40":-0.05488809198141098,"41":0.10667811334133148,"42":-0.08940573781728745,"43":0.12253668904304504,"44":0.17382603883743286,"45":-0.004285247065126896,"46":0.07944946736097336,"47":-0.15485140681266785,"48":-0.134588360786438,"49":0.1896788477897644,"50":0.11755067855119705,"51":0.1513039618730545,"52":0.13660714030265808,"53":0.043257635086774826,"54":-0.03640205040574074,"55":0.09344369918107986,"56":-0.049068231135606766,"57":0.14446908235549927,"58":0.12193071097135544,"59":-0.05017460510134697,"60":-0.21284078061580658,"61":0.003826624946668744,"62":-0.20122207701206207,"63":-0.049591246992349625,"64":-0.1574561446905136,"65":-0.0019591166637837887,"66":0.2248247116804123,"67":-0.07071290910243988,"68":0.1146651953458786,"69":-0.0265878364443779,"70":0.16498450934886932,"71":0.06146928295493126,"72":0.18019773066043854,"73":-0.08898182958364487,"74":-0.18830996751785278,"75":0.1185053288936615,"76":0.04904571920633316,"77":0.08575338870286942,"78":-0.20921285450458527,"79":-0.07818256318569183,"80":0.06772971898317337,"81":-0.06496409326791763,"82":0.09507723152637482,"83":0.0024325489066541195,"84":0.14390523731708527,"85":-0.06287563592195511,"86":0.054196447134017944,"87":0.03335530310869217,"88":0.14933396875858307,"89":-0.07285374402999878,"90":0.07752151042222977,"91":0.05550386756658554,"92":-0.19874951243400574,"93":-0.18100380897521973,"94":0.1008862778544426,"95":-0.15873153507709503,"96":-0.05924772098660469,"97":0.10778665542602539,"98":-0.020781181752681732,"99":0.1066960021853447,"100":-0.012866251170635223,"101":-0.03281911090016365,"102":-0.09222283214330673,"103":-0.11946915835142136,"104":-0.009697811678051949,"105":0.06319229304790497,"106":-0.15899890661239624,"107":-0.09792254865169525,"108":-0.07377754151821136,"109":0.13502047955989838,"110":0.10910363495349884,"111":-0.09622566401958466,"112":0.08654597401618958,"113":-0.0809941440820694,"114":-0.015987388789653778,"115":-0.038840897381305695,"116":-0.09042441099882126,"117":0.11007443070411682,"118":0.19481132924556732,"119":0.04509584978222847,"120":-0.12197858840227127,"121":0.04553130641579628,"122":0.163323312997818,"123":0.006736188195645809,"124":0.19616152346134186,"125":-0.024966614320874214,"126":-0.12026926875114441,"127":0.16932986676692963,"128":0.1698428839445114,"129":0.153311625123024,"130":0.05833366513252258,"131":-0.0053888410329818726,"132":0.06960554420948029,"133":0.1690654754638672,"134":-0.02489711530506611,"135":-0.13110733032226562,"136":-0.17612816393375397,"137":-0.026111457496881485,"138":0.051881976425647736,"139":-0.1817840039730072,"140":0.011081480421125889,"141":0.06801266223192215,"142":-0.1508767008781433,"143":-0.10167715698480606,"144":0.1736905723810196,"145":-0.14620397984981537,"146":0.029614992439746857,"147":-0.09426027536392212,"148":-0.08986705541610718,"149":-0.003079511458054185,"150":0.12556228041648865,"151":0.1842348426580429,"152":-0.05558496341109276,"153":0.17349480092525482,"154":-0.12490462511777878,"155":-0.06350109726190567,"156":-0.16536469757556915,"157":-0.04379871487617493,"158":-0.0746491476893425,"159":-0.17000749707221985,"160":0.0014325990341603756,"161":0.10581746697425842,"162":-0.02756982110440731,"163":0.12353160977363586,"164":0.060454998165369034,"165":0.13809709250926971,"166":0.05735325813293457,"167":0.074515700340271,"168":0.11135037243366241,"169":0.03372340649366379,"170":0.1781083643436432,"171":-0.16624918580055237,"172":0.13798539340496063,"173":-0.09967239946126938,"174":-0.05620904266834259,"175":-0.05884368717670441,"176":-0.1865270882844925,"177":-0.11960835009813309,"178":-0.08768319338560104,"179":-0.06772223114967346,"180":0.17963753640651703,"181":0.05166564881801605,"182":0.07670324295759201,"183":-0.0618501752614975,"184":-0.050622809678316116,"185":0.06440187990665436,"186":0.006243293173611164,"187":0.05394095182418823,"188":0.1159229576587677,"189":-0.15469704568386078,"190":0.06692782789468765,"191":-0.1074148491024971,"192":-0.01057199202477932,"193":0.05190329998731613,"194":0.06935635954141617,"195":-0.1262856125831604,"196":0.19604329764842987,"197":-0.10553580522537231,"198":-0.06001492589712143,"199":-0.05274394154548645,"200":0.1289110779762268,"201":-0.04267553985118866,"202":-0.18055248260498047,"203":0.025817381218075752,"204":-0.022180667147040367,"205":0.049629662185907364,"206":0.09497180581092834,"207":0.1569959819316864,"208":0.012742144986987114,"209":-0.007203969638794661,"210":-0.13224147260189056,"211":0.05055742710828781,"212":-0.1381845474243164,"213":0.032647207379341125,"214":0.19125258922576904,"215":-0.01057700626552105,"216":0.09463261812925339,"217":0.101042740046978,"218":0.13112735748291016,"219":-0.17627675831317902,"220":0.10028647631406784,"221":0.08860941976308823,"222":0.134816974401474,"223":0.1444256752729416,"224":0.16353841125965118,"225":-0.2000831812620163,"226":0.10381898283958435,"227":0.19881251454353333,"228":0.1453240066766739,"229":-0.15315325558185577,"230":0.1527526080608368,"231":0.05698750168085098,"232":0.1687430888414383,"233":-0.13516126573085785,"234":0.1319545954465866,"235":-0.13202756643295288,"236":0.11581367999315262,"237":-0.1345861852169037,"238":-0.12162701785564423,"239":0.0907045528292656,"240":-0.17375974357128143,"241":-0.08374249190092087,"242":-0.0148380221799016,"243":0.13098451495170593,"244":-0.128681480884552,"245":0.04306009039282799,"246":-0.06116592511534691,"247":-0.1340489685535431,"248":-0.026656966656446457,"249":0.19716520607471466,"250":-0.1596275418996811,"251":-0.18184813857078552,"252":-0.017544548958539963,"253":0.0941108986735344,"254":-0.20038680732250214,"255":0.047314468771219254,"256":-0.1760936826467514,"257":-0.013924275524914265,"258":0.042303092777729034,"259":-0.047476496547460556,"260":0.06117319315671921,"261":-0.11353832483291626,"262":-0.05042537674307823,"263":0.12348458170890808,"264":0.1298726499080658,"265":0.11883819103240967,"266":0.002389085479080677,"267":0.06974118202924728,"268":0.13606569170951843,"269":-0.12363982945680618,"270":-0.14283280074596405,"271":0.05986403673887253,"272":0.05682279169559479,"273":0.1482454389333725,"274":0.1637592315673828,"275":-0.1743740290403366,"276":0.058507658541202545,"277":0.026616377755999565,"278":-0.1903073489665985,"279":0.060195647180080414,"280":-0.02896040491759777,"281":-0.078877292573452,"282":-0.16159965097904205,"283":-0.15743285417556763,"284":0.17869935929775238,"285":-0.10405275225639343,"286":0.13526126742362976,"287":-0.11130115389823914,"288":-0.0011556805111467838,"289":-0.05492958799004555,"290":-0.1037125289440155,"291":-0.20038782060146332,"292":0.1757911741733551,"293":-0.11740104854106903,"294":-0.15247534215450287,"295":0.10817554593086243,"296":0.022654395550489426,"297":-0.15405571460723877,"298":-0.06491291522979736,"299":0.07071837037801743,"300":-0.025736603885889053,"301":-0.00038998830132186413,"302":-0.13281254470348358,"303":0.005092090927064419,"304":0.12416352331638336,"305":0.0774427279829979,"306":-0.10524801909923553,"307":0.16377170383930206,"308":-0.04713788628578186,"309":-0.0766885057091713,"310":-0.19573310017585754,"311":0.01781594753265381,"312":-0.1056407243013382,"313":-0.19432124495506287,"314":-0.0007711556972935796,"315":-0.11174948513507843,"316":-0.09932070970535278,"317":0.056534722447395325,"318":-0.11739456653594971,"319":-0.14213891327381134,"320":-0.10391030460596085,"321":0.10754822194576263,"322":0.13118255138397217,"323":0.17399965226650238,"324":0.040483471006155014,"325":0.09465477615594864,"326":0.09017550200223923,"327":-0.20097802579402924,"328":-0.13064856827259064,"329":-0.11184602230787277,"330":0.16036926209926605,"331":-0.11018263548612595,"332":0.12884379923343658,"333":-0.031238431110978127,"334":-0.14325237274169922,"335":-0.009592078626155853,"336":0.12923602759838104,"337":-0.013715489767491817,"338":-0.012555113062262535,"339":0.013665526174008846,"340":-0.18470066785812378,"341":-0.04496321454644203,"342":0.14826688170433044,"343":-0.1632496863603592,"344":-0.13690471649169922,"345":-0.0508769266307354,"346":-0.05207456275820732,"347":0.15804587304592133,"348":-0.1132562980055809,"349":-0.015253827907145023,"350":-0.06719861924648285,"351":-0.062004704028367996,"352":-0.02956629917025566,"353":0.02362220361828804,"354":0.022646769881248474,"355":-0.005549673922359943,"356":0.1669328361749649,"357":-0.06625254452228546,"358":0.1824025958776474,"359":0.006265887059271336,"360":0.0026822066865861416,"361":0.05175599083304405,"362":0.028429530560970306,"363":0.15631437301635742,"364":-0.10860876739025116,"365":-0.11076781153678894,"366":-0.10703130066394806,"367":-0.07429208606481552,"368":0.18077978491783142,"369":0.16468150913715363,"370":-0.04522949829697609,"371":0.18519534170627594,"372":-0.14943084120750427,"373":0.0462111197412014,"374":-0.13873262703418732,"375":-0.1264059692621231,"376":-0.0045083388686180115,"377":-0.10293731093406677,"378":0.14417757093906403,"379":-0.0871230885386467,"380":0.12980854511260986,"381":-0.1331569254398346,"382":0.0980558916926384,"383":0.126980721950531,"384":0.18217715620994568,"385":0.12399131059646606,"386":0.06350501626729965,"387":0.15125712752342224,"388":0.052735522389411926,"389":0.02466018684208393,"390":0.025568362325429916,"391":-0.11474962532520294,"392":0.019419953227043152,"393":-0.11951997876167297,"394":0.09852232038974762,"395":0.1120302677154541,"396":0.07327459007501602,"397":0.061784397810697556,"398":0.01899363100528717,"399":0.14453499019145966}},"3":{"bias":-0.1961151510477066,"weights":{"0":0.2075037956237793,"1":0.07501542568206787,"2":0.09717078506946564,"3":0.05868275463581085,"4":0.11596739292144775,"5":0.19601817429065704,"6":-0.06622829288244247,"7":0.17082828283309937,"8":-0.10252276808023453,"9":0.0018167088273912668,"10":0.0678127259016037,"11":0.14411498606204987,"12":-0.1586889624595642,"13":0.19640815258026123,"14":-0.005959199275821447,"15":0.08170211315155029,"16":0.14621712267398834,"17":0.08589497208595276,"18":-0.11326592415571213,"19":-0.017733290791511536,"20":-0.08438766747713089,"21":-0.2563539445400238,"22":0.026014531031250954,"23":0.13947279751300812,"24":0.1857222318649292,"25":-0.12099701166152954,"26":0.052184902131557465,"27":0.035658322274684906,"28":-0.19050931930541992,"29":-0.12609295547008514,"30":-0.034755345433950424,"31":0.04636499658226967,"32":-0.1648625135421753,"33":-0.02400665543973446,"34":0.12672846019268036,"35":-0.15948159992694855,"36":0.09785017371177673,"37":-0.0038145906291902065,"38":0.15810851752758026,"39":-0.1980016678571701,"40":0.06186464801430702,"41":0.02327278070151806,"42":0.011306465603411198,"43":-0.09035460650920868,"44":-0.021004874259233475,"45":0.06171714887022972,"46":0.026120172813534737,"47":0.04013374447822571,"48":-0.19520150125026703,"49":0.004931080155074596,"50":0.08183977007865906,"51":0.05716041848063469,"52":-0.12400909513235092,"53":-0.0629701092839241,"54":-0.18110747635364532,"55":-0.1864679902791977,"56":0.030840817838907242,"57":-0.13917775452136993,"58":0.08628920465707779,"59":0.13523641228675842,"60":-0.1328296959400177,"61":-0.016795463860034943,"62":-0.12207385152578354,"63":-0.1668083220720291,"64":0.08056128025054932,"65":0.08676348626613617,"66":-0.18336103856563568,"67":-0.16758722066879272,"68":0.08247151225805283,"69":-0.14788296818733215,"70":0.006981201469898224,"71":-0.17015928030014038,"72":0.13726186752319336,"73":0.01696234568953514,"74":0.0009304292616434395,"75":-0.004246322903782129,"76":0.09450887888669968,"77":0.028463810682296753,"78":-0.1898084431886673,"79":-0.049271292984485626,"80":0.05174623429775238,"81":-0.058559685945510864,"82":0.07100134342908859,"83":0.07282277196645737,"84":-0.19229267537593842,"85":0.0018254653550684452,"86":-0.174101322889328,"87":-0.0031866542994976044,"88":0.03891260176897049,"89":-0.09339447319507599,"90":-0.03554346784949303,"91":0.06519649922847748,"92":-0.08044693619012833,"93":0.1489812731742859,"94":0.06277869641780853,"95":0.11415299028158188,"96":-0.1553194224834442,"97":-0.051672838628292084,"98":0.15823714435100555,"99":0.04527461901307106,"100":-0.0738530382514,"101":-0.1850176602602005,"102":0.10708996653556824,"103":0.03650856018066406,"104":0.03058372251689434,"105":-0.15216930210590363,"106":-0.10286402702331543,"107":0.1630459427833557,"108":-0.07250024378299713,"109":-0.06241019442677498,"110":-0.06244363635778427,"111":-0.1523369699716568,"112":-0.012279735878109932,"113":-0.12088552117347717,"114":0.010118281468749046,"115":-0.11653664708137512,"116":0.04989799112081528,"117":-0.05607057735323906,"118":-0.14957113564014435,"119":0.02070079930126667,"120":0.17372503876686096,"121":-0.13140961527824402,"122":-0.11623287200927734,"123":-0.2013668715953827,"124":0.13522502779960632,"125":0.037329018115997314,"126":0.07385994493961334,"127":0.014494556933641434,"128":0.030663199722766876,"129":-0.0684145987033844,"130":-0.10104195773601532,"131":-0.18719930946826935,"132":0.031423818320035934,"133":0.06576814502477646,"134":-0.035364534705877304,"135":0.15364152193069458,"136":0.12968820333480835,"137":-0.10279720276594162,"138":-0.09115652740001678,"139":-0.17775103449821472,"140":-0.10421248525381088,"141":-0.1643272191286087,"142":0.010897316038608551,"143":0.027748551219701767,"144":0.019589703530073166,"145":0.022729389369487762,"146":0.17186948657035828,"147":-0.05067422613501549,"148":0.07694295048713684,"149":0.04865502566099167,"150":-0.07713973522186279,"151":-0.09292411804199219,"152":0.053580623120069504,"153":-0.0813848003745079,"154":0.020989734679460526,"155":0.044307220727205276,"156":0.11056295037269592,"157":-0.19503098726272583,"158":0.18893058598041534,"159":0.1608206033706665,"160":-0.19515155255794525,"161":0.02581876516342163,"162":0.06482279300689697,"163":0.14525777101516724,"164":0.14519953727722168,"165":0.15117742121219635,"166":0.08426202833652496,"167":-0.1272631734609604,"168":-0.032406777143478394,"169":-0.1407872885465622,"170":0.02966902405023575,"171":-0.0597732849419117,"172":0.1330975741147995,"173":-0.19107770919799805,"174":-0.15912288427352905,"175":-0.0601787231862545,"176":-0.15589414536952972,"177":-0.17936021089553833,"178":-0.0445096530020237,"179":0.11846060305833817,"180":-0.1608295887708664,"181":0.11534959822893143,"182":-0.1925792098045349,"183":0.1720254123210907,"184":0.1429498940706253,"185":0.08447646349668503,"186":0.06409254670143127,"187":0.06866474449634552,"188":-0.13602273166179657,"189":-0.10455789417028427,"190":-0.008296864107251167,"191":-0.1719672828912735,"192":0.11029873043298721,"193":-0.11875718832015991,"194":0.007906985469162464,"195":-0.0902724638581276,"196":0.16416266560554504,"197":-0.07714732736349106,"198":0.05656316503882408,"199":-0.15211768448352814,"200":-0.08596395701169968,"201":-0.12256351858377457,"202":0.11002421379089355,"203":0.07618339359760284,"204":0.0442516952753067,"205":0.14502955973148346,"206":-0.09147732704877853,"207":-0.08981713652610779,"208":0.12801872193813324,"209":-0.17932716012001038,"210":0.15153372287750244,"211":-0.07459740340709686,"212":0.17705070972442627,"213":0.16699174046516418,"214":-0.14619828760623932,"215":-0.023906754329800606,"216":0.0016936423489823937,"217":-0.17960776388645172,"218":0.1810625046491623,"219":-0.16045312583446503,"220":-0.019317632541060448,"221":-0.1818387657403946,"222":0.0989498645067215,"223":0.0188994649797678,"224":-0.11383143812417984,"225":0.07066051661968231,"226":-0.014419768936932087,"227":0.1762750893831253,"228":-0.19966064393520355,"229":-0.08521823585033417,"230":0.09667693823575974,"231":0.18747784197330475,"232":-0.1821499466896057,"233":-0.19519999623298645,"234":-0.16503961384296417,"235":-0.052238669246435165,"236":-0.030869655311107635,"237":-0.12845633924007416,"238":0.04947048798203468,"239":-0.1553511619567871,"240":0.05970804765820503,"241":-0.07643532007932663,"242":-0.1945614218711853,"243":0.13122805953025818,"244":-0.08723745495080948,"245":-0.11120462417602539,"246":-0.14241935312747955,"247":-0.07997690886259079,"248":0.1808212250471115,"249":-0.14332428574562073,"250":0.07873591035604477,"251":-0.1540793925523758,"252":0.04863373935222626,"253":0.16644376516342163,"254":0.0014754910953342915,"255":0.08680883049964905,"256":0.010995021089911461,"257":-0.18703171610832214,"258":-0.11659926921129227,"259":0.17912960052490234,"260":0.016252974048256874,"261":0.1315784454345703,"262":-0.04067908972501755,"263":-0.12614962458610535,"264":-0.18064334988594055,"265":-0.06284522265195847,"266":0.18038424849510193,"267":-0.11754599213600159,"268":-0.1687207669019699,"269":0.08180508017539978,"270":0.1486995965242386,"271":-0.1408890336751938,"272":0.0642717257142067,"273":0.014393101446330547,"274":0.14155536890029907,"275":0.1300751119852066,"276":0.11903033405542374,"277":0.13517089188098907,"278":0.11384277790784836,"279":0.025311080738902092,"280":0.0820348858833313,"281":-0.14633478224277496,"282":-0.059475794434547424,"283":0.18089580535888672,"284":0.08399412035942078,"285":0.14855794608592987,"286":0.030005289241671562,"287":0.04809199646115303,"288":-0.19889004528522491,"289":-0.17197847366333008,"290":0.11516042798757553,"291":-0.13701261579990387,"292":-0.16083410382270813,"293":-0.16516320407390594,"294":0.1369495391845703,"295":-0.03887328878045082,"296":0.029965974390506744,"297":0.15060274302959442,"298":-0.12998172640800476,"299":0.12383348494768143,"300":0.16385237872600555,"301":-0.10362046211957932,"302":0.12581788003444672,"303":0.07704151421785355,"304":-0.09130065888166428,"305":-0.038570307195186615,"306":-0.055382877588272095,"307":0.1522030383348465,"308":0.17617939412593842,"309":-0.09105411916971207,"310":-0.015522940084338188,"311":0.13728533685207367,"312":0.08355910331010818,"313":0.0291921254247427,"314":-0.027144355699419975,"315":-0.057753223925828934,"316":-0.019089097157120705,"317":0.12303850054740906,"318":-0.19150972366333008,"319":0.08791536092758179,"320":-0.1955489069223404,"321":-0.08567837625741959,"322":0.09274540841579437,"323":-0.10419773310422897,"324":0.11731623113155365,"325":-0.14476022124290466,"326":0.08402083814144135,"327":-0.08530916273593903,"328":-0.12775708734989166,"329":0.1914254128932953,"330":0.06449621915817261,"331":-0.07488983869552612,"332":-0.19734066724777222,"333":-0.08790434151887894,"334":-0.10607592016458511,"335":-0.15752503275871277,"336":0.0409247949719429,"337":-0.16681814193725586,"338":0.12306574732065201,"339":0.03896268829703331,"340":-0.19035860896110535,"341":-0.04869239777326584,"342":-0.1918557733297348,"343":-0.14584481716156006,"344":-0.16658976674079895,"345":0.1726742386817932,"346":0.008615736849606037,"347":-0.1329449862241745,"348":-0.0701948031783104,"349":-0.06362290680408478,"350":0.055367808789014816,"351":-0.01950722746551037,"352":-0.0375937856733799,"353":0.05805078148841858,"354":-0.19872669875621796,"355":-0.14102183282375336,"356":-0.021472377702593803,"357":0.0888809785246849,"358":0.1857060194015503,"359":0.11611289530992508,"360":0.12813539803028107,"361":-0.011728907003998756,"362":-0.1692548245191574,"363":0.17594775557518005,"364":0.02130335196852684,"365":0.15120086073875427,"366":0.04072839766740799,"367":-0.16445304453372955,"368":0.07963144779205322,"369":-0.1595403254032135,"370":-0.03686603531241417,"371":0.15237002074718475,"372":0.1900303214788437,"373":-0.04897070303559303,"374":-0.0756835862994194,"375":0.004442157689481974,"376":0.017899924889206886,"377":0.1237579807639122,"378":0.009868358261883259,"379":-0.030214810743927956,"380":-0.04120464250445366,"381":-0.18091362714767456,"382":-0.18310348689556122,"383":-0.10216081142425537,"384":-0.07558973133563995,"385":-0.06876461207866669,"386":-0.1138591468334198,"387":-0.19521595537662506,"388":0.02037491649389267,"389":-0.12256674468517303,"390":-0.1883237361907959,"391":0.15025752782821655,"392":0.10179204493761063,"393":-0.08428098261356354,"394":-0.13885894417762756,"395":0.11217646300792694,"396":-0.10981435328722,"397":-0.05444478616118431,"398":0.0983373150229454,"399":0.09494106471538544}},"4":{"bias":-0.03284285217523575,"weights":{"0":-0.14464102685451508,"1":0.1169416606426239,"2":0.0035958215594291687,"3":0.20039261877536774,"4":0.10336309671401978,"5":0.21912221610546112,"6":-0.1250777691602707,"7":0.1319226175546646,"8":-0.1642160713672638,"9":0.008925629779696465,"10":0.18508927524089813,"11":0.10057849436998367,"12":0.057618506252765656,"13":-0.026937875896692276,"14":0.002038734732195735,"15":0.040407080203294754,"16":0.15227116644382477,"17":-0.1812567561864853,"18":-0.1400344967842102,"19":0.2025211751461029,"20":0.15458054840564728,"21":-0.12048829346895218,"22":0.0747881531715393,"23":0.0015468597412109375,"24":0.056913260370492935,"25":-0.014766823500394821,"26":0.056393977254629135,"27":-0.20112727582454681,"28":0.10236350446939468,"29":0.11116118729114532,"30":0.062384944409132004,"31":0.08867741376161575,"32":-0.10533751547336578,"33":-0.08443135768175125,"34":0.19730986654758453,"35":-0.02284901775419712,"36":0.14130432903766632,"37":-0.04930127412080765,"38":-0.21135245263576508,"39":-0.038197971880435944,"40":0.10992662608623505,"41":-0.056246742606163025,"42":0.0364408977329731,"43":0.1241992935538292,"44":0.12010001391172409,"45":-0.06817696243524551,"46":-0.07244343310594559,"47":-0.019255666062235832,"48":-0.1841515451669693,"49":-0.03742589056491852,"50":-0.22954973578453064,"51":0.1805286854505539,"52":-0.062474824488162994,"53":-0.09335962682962418,"54":-0.16044321656227112,"55":-0.17855873703956604,"56":-0.18897469341754913,"57":-0.1081487238407135,"58":0.18894636631011963,"59":0.01822740025818348,"60":0.14257287979125977,"61":-0.17265810072422028,"62":0.13793595135211945,"63":0.2182706594467163,"64":-0.14501719176769257,"65":-0.13899166882038116,"66":0.15221033990383148,"67":-0.000844042282551527,"68":0.09646859019994736,"69":0.12820643186569214,"70":-0.18325437605381012,"71":0.008649658411741257,"72":-0.17455267906188965,"73":-0.1801646202802658,"74":0.07845281809568405,"75":-0.18778599798679352,"76":-0.08234699815511703,"77":0.029058868065476418,"78":0.19264301657676697,"79":0.06477987766265869,"80":-0.06288986653089523,"81":-0.10146865248680115,"82":-0.1707882583141327,"83":-0.09871435165405273,"84":-0.10219376534223557,"85":0.13859793543815613,"86":-0.16473519802093506,"87":0.02524217776954174,"88":0.051313139498233795,"89":-0.18661288917064667,"90":0.07550405710935593,"91":-0.025913411751389503,"92":0.0257636196911335,"93":-0.11100751161575317,"94":0.051667071878910065,"95":-0.0542609877884388,"96":0.20678752660751343,"97":0.028578106313943863,"98":-0.06153293326497078,"99":0.0017579483101144433,"100":0.08647619187831879,"101":-0.09304028004407883,"102":-0.15204040706157684,"103":0.10196783393621445,"104":0.1838088482618332,"105":-0.09439834952354431,"106":0.10082322359085083,"107":-0.04601138085126877,"108":0.08863770216703415,"109":-0.035826895385980606,"110":-0.11303653568029404,"111":0.11278411000967026,"112":-0.007898896932601929,"113":0.10855022072792053,"114":0.05743555724620819,"115":0.016281038522720337,"116":-0.02792474813759327,"117":-0.20299243927001953,"118":-0.018312055617570877,"119":-0.08478585630655289,"120":-0.04671609401702881,"121":-0.14335130155086517,"122":0.07626646012067795,"123":0.026134977117180824,"124":-0.051013290882110596,"125":-0.15529491007328033,"126":0.13875554502010345,"127":0.1584997922182083,"128":-0.12107133120298386,"129":-0.08048582822084427,"130":-0.1518508493900299,"131":0.18876518309116364,"132":0.12363459914922714,"133":0.12457085400819778,"134":-0.07975518703460693,"135":-0.0719880759716034,"136":0.1608668714761734,"137":0.03982929512858391,"138":-0.012277684174478054,"139":-0.0705699622631073,"140":0.0168354082852602,"141":-0.08593671768903732,"142":-0.02330283261835575,"143":-0.059911102056503296,"144":0.1126997321844101,"145":0.1385745108127594,"146":0.09065263718366623,"147":-0.06007228046655655,"148":-0.15845966339111328,"149":-0.10046377778053284,"150":0.1272776871919632,"151":0.018684079870581627,"152":0.12376302480697632,"153":-0.1825040727853775,"154":-0.047910045832395554,"155":0.009797933511435986,"156":-0.05635202303528786,"157":-0.16697779297828674,"158":0.04014027863740921,"159":0.01566276326775551,"160":0.08967945724725723,"161":-0.17288947105407715,"162":-0.05401332303881645,"163":-0.08087925612926483,"164":0.12199118733406067,"165":-0.15108229219913483,"166":0.1835397183895111,"167":-0.18724380433559418,"168":-0.17516985535621643,"169":0.1754334419965744,"170":-0.09397795051336288,"171":0.08282160013914108,"172":-0.17771930992603302,"173":0.1666070967912674,"174":0.11516933888196945,"175":0.05166212469339371,"176":0.033502038568258286,"177":-0.15819372236728668,"178":0.1623842418193817,"179":-0.025823308154940605,"180":-0.09377346932888031,"181":0.10614337027072906,"182":0.019999004900455475,"183":-0.03721752390265465,"184":-0.1703210026025772,"185":-0.014723029918968678,"186":-0.18360041081905365,"187":-0.1038842648267746,"188":-0.06974673271179199,"189":0.16684861481189728,"190":-0.07375165075063705,"191":-0.07613331079483032,"192":-0.17134174704551697,"193":-0.09101958572864532,"194":0.176611065864563,"195":0.010277219116687775,"196":-0.12979529798030853,"197":0.033644672483205795,"198":-0.0933963879942894,"199":-0.1552741527557373,"200":0.01153212133795023,"201":-0.10107608884572983,"202":-0.07243497669696808,"203":-0.20006060600280762,"204":-0.16037701070308685,"205":0.01827998273074627,"206":0.019011812284588814,"207":0.1332547515630722,"208":-0.2023124098777771,"209":-0.18557582795619965,"210":0.19137367606163025,"211":-0.12572181224822998,"212":0.162993386387825,"213":-0.1218140721321106,"214":0.0884103924036026,"215":-0.015658298507332802,"216":-0.09866546094417572,"217":-0.09802177548408508,"218":0.18245773017406464,"219":0.028981078416109085,"220":0.0431140772998333,"221":0.04121648520231247,"222":-0.13943666219711304,"223":0.08463191986083984,"224":-0.07582356035709381,"225":-0.15716014802455902,"226":0.1435210406780243,"227":0.06389766931533813,"228":0.15073931217193604,"229":-0.16381123661994934,"230":-0.022346829995512962,"231":-0.15453332662582397,"232":-0.12193306535482407,"233":-0.0885922759771347,"234":0.13413594663143158,"235":-0.04030061885714531,"236":0.004064610693603754,"237":0.17748723924160004,"238":0.1520858108997345,"239":0.02760516107082367,"240":-0.03879242390394211,"241":-0.018058964982628822,"242":0.06547897309064865,"243":-0.07454131543636322,"244":0.15821199119091034,"245":0.054294101893901825,"246":0.14042118191719055,"247":0.007909230887889862,"248":0.11673615872859955,"249":0.15210187435150146,"250":0.13466858863830566,"251":0.0866839587688446,"252":0.13465097546577454,"253":-0.09441814571619034,"254":0.18319302797317505,"255":0.08887605369091034,"256":-0.12488085776567459,"257":0.07460489869117737,"258":-0.03546714410185814,"259":-0.025902073830366135,"260":0.014184189029037952,"261":-0.17157898843288422,"262":0.17409655451774597,"263":0.10566820949316025,"264":0.0072485352866351604,"265":0.06997651606798172,"266":0.13529866933822632,"267":0.17056934535503387,"268":-0.008316556923091412,"269":-0.13074904680252075,"270":0.17870695888996124,"271":-0.16565056145191193,"272":-0.0050670066848397255,"273":0.038791168481111526,"274":-0.03330342471599579,"275":0.03827386721968651,"276":-0.059723928570747375,"277":-0.1548946499824524,"278":0.02707657217979431,"279":0.05734769627451897,"280":0.051842134445905685,"281":-0.1703353375196457,"282":0.06756043434143066,"283":-0.09677968919277191,"284":0.14288312196731567,"285":0.11352802067995071,"286":-0.012760553508996964,"287":0.11015889048576355,"288":0.12979838252067566,"289":0.04366360977292061,"290":0.05125769227743149,"291":-0.15959496796131134,"292":-0.19425822794437408,"293":-0.1295377016067505,"294":0.11689233034849167,"295":-0.01905767060816288,"296":0.04746098071336746,"297":0.00680485088378191,"298":-0.16007594764232635,"299":-0.023702271282672882,"300":-0.06466510146856308,"301":0.15069331228733063,"302":0.10044099390506744,"303":-0.14503665268421173,"304":0.1698591262102127,"305":-0.12071329355239868,"306":0.09278618544340134,"307":0.03091796487569809,"308":0.14351853728294373,"309":0.016873324289917946,"310":0.12170874327421188,"311":-0.04490368068218231,"312":0.0593106672167778,"313":0.15873375535011292,"314":-0.00011920226097572595,"315":-0.17761214077472687,"316":-0.145507350564003,"317":0.14392352104187012,"318":-0.13310600817203522,"319":-0.1911400407552719,"320":0.054110776633024216,"321":0.16199399530887604,"322":-0.11432316899299622,"323":0.08818289637565613,"324":-0.13190357387065887,"325":-0.10789544135332108,"326":0.0073609803803265095,"327":-0.12719754874706268,"328":0.18653489649295807,"329":-0.006112238857895136,"330":0.18288595974445343,"331":-0.1862301528453827,"332":-0.18899641931056976,"333":-0.01536644995212555,"334":-0.12171529978513718,"335":0.06333602964878082,"336":-0.11381404101848602,"337":0.19212906062602997,"338":0.1271986961364746,"339":-0.18313631415367126,"340":0.18002735078334808,"341":0.12144997715950012,"342":-0.0713493674993515,"343":0.08436084538698196,"344":-0.12645845115184784,"345":0.07029352337121964,"346":0.10291968286037445,"347":0.15171363949775696,"348":0.0068104881793260574,"349":0.07996133714914322,"350":-0.11624208092689514,"351":0.058645863085985184,"352":0.07223673164844513,"353":-0.05455688387155533,"354":0.015018158592283726,"355":0.11626692116260529,"356":-0.15272210538387299,"357":0.16283221542835236,"358":0.12603512406349182,"359":0.15882323682308197,"360":-0.038542456924915314,"361":0.1597304493188858,"362":0.023334670811891556,"363":-0.104186050593853,"364":0.021812474355101585,"365":0.060506924986839294,"366":0.12567199766635895,"367":-0.020053870975971222,"368":-0.1957235038280487,"369":0.19234931468963623,"370":-0.03164716809988022,"371":0.05014944076538086,"372":-0.033345140516757965,"373":-0.1425372213125229,"374":0.02890600450336933,"375":0.09429299831390381,"376":0.06602901220321655,"377":0.016945427283644676,"378":0.1482093632221222,"379":0.05333760008215904,"380":-0.1860789656639099,"381":0.002861112356185913,"382":0.009533055126667023,"383":-0.07149070501327515,"384":0.00022884311329107732,"385":0.008498097769916058,"386":-0.0904529020190239,"387":-0.12407522648572922,"388":0.011727306060492992,"389":-0.1896820217370987,"390":-0.07256928831338882,"391":0.007426525931805372,"392":-0.04024393856525421,"393":-0.14790302515029907,"394":-0.12009180337190628,"395":-0.16435198485851288,"396":0.11135586351156235,"397":-0.19869457185268402,"398":0.11171216517686844,"399":-0.07872989028692245}},"5":{"bias":-0.16709165275096893,"weights":{"0":0.19607986509799957,"1":-0.18686112761497498,"2":0.15447261929512024,"3":0.14579987525939941,"4":0.1275606006383896,"5":0.061138130724430084,"6":0.15333528816699982,"7":-0.13161557912826538,"8":-0.08903810381889343,"9":0.0029852536972612143,"10":-0.1854531168937683,"11":0.12455113232135773,"12":0.03144628182053566,"13":0.216626837849617,"14":0.1911165863275528,"15":-0.039882536977529526,"16":0.032534532248973846,"17":-0.2943527102470398,"18":0.060715802013874054,"19":-0.10695922374725342,"20":-0.08826865255832672,"21":-0.15484897792339325,"22":-0.13801820576190948,"23":0.11273401975631714,"24":0.08910033106803894,"25":0.014543541707098484,"26":0.04719669744372368,"27":0.05956970527768135,"28":-0.1755916327238083,"29":0.03890327736735344,"30":0.10876544564962387,"31":-0.041318267583847046,"32":0.19026966392993927,"33":0.19597415626049042,"34":0.1324702948331833,"35":0.13384568691253662,"36":-0.1446535438299179,"37":0.19193525612354279,"38":-0.10860232263803482,"39":0.11424695700407028,"40":0.013895858079195023,"41":-0.18035179376602173,"42":0.13213758170604706,"43":-0.16273531317710876,"44":-0.1758972853422165,"45":-0.14295250177383423,"46":0.09641960263252258,"47":-0.141087606549263,"48":-0.16847282648086548,"49":-0.04507797211408615,"50":-0.004208574537187815,"51":0.1835077702999115,"52":-0.09687036275863647,"53":0.0008219911833293736,"54":0.1720251441001892,"55":0.1588028371334076,"56":-0.015758085995912552,"57":-0.1779271513223648,"58":0.0218103788793087,"59":0.013915368355810642,"60":0.09797809273004532,"61":0.012737962417304516,"62":0.08443530648946762,"63":0.028845952823758125,"64":-0.04711341857910156,"65":0.11444582790136337,"66":0.06356236338615417,"67":-0.15712784230709076,"68":0.011050121858716011,"69":0.19939817488193512,"70":-0.020585371181368828,"71":0.01654573157429695,"72":-0.049653176218271255,"73":0.08977913856506348,"74":0.09890090674161911,"75":-0.19878582656383514,"76":0.03429063782095909,"77":-0.0747215673327446,"78":0.03854969143867493,"79":-0.17508244514465332,"80":-0.1641991138458252,"81":0.13375811278820038,"82":0.11470281332731247,"83":-0.06848431378602982,"84":-0.146505668759346,"85":0.20591650903224945,"86":-0.0724715143442154,"87":0.026555031538009644,"88":-0.01965317875146866,"89":-0.09787303954362869,"90":0.028460949659347534,"91":0.18882443010807037,"92":0.011946219950914383,"93":0.14113925397396088,"94":0.03331976383924484,"95":0.1193937212228775,"96":-0.15929824113845825,"97":-0.12443160265684128,"98":0.12917077541351318,"99":0.024717342108488083,"100":-0.1387493908405304,"101":0.17008501291275024,"102":0.0654585212469101,"103":0.16001753509044647,"104":0.08582905679941177,"105":0.07922489196062088,"106":0.16386550664901733,"107":0.06767833232879639,"108":-0.05117601156234741,"109":-0.06690096855163574,"110":0.1476806402206421,"111":0.17071223258972168,"112":-0.14446407556533813,"113":0.05148307979106903,"114":0.014655656181275845,"115":0.040277279913425446,"116":0.13296784460544586,"117":0.002503795549273491,"118":0.0345042385160923,"119":0.11143044382333755,"120":-0.008832208812236786,"121":0.0363614521920681,"122":0.05346294492483139,"123":-0.17957039177417755,"124":0.1511085480451584,"125":0.1896892786026001,"126":-0.05696883425116539,"127":-0.1883445680141449,"128":0.03556524217128754,"129":0.09313531965017319,"130":0.007542222272604704,"131":0.04416334256529808,"132":-0.02166697382926941,"133":0.0024815944489091635,"134":0.02885977365076542,"135":-0.1547928899526596,"136":-0.07964357733726501,"137":0.14911194145679474,"138":-0.07033418864011765,"139":-0.12580524384975433,"140":0.01136617362499237,"141":0.08382750302553177,"142":0.013355606235563755,"143":-0.08241817355155945,"144":0.18034395575523376,"145":-0.17674611508846283,"146":0.13628816604614258,"147":-0.03308660909533501,"148":0.14765457808971405,"149":-0.07081646472215652,"150":-0.17161668837070465,"151":-0.07378729432821274,"152":0.14848896861076355,"153":0.13291339576244354,"154":-0.17957516014575958,"155":-0.008887534029781818,"156":-0.11608412116765976,"157":-0.0008245863718912005,"158":0.03608987107872963,"159":0.042417947202920914,"160":-0.11779311299324036,"161":0.0429062619805336,"162":-0.16705535352230072,"163":0.0016816591378301382,"164":-0.2021612524986267,"165":-0.02818184159696102,"166":-0.06889718025922775,"167":0.07792238891124725,"168":0.0846278965473175,"169":0.06590479612350464,"170":0.005825425963848829,"171":-0.07470661401748657,"172":0.05562671646475792,"173":-0.015010478906333447,"174":0.04268329590559006,"175":-0.09871407598257065,"176":-0.049606893211603165,"177":-0.13039715588092804,"178":0.18726059794425964,"179":0.12009125202894211,"180":-0.17077894508838654,"181":-0.15006276965141296,"182":-0.16433078050613403,"183":0.057551078498363495,"184":-0.16085250675678253,"185":-0.20518758893013,"186":-0.09374115616083145,"187":0.13919630646705627,"188":0.12148438394069672,"189":-0.016158554702997208,"190":0.061260540038347244,"191":0.16667813062667847,"192":-0.08953722566366196,"193":0.1853654384613037,"194":-0.15389765799045563,"195":0.15646375715732574,"196":-0.19399602711200714,"197":0.022169752046465874,"198":-0.09886202961206436,"199":0.055766284465789795,"200":0.11605560034513474,"201":0.03402768447995186,"202":-0.08799499273300171,"203":0.009200109168887138,"204":0.04915693774819374,"205":-0.1601569801568985,"206":0.07639757543802261,"207":-0.0056350938975811005,"208":0.17506206035614014,"209":-0.19692577421665192,"210":0.010117501951754093,"211":-0.015312916599214077,"212":-0.1489550918340683,"213":-0.027937691658735275,"214":0.1776261031627655,"215":0.15033912658691406,"216":-0.11599110066890717,"217":0.011744894087314606,"218":0.09203235059976578,"219":-0.1262427419424057,"220":0.1076926440000534,"221":-0.17700478434562683,"222":0.10769897699356079,"223":0.16787785291671753,"224":0.13275253772735596,"225":-0.007253028452396393,"226":-0.07726883143186569,"227":-0.13842126727104187,"228":-0.1704750508069992,"229":-0.10230733454227448,"230":0.1442546546459198,"231":0.14757536351680756,"232":-0.022497396916151047,"233":-0.053803764283657074,"234":0.12671272456645966,"235":0.19086165726184845,"236":-0.08097774535417557,"237":-0.03146127983927727,"238":0.11823134869337082,"239":-0.031000053510069847,"240":-0.17764408886432648,"241":0.02642422541975975,"242":0.15953326225280762,"243":0.15825186669826508,"244":-0.07393453270196915,"245":-0.08990992605686188,"246":0.14051076769828796,"247":0.1765415221452713,"248":0.15213286876678467,"249":0.07463210821151733,"250":-0.018770111724734306,"251":-0.08640047162771225,"252":0.10660043358802795,"253":0.05294744670391083,"254":-0.09940879791975021,"255":-0.15452617406845093,"256":0.10321902483701706,"257":0.008942763321101665,"258":-0.16884732246398926,"259":0.12940573692321777,"260":0.12731455266475677,"261":-0.10003373771905899,"262":0.1496324986219406,"263":0.09184495359659195,"264":0.1426195204257965,"265":0.09617051482200623,"266":0.03483947739005089,"267":-0.043189454823732376,"268":0.04108961671590805,"269":-0.1065431609749794,"270":0.16964520514011383,"271":-0.12801814079284668,"272":-0.09838687628507614,"273":0.06380333751440048,"274":-0.18929354846477509,"275":0.0813414677977562,"276":0.13380403816699982,"277":-0.1772238165140152,"278":0.003270237473770976,"279":-0.20060738921165466,"280":0.13800454139709473,"281":-0.10959043353796005,"282":0.048877887427806854,"283":-0.1914985626935959,"284":0.03748929500579834,"285":0.1891293078660965,"286":-0.12723040580749512,"287":0.04677637666463852,"288":0.180416539311409,"289":-0.15834875404834747,"290":-0.016702799126505852,"291":0.05863393470644951,"292":-0.012943876907229424,"293":-0.06141343712806702,"294":-0.08055159449577332,"295":-0.10526581108570099,"296":0.13507701456546783,"297":0.053744200617074966,"298":0.009690993465483189,"299":0.18662326037883759,"300":0.01765265315771103,"301":-0.13298797607421875,"302":-0.09919433295726776,"303":0.09186668694019318,"304":-0.16443626582622528,"305":0.027896706014871597,"306":-0.11368241906166077,"307":0.06576806306838989,"308":0.1505352109670639,"309":0.09455355256795883,"310":0.14024432003498077,"311":-0.09866440296173096,"312":-0.07691702991724014,"313":-0.15540781617164612,"314":0.025907400995492935,"315":0.08148861676454544,"316":0.08290862292051315,"317":0.005460120737552643,"318":0.16032545268535614,"319":-0.1666335016489029,"320":-0.09928727895021439,"321":-0.1648968756198883,"322":-0.03227202966809273,"323":-0.064998559653759,"324":-0.04793078452348709,"325":0.07331623136997223,"326":0.17353281378746033,"327":-0.00011802792869275436,"328":-0.021578408777713776,"329":0.01741459034383297,"330":0.14483632147312164,"331":0.07036729156970978,"332":-0.031025400385260582,"333":-0.1049419492483139,"334":0.05060981959104538,"335":0.17608903348445892,"336":-0.050753284245729446,"337":0.17354731261730194,"338":0.08039304614067078,"339":-0.027763739228248596,"340":-0.00992671214044094,"341":0.16601864993572235,"342":-0.0680621936917305,"343":-0.07282857596874237,"344":0.10323262214660645,"345":0.18634562194347382,"346":-0.13653680682182312,"347":0.062416352331638336,"348":-0.1743837296962738,"349":0.013772722333669662,"350":-0.20016755163669586,"351":0.05240943282842636,"352":-0.15949542820453644,"353":0.035452719777822495,"354":0.09804727882146835,"355":0.1868608593940735,"356":0.00224357470870018,"357":-0.14356613159179688,"358":0.1529117077589035,"359":0.17183557152748108,"360":0.15974470973014832,"361":0.05978646129369736,"362":-0.02582339383661747,"363":-0.18803031742572784,"364":-0.14719709753990173,"365":0.09824934601783752,"366":-0.020636409521102905,"367":0.04295189306139946,"368":0.09184624999761581,"369":0.09792356938123703,"370":-0.14305762946605682,"371":0.13331136107444763,"372":0.02152988128364086,"373":-0.18165498971939087,"374":-0.09034743160009384,"375":-0.015181438066065311,"376":-0.10541702806949615,"377":-0.04962107166647911,"378":-0.06757216155529022,"379":-0.08771554380655289,"380":0.01518664788454771,"381":-0.15944603085517883,"382":-0.026218945160508156,"383":0.12447457760572433,"384":-0.019244475290179253,"385":-0.06467505544424057,"386":0.07705330103635788,"387":-0.02433015964925289,"388":-0.007142999209463596,"389":-0.12264779210090637,"390":-0.10052908957004547,"391":0.16004297137260437,"392":-0.05682309716939926,"393":0.12789778411388397,"394":-0.16401438415050507,"395":0.07120206952095032,"396":-0.1652345508337021,"397":-0.06717048585414886,"398":-0.1334875077009201,"399":0.11140108108520508}},"6":{"bias":0.1792944371700287,"weights":{"0":0.19912904500961304,"1":0.0672421008348465,"2":0.065590038895607,"3":0.10710615664720535,"4":0.07193955779075623,"5":0.13349437713623047,"6":-0.08394379913806915,"7":-0.09728207439184189,"8":-0.2471609115600586,"9":0.09848512709140778,"10":-0.18713295459747314,"11":0.1657954305410385,"12":0.06704286485910416,"13":0.05722087621688843,"14":0.04029883071780205,"15":0.1610281616449356,"16":-0.1490580141544342,"17":-0.11264078319072723,"18":-0.1376827210187912,"19":0.02889079414308071,"20":0.131668359041214,"21":-0.021592307835817337,"22":-0.15925240516662598,"23":-0.1886099874973297,"24":-0.040363211184740067,"25":-0.06912320107221603,"26":0.11302495747804642,"27":-0.25152698159217834,"28":0.08193521201610565,"29":0.10429160296916962,"30":-0.025913730263710022,"31":0.07810621708631516,"32":0.1456722617149353,"33":-0.04971838742494583,"34":-0.06871651858091354,"35":-0.03598186373710632,"36":0.2014913260936737,"37":0.07349614799022675,"38":-0.03158754110336304,"39":-0.01054319180548191,"40":-0.016268154606223106,"41":-0.03133475035429001,"42":-0.047456175088882446,"43":0.05897068232297897,"44":0.016712363809347153,"45":0.054263774305582047,"46":0.03308487683534622,"47":-0.1644730418920517,"48":-0.07418268173933029,"49":-0.1083032637834549,"50":-0.18196626007556915,"51":0.12238191068172455,"52":0.05229154974222183,"53":-0.09243565797805786,"54":-0.13566136360168457,"55":-0.016314487904310226,"56":-0.07561185210943222,"57":0.08482996374368668,"58":0.19985540211200714,"59":-0.05981981009244919,"60":0.07779668271541595,"61":-0.08606229722499847,"62":0.1320306360721588,"63":-0.008429260924458504,"64":-0.019738061353564262,"65":-0.19006921350955963,"66":-0.09772983193397522,"67":0.023725762963294983,"68":0.08716841042041779,"69":0.01212186086922884,"70":-0.10240865498781204,"71":-0.0013405975187197328,"72":-0.00019959491328336298,"73":-0.09473764151334763,"74":0.028493789955973625,"75":0.08657263219356537,"76":0.15098688006401062,"77":0.21868246793746948,"78":-0.06237620860338211,"79":-0.15795442461967468,"80":-0.0027165738865733147,"81":0.08738494664430618,"82":0.09962458908557892,"83":0.08225959539413452,"84":0.006391109433025122,"85":-0.16251812875270844,"86":0.003088209079578519,"87":-0.18172556161880493,"88":-0.1145671084523201,"89":0.18414278328418732,"90":-0.2022406905889511,"91":-0.13549639284610748,"92":-0.02936422824859619,"93":-0.12532883882522583,"94":-0.18925899267196655,"95":-0.05704739689826965,"96":-0.177926167845726,"97":-0.13196223974227905,"98":-0.09649316966533661,"99":0.08982642740011215,"100":0.08970999717712402,"101":-0.060559675097465515,"102":0.11358771473169327,"103":-0.17767474055290222,"104":0.12312202155590057,"105":0.06996504962444305,"106":-0.1766907125711441,"107":0.11151736229658127,"108":0.016373777762055397,"109":-0.10243111103773117,"110":-0.09831595420837402,"111":0.11905417591333389,"112":-0.1047561839222908,"113":-0.17139896750450134,"114":-0.0350143164396286,"115":-0.05777784809470177,"116":0.09022925049066544,"117":0.016704296693205833,"118":-0.0901961401104927,"119":-0.16166910529136658,"120":0.09746314585208893,"121":-0.025105345994234085,"122":0.08177091926336288,"123":-0.06910143047571182,"124":0.186315655708313,"125":0.09850683063268661,"126":-0.1529642790555954,"127":-0.08049579709768295,"128":-0.0036995599512010813,"129":0.0635291337966919,"130":0.011726279743015766,"131":0.1331709325313568,"132":-0.04189560189843178,"133":0.11470190435647964,"134":0.08013612031936646,"135":-0.15699255466461182,"136":-0.19946368038654327,"137":-0.08421934396028519,"138":0.1620202362537384,"139":-0.031880151480436325,"140":0.04500632733106613,"141":-0.03387954831123352,"142":-0.17242255806922913,"143":-0.17059309780597687,"144":0.13043107092380524,"145":-0.15782448649406433,"146":0.09604661166667938,"147":0.0796060562133789,"148":-0.178538516163826,"149":-0.003099692054092884,"150":0.17109477519989014,"151":0.15327198803424835,"152":-0.05095035210251808,"153":-0.04544401913881302,"154":-0.04719913750886917,"155":0.08257530629634857,"156":0.1232743039727211,"157":-0.06697029620409012,"158":-0.10847774893045425,"159":-0.1494482457637787,"160":-0.06530145555734634,"161":-0.13870033621788025,"162":0.18696820735931396,"163":0.1690557599067688,"164":-0.05691951513290405,"165":0.016534477472305298,"166":-0.08567959815263748,"167":0.11241936683654785,"168":-0.10271493345499039,"169":0.0888831689953804,"170":-0.03860151395201683,"171":-0.12637503445148468,"172":-0.07605762779712677,"173":0.1321091502904892,"174":0.10757237672805786,"175":-0.1567739099264145,"176":0.1626753807067871,"177":-0.0035048702266067266,"178":-0.10395824164152145,"179":-0.14249752461910248,"180":-0.14373216032981873,"181":-0.18223333358764648,"182":0.08094866573810577,"183":-0.07396803796291351,"184":-0.03877517953515053,"185":0.07935216277837753,"186":0.02035261131823063,"187":0.018406180664896965,"188":-0.001717347651720047,"189":-0.19712305068969727,"190":0.1721728891134262,"191":0.15373386442661285,"192":0.18005655705928802,"193":-0.028611402958631516,"194":-0.1004076600074768,"195":-0.025936733931303024,"196":-0.14402346312999725,"197":0.0027807659935206175,"198":-0.014851577579975128,"199":0.10432468354701996,"200":0.16125240921974182,"201":-0.17946258187294006,"202":-0.027333522215485573,"203":-0.04951734095811844,"204":-0.021545492112636566,"205":-0.012742022052407265,"206":0.1889151930809021,"207":0.1953834742307663,"208":0.14637574553489685,"209":-0.11395344138145447,"210":-0.02697889879345894,"211":0.11725227534770966,"212":0.03893366456031799,"213":0.15519078075885773,"214":-0.03166745975613594,"215":0.14094668626785278,"216":-0.05672438070178032,"217":0.11900631338357925,"218":0.08089052140712738,"219":-0.007079843897372484,"220":-0.10642857849597931,"221":0.06906422972679138,"222":0.15281550586223602,"223":-0.08996176719665527,"224":0.06833763420581818,"225":-0.1018831878900528,"226":-0.18925830721855164,"227":0.14831145107746124,"228":0.08232194930315018,"229":-0.16520188748836517,"230":-0.044755421578884125,"231":-0.15141934156417847,"232":0.05083932355046272,"233":-0.1211196556687355,"234":0.15169912576675415,"235":0.0726909339427948,"236":-0.09878053516149521,"237":0.01943942904472351,"238":0.06322438269853592,"239":0.029938172549009323,"240":-0.11273312568664551,"241":0.02307177148759365,"242":0.0983237475156784,"243":0.06109347566962242,"244":0.0034961255732923746,"245":0.15422938764095306,"246":0.08014344424009323,"247":0.14796893298625946,"248":-0.033332809805870056,"249":-0.08760734647512436,"250":0.1942175328731537,"251":0.002426306251436472,"252":0.15837356448173523,"253":0.15444713830947876,"254":0.16641615331172943,"255":0.1694728285074234,"256":-0.017506180331110954,"257":0.18464523553848267,"258":-0.15330465137958527,"259":0.14659109711647034,"260":-0.04945031926035881,"261":0.14056339859962463,"262":-0.08198514580726624,"263":-0.04999671131372452,"264":0.056584667414426804,"265":-0.00846901722252369,"266":-0.0589890256524086,"267":-0.0632697269320488,"268":-0.009567306376993656,"269":-0.1760152280330658,"270":-0.19093459844589233,"271":0.18947766721248627,"272":-0.03363650664687157,"273":0.021960066631436348,"274":-0.1172274649143219,"275":-0.09929447621107101,"276":-0.19307030737400055,"277":-0.0499696210026741,"278":-0.1276477575302124,"279":-0.17715711891651154,"280":-0.036446258425712585,"281":-0.04454268887639046,"282":0.18875525891780853,"283":0.17543365061283112,"284":0.17124022543430328,"285":0.10961097478866577,"286":0.09675958752632141,"287":-0.18767526745796204,"288":0.023873236030340195,"289":0.009908868931233883,"290":-0.08431810140609741,"291":0.14402098953723907,"292":-0.0310515183955431,"293":0.10852482169866562,"294":0.041395578533411026,"295":0.13443104922771454,"296":-0.16464771330356598,"297":0.12027506530284882,"298":-0.1673436313867569,"299":-0.16477668285369873,"300":0.007653450593352318,"301":-0.1824370175600052,"302":-0.14155185222625732,"303":0.13382534682750702,"304":0.05349508672952652,"305":-0.0108415512368083,"306":-0.19415614008903503,"307":0.11473272740840912,"308":-0.12518201768398285,"309":-0.1708192378282547,"310":0.03753842040896416,"311":0.17779438197612762,"312":0.16903841495513916,"313":0.15813860297203064,"314":-0.18271489441394806,"315":-0.01753106527030468,"316":-0.059326834976673126,"317":-0.022807156667113304,"318":0.1672627329826355,"319":-0.012368923053145409,"320":-0.0044407108798623085,"321":-0.11498983949422836,"322":0.00019417684234213084,"323":0.11517483741044998,"324":0.12954457104206085,"325":0.09754347056150436,"326":0.017328666523098946,"327":-0.0006929904920980334,"328":-0.16681866347789764,"329":-0.13673865795135498,"330":0.07498157024383545,"331":0.07579756528139114,"332":0.037881020456552505,"333":-0.07798507809638977,"334":0.10740017890930176,"335":-0.1802835762500763,"336":-0.04057694971561432,"337":0.165007084608078,"338":-0.08817826211452484,"339":-0.062390320003032684,"340":0.10432113707065582,"341":0.004267792217433453,"342":-0.17928598821163177,"343":0.11784641444683075,"344":-0.012707274407148361,"345":0.16067148745059967,"346":-0.12533703446388245,"347":-0.032715097069740295,"348":0.13486230373382568,"349":0.07097859680652618,"350":-0.08079180121421814,"351":0.040787242352962494,"352":-0.08606550097465515,"353":-0.014673345722258091,"354":-0.04088824614882469,"355":0.14813293516635895,"356":0.07207637280225754,"357":-0.14085987210273743,"358":-0.017124023288488388,"359":0.024428874254226685,"360":-0.05460769310593605,"361":-0.12837067246437073,"362":-0.13046850264072418,"363":-0.07158564031124115,"364":0.028197934851050377,"365":-0.11639676243066788,"366":-0.1661282330751419,"367":0.11406940966844559,"368":0.07059356570243835,"369":0.032302375882864,"370":-0.14562740921974182,"371":-0.16058537364006042,"372":-0.09369142353534698,"373":0.006306755822151899,"374":-0.03732163459062576,"375":-0.1168394684791565,"376":0.037148367613554,"377":0.1466437429189682,"378":-0.18327836692333221,"379":-0.15823756158351898,"380":-0.07471203058958054,"381":0.020414715632796288,"382":-0.10114728659391403,"383":0.037178244441747665,"384":0.02669134922325611,"385":-0.19010315835475922,"386":0.1914580911397934,"387":0.07841388136148453,"388":-0.14915402233600616,"389":0.05628557875752449,"390":-0.10668889433145523,"391":0.15554839372634888,"392":-0.093443363904953,"393":-0.06268517673015594,"394":0.1702823042869568,"395":-0.061045557260513306,"396":0.00628860155120492,"397":-0.1911432445049286,"398":-0.017283659428358078,"399":-0.10613010823726654}},"7":{"bias":-0.14437389373779297,"weights":{"0":-0.11937827616930008,"1":-0.14436085522174835,"2":0.11631003022193909,"3":-0.047721441835165024,"4":-0.12087882310152054,"5":-0.18894951045513153,"6":0.16242636740207672,"7":0.07930129021406174,"8":-0.2156187891960144,"9":-0.13795697689056396,"10":-0.16307926177978516,"11":0.1719454526901245,"12":-0.0038980329409241676,"13":-0.16680264472961426,"14":0.13822950422763824,"15":0.145669624209404,"16":0.09448668360710144,"17":-0.23206111788749695,"18":0.17492708563804626,"19":-0.09396635740995407,"20":0.021711740642786026,"21":0.061882976442575455,"22":0.036447733640670776,"23":-0.0977448895573616,"24":-0.13532987236976624,"25":-0.05203639715909958,"26":0.0027483615558594465,"27":0.08362244814634323,"28":-0.06693574786186218,"29":0.007918252609670162,"30":-0.0403459407389164,"31":0.17877241969108582,"32":0.06003107503056526,"33":-0.059341706335544586,"34":-0.03808628022670746,"35":-0.026856625452637672,"36":0.019911624491214752,"37":-0.016887474805116653,"38":-0.06317725032567978,"39":-0.14406375586986542,"40":0.1265469342470169,"41":-0.1700885146856308,"42":0.19164349138736725,"43":-0.058397796005010605,"44":0.1194358766078949,"45":-0.16244623064994812,"46":0.05740286782383919,"47":0.1822701096534729,"48":-0.09703085571527481,"49":-0.10809744149446487,"50":-0.1499696522951126,"51":-0.04628000408411026,"52":0.046384815126657486,"53":0.009952018968760967,"54":-0.1585453599691391,"55":-0.0604352205991745,"56":0.024390826001763344,"57":-0.0007850350230000913,"58":0.18643097579479218,"59":-0.03351552411913872,"60":0.18491457402706146,"61":0.15095920860767365,"62":-0.15626366436481476,"63":-0.1560598462820053,"64":0.08444801717996597,"65":-0.13802869617938995,"66":-0.187702015042305,"67":-0.0004551575402729213,"68":0.06879694759845734,"69":-0.14763695001602173,"70":0.02431456744670868,"71":0.15118378400802612,"72":0.1653733253479004,"73":-0.07140601426362991,"74":-0.08900736272335052,"75":0.10098879784345627,"76":0.013456261716783047,"77":0.0037803398445248604,"78":-0.1454080045223236,"79":-0.05305071175098419,"80":0.06691054254770279,"81":-0.09291698038578033,"82":-0.07562772184610367,"83":-0.13480053842067719,"84":0.16201497614383698,"85":-0.07504171133041382,"86":-0.10228433459997177,"87":-0.11036136746406555,"88":0.1574006974697113,"89":-0.09770286828279495,"90":-0.042995158582925797,"91":0.15701991319656372,"92":-0.00919121690094471,"93":0.11562935262918472,"94":-0.10870449990034103,"95":0.062362175434827805,"96":-0.06645740568637848,"97":0.15498583018779755,"98":-0.04299488663673401,"99":0.18538898229599,"100":0.05048860237002373,"101":-0.06239517405629158,"102":0.18519733846187592,"103":0.08443621546030045,"104":-0.14097101986408234,"105":0.13018761575222015,"106":-0.14798882603645325,"107":-0.2050098180770874,"108":0.04699501767754555,"109":-0.0314769484102726,"110":0.08459389209747314,"111":-0.1259927898645401,"112":0.18854504823684692,"113":0.06038695201277733,"114":0.0617036297917366,"115":0.056006237864494324,"116":0.13704055547714233,"117":0.18878230452537537,"118":0.11955180764198303,"119":-0.1962159425020218,"120":0.12800626456737518,"121":-0.09847494959831238,"122":-0.07590523362159729,"123":0.13675934076309204,"124":-0.15249891579151154,"125":0.11781028658151627,"126":-0.14960530400276184,"127":0.014938903041183949,"128":0.05362571030855179,"129":0.015148842707276344,"130":0.19150115549564362,"131":0.17219699919223785,"132":-0.08583373576402664,"133":-0.1399753987789154,"134":0.10193409770727158,"135":0.07833587378263474,"136":-0.02511674165725708,"137":-0.16230784356594086,"138":-0.06045747175812721,"139":0.07954241335391998,"140":-0.017825467512011528,"141":-0.12631551921367645,"142":-0.19165672361850739,"143":0.18948839604854584,"144":-0.050146229565143585,"145":0.04810576140880585,"146":-0.07061953842639923,"147":-0.09993934631347656,"148":-0.12565836310386658,"149":-0.11223694682121277,"150":0.1311902403831482,"151":0.1934191733598709,"152":-0.14062081277370453,"153":0.13964872062206268,"154":0.012105660513043404,"155":-0.1117287278175354,"156":-0.005897432565689087,"157":0.019544029608368874,"158":-0.17478129267692566,"159":-0.06258559972047806,"160":0.14592663943767548,"161":-0.13150975108146667,"162":-0.05152066797018051,"163":0.11929606646299362,"164":0.10550359636545181,"165":-0.1853235810995102,"166":0.1469697505235672,"167":-0.00936876144260168,"168":0.18636056780815125,"169":-0.049661509692668915,"170":0.1223021075129509,"171":0.020517610013484955,"172":0.05349501222372055,"173":0.18851031363010406,"174":-0.11150752007961273,"175":0.17168393731117249,"176":0.012872104533016682,"177":0.19267146289348602,"178":0.008339006453752518,"179":-0.016419537365436554,"180":-0.07782687991857529,"181":0.12672437727451324,"182":0.1758352369070053,"183":0.061978187412023544,"184":0.017302896827459335,"185":-0.18472060561180115,"186":0.09401443600654602,"187":0.06642153114080429,"188":0.04768664389848709,"189":0.12263334542512894,"190":0.18618834018707275,"191":0.1922582983970642,"192":-0.1319572925567627,"193":0.13472618162631989,"194":-0.055115774273872375,"195":-0.1264149397611618,"196":-0.011050909757614136,"197":-0.13880690932273865,"198":0.020418314263224602,"199":0.055460765957832336,"200":-0.10603734105825424,"201":0.10030735284090042,"202":-0.151332288980484,"203":0.05000929906964302,"204":-0.02765010856091976,"205":0.07975023984909058,"206":0.12758541107177734,"207":-0.16314052045345306,"208":0.04578910022974014,"209":0.05334429070353508,"210":-0.16667819023132324,"211":0.05157741531729698,"212":0.11604532599449158,"213":-0.17086675763130188,"214":0.09915435314178467,"215":-0.023553472012281418,"216":0.17726793885231018,"217":0.0966050922870636,"218":0.08362550288438797,"219":0.15799053013324738,"220":-0.04437852278351784,"221":-0.1491333693265915,"222":0.015998268499970436,"223":-0.12634287774562836,"224":0.06737496703863144,"225":0.15683604776859283,"226":-0.04739570990204811,"227":-0.17717841267585754,"228":-0.16670264303684235,"229":0.01957801729440689,"230":0.11010321229696274,"231":-0.04307933524250984,"232":-0.18855197727680206,"233":0.09423685818910599,"234":0.1672905534505844,"235":-0.047979358583688736,"236":-0.1217101514339447,"237":0.01727447845041752,"238":-0.0575302317738533,"239":-0.12159804254770279,"240":0.1304236650466919,"241":0.042094241827726364,"242":-0.18861202895641327,"243":-0.10267060995101929,"244":0.14271804690361023,"245":-0.082343190908432,"246":-0.19563424587249756,"247":-0.14065536856651306,"248":0.008981292136013508,"249":0.09849413484334946,"250":0.16312095522880554,"251":0.017108673229813576,"252":0.014559876173734665,"253":0.08374333381652832,"254":-0.13697905838489532,"255":0.06935455650091171,"256":-0.09831985831260681,"257":0.08212145417928696,"258":0.017117580398917198,"259":-0.08548689633607864,"260":-0.1005047857761383,"261":-0.09380237013101578,"262":-0.09667422622442245,"263":-0.15319272875785828,"264":0.16928859055042267,"265":0.02979157119989395,"266":0.07621613144874573,"267":-0.1447860300540924,"268":0.07514627277851105,"269":0.17807194590568542,"270":-0.06968367844820023,"271":0.05499919503927231,"272":0.03105897642672062,"273":-0.1836860179901123,"274":0.13586664199829102,"275":-0.16245810687541962,"276":-0.13652482628822327,"277":0.10334497690200806,"278":0.00668918015435338,"279":-0.01334090530872345,"280":0.18913960456848145,"281":0.18650418519973755,"282":0.057486265897750854,"283":0.1657078117132187,"284":-0.16704759001731873,"285":-0.12100352346897125,"286":-0.18610019981861115,"287":0.1643054336309433,"288":0.17296461760997772,"289":-0.10610882937908173,"290":0.15673179924488068,"291":-0.11878494173288345,"292":0.10092761367559433,"293":0.16271361708641052,"294":0.08736414462327957,"295":0.07877208292484283,"296":0.032789818942546844,"297":0.08941907435655594,"298":0.009146802127361298,"299":0.18550728261470795,"300":0.186823770403862,"301":0.09889750927686691,"302":-0.15709200501441956,"303":0.1671464890241623,"304":-0.047183357179164886,"305":-0.08325771987438202,"306":-0.18394723534584045,"307":-0.034947920590639114,"308":0.08556877076625824,"309":-0.1282145231962204,"310":-0.07411646097898483,"311":0.0703836977481842,"312":0.1317557394504547,"313":-0.18795503675937653,"314":0.1674472838640213,"315":-0.19116726517677307,"316":0.14935612678527832,"317":0.13266225159168243,"318":-0.16228556632995605,"319":-0.1331244558095932,"320":-0.019502712413668633,"321":0.1251489371061325,"322":0.07190454006195068,"323":-0.18903735280036926,"324":0.15814247727394104,"325":0.0300538782030344,"326":0.15982043743133545,"327":0.0091535160318017,"328":-0.1515612006187439,"329":-0.16485202312469482,"330":-0.05819081515073776,"331":0.13040626049041748,"332":0.054610200226306915,"333":-0.1763462871313095,"334":-0.15493322908878326,"335":-0.1973959505558014,"336":0.0773019790649414,"337":0.047450579702854156,"338":0.042660392820835114,"339":-0.0656118243932724,"340":0.11359583586454391,"341":0.05300092324614525,"342":0.15808789432048798,"343":-0.15012726187705994,"344":0.02862924337387085,"345":-0.04681570082902908,"346":0.14936204254627228,"347":0.16876016557216644,"348":0.08446088433265686,"349":0.010108450427651405,"350":-0.13705424964427948,"351":0.05340966209769249,"352":0.1460271030664444,"353":-0.09574410319328308,"354":-0.07757891714572906,"355":-0.09403306990861893,"356":-0.06315623968839645,"357":-0.0370846651494503,"358":-0.05455116555094719,"359":0.04966069757938385,"360":0.06012806296348572,"361":0.19579900801181793,"362":-0.11591402441263199,"363":0.01503623928874731,"364":-0.12412949651479721,"365":0.12565438449382782,"366":-0.13441631197929382,"367":-0.00818642694503069,"368":0.11208924651145935,"369":-0.1437380611896515,"370":-0.18585139513015747,"371":-0.19119592010974884,"372":-0.17103490233421326,"373":0.09258637577295303,"374":0.1029103621840477,"375":0.05994950234889984,"376":0.06042872369289398,"377":0.04654986038804054,"378":-0.0483241006731987,"379":-0.0320921465754509,"380":-0.16332416236400604,"381":0.08542428910732269,"382":0.10737732797861099,"383":-0.08680093288421631,"384":0.1093221977353096,"385":-0.08097214251756668,"386":0.0722985565662384,"387":0.10654571652412415,"388":-0.14596351981163025,"389":-0.20103980600833893,"390":0.17222951352596283,"391":-0.11441490054130554,"392":0.05635807663202286,"393":-0.03134647384285927,"394":-0.04389355704188347,"395":0.13656657934188843,"396":-0.09071806073188782,"397":-0.15210343897342682,"398":0.15347100794315338,"399":-0.13301391899585724}},"8":{"bias":-0.16138584911823273,"weights":{"0":-0.18559996783733368,"1":-0.2099778652191162,"2":0.12458621710538864,"3":-0.09945391118526459,"4":-0.030570056289434433,"5":0.009375183843076229,"6":-0.2131761908531189,"7":0.0387965589761734,"8":0.0016887977253645658,"9":0.11024175584316254,"10":-0.09502645581960678,"11":-0.019582100212574005,"12":0.1747266948223114,"13":-0.05764894559979439,"14":0.09129191935062408,"15":0.10053180158138275,"16":0.13380350172519684,"17":-0.16378138959407806,"18":0.07915201038122177,"19":-0.20135532319545746,"20":0.1007821187376976,"21":-0.06820938736200333,"22":-0.017762791365385056,"23":-0.2208658903837204,"24":-0.017820317298173904,"25":-0.021596981212496758,"26":-0.10982341319322586,"27":-0.07654312252998352,"28":0.1308804750442505,"29":-0.1453123390674591,"30":-0.18537621200084686,"31":-0.08567114174365997,"32":0.17816299200057983,"33":-0.03680582344532013,"34":-0.16219480335712433,"35":0.03734400495886803,"36":0.19719018042087555,"37":0.15159422159194946,"38":0.10842186212539673,"39":0.022227037698030472,"40":0.19237561523914337,"41":0.10660769790410995,"42":-0.07136109471321106,"43":-0.09634923189878464,"44":0.07523321360349655,"45":0.1965806931257248,"46":-0.1768643856048584,"47":-0.025009483098983765,"48":-0.06947159767150879,"49":-0.10655096173286438,"50":0.06676466763019562,"51":0.18665535748004913,"52":0.11380640417337418,"53":-0.1490241438150406,"54":0.18727533519268036,"55":0.14874225854873657,"56":-0.007028778083622456,"57":0.14833542704582214,"58":-0.03475768119096756,"59":0.0013177606742829084,"60":-0.1343364715576172,"61":-0.057082563638687134,"62":-0.06986608356237411,"63":0.003473576158285141,"64":0.11667782813310623,"65":-0.19303354620933533,"66":-0.05161882936954498,"67":-0.006597297266125679,"68":-0.09448043256998062,"69":0.055902689695358276,"70":0.05757158249616623,"71":-0.09617860615253448,"72":-0.20420992374420166,"73":-0.11344603449106216,"74":0.013821273110806942,"75":-0.06326715648174286,"76":0.0253570806235075,"77":-0.2070128172636032,"78":0.07674325257539749,"79":-0.14895851910114288,"80":0.140712708234787,"81":-0.0957239493727684,"82":0.11123121529817581,"83":-0.1371391862630844,"84":-0.021771930158138275,"85":-0.20109672844409943,"86":0.18091566860675812,"87":0.18272213637828827,"88":-0.1298942267894745,"89":-0.01337338238954544,"90":-0.1622338443994522,"91":-0.008726110681891441,"92":0.0738949328660965,"93":0.17510734498500824,"94":0.0919494479894638,"95":0.09248511493206024,"96":-0.08194535970687866,"97":-0.12701156735420227,"98":-0.023988967761397362,"99":-0.1383277177810669,"100":-0.20664779841899872,"101":0.015812711790204048,"102":0.10426018387079239,"103":0.162771075963974,"104":-0.06791314482688904,"105":0.1259501427412033,"106":0.09419892728328705,"107":-0.12636961042881012,"108":0.14743821322917938,"109":0.09567753225564957,"110":0.026700614020228386,"111":-0.10449142754077911,"112":-0.17197369039058685,"113":-0.02620716765522957,"114":0.1474815458059311,"115":0.11294746398925781,"116":-0.08653292804956436,"117":-0.09576699882745743,"118":-0.08677008748054504,"119":0.05030892416834831,"120":0.17255806922912598,"121":-0.0597810298204422,"122":-0.1229536309838295,"123":0.014177382923662663,"124":-0.08891814947128296,"125":-0.16022689640522003,"126":0.025858191773295403,"127":-0.162735253572464,"128":0.12551747262477875,"129":-0.10612408071756363,"130":0.020091338083148003,"131":-0.009663769043982029,"132":0.11699813604354858,"133":0.06240159645676613,"134":0.007111843675374985,"135":-0.20141029357910156,"136":0.024481581524014473,"137":-0.039197079837322235,"138":-0.11310658603906631,"139":0.12746202945709229,"140":-0.00013320693688001484,"141":-0.13482502102851868,"142":0.09482713788747787,"143":-0.0037844034377485514,"144":0.16490939259529114,"145":0.00040051020914688706,"146":-0.05257951095700264,"147":0.05136813968420029,"148":-0.08037582784891129,"149":-0.0853395089507103,"150":0.10430130362510681,"151":-0.12578289210796356,"152":-0.028992105275392532,"153":0.1135067343711853,"154":0.022115902975201607,"155":-0.056992307305336,"156":0.14074425399303436,"157":0.13086028397083282,"158":0.03225943073630333,"159":-0.11973349004983902,"160":0.031867023557424545,"161":-0.10850092023611069,"162":-0.039237190037965775,"163":0.01556070614606142,"164":0.15867586433887482,"165":-0.03034205734729767,"166":0.08193323016166687,"167":0.15874095261096954,"168":0.04393794387578964,"169":0.04299796000123024,"170":-0.20202508568763733,"171":0.01502770185470581,"172":0.17138820886611938,"173":-0.15712875127792358,"174":0.0916452631354332,"175":0.07543965429067612,"176":0.1055012196302414,"177":0.1589750051498413,"178":0.01960628293454647,"179":0.18507206439971924,"180":0.16690680384635925,"181":0.1861264556646347,"182":-0.1733955442905426,"183":-0.04631985351443291,"184":0.10371667146682739,"185":-0.030596746131777763,"186":-0.07198432832956314,"187":-0.18549489974975586,"188":-0.0035047950223088264,"189":-0.12724830210208893,"190":-0.07988762110471725,"191":0.10735911875963211,"192":-0.03458481281995773,"193":0.10860488563776016,"194":0.09587861597537994,"195":0.1518012285232544,"196":-0.1514914333820343,"197":-0.14261303842067719,"198":-0.023842697963118553,"199":0.045348621904850006,"200":-0.0885005071759224,"201":0.14174146950244904,"202":0.10429255664348602,"203":0.1486029028892517,"204":0.15978315472602844,"205":-0.016413908451795578,"206":-0.1803545206785202,"207":-0.13229665160179138,"208":-0.060728780925273895,"209":-0.12814629077911377,"210":0.13691695034503937,"211":0.0002320417552255094,"212":-0.0018137834267690778,"213":0.07534269988536835,"214":0.18664224445819855,"215":0.06243278831243515,"216":0.14309008419513702,"217":0.07705650478601456,"218":0.09160618484020233,"219":-0.15074925124645233,"220":-0.08942899852991104,"221":-0.15051521360874176,"222":0.12099222093820572,"223":-0.005697160959243774,"224":-0.09206756949424744,"225":-0.08362671732902527,"226":0.17059534788131714,"227":-0.17306968569755554,"228":0.10957109183073044,"229":0.0038120306562632322,"230":0.02480076625943184,"231":0.14411118626594543,"232":0.05572846531867981,"233":-0.14406785368919373,"234":-0.08205528557300568,"235":0.06810641288757324,"236":-0.011384498327970505,"237":-0.0844128206372261,"238":0.12272705137729645,"239":0.0671093612909317,"240":0.1764194667339325,"241":0.07520414143800735,"242":0.0964168906211853,"243":0.0030250907875597477,"244":0.05641525238752365,"245":0.01712539605796337,"246":-0.008251871913671494,"247":0.14460834860801697,"248":0.189436674118042,"249":0.10479903221130371,"250":0.13513925671577454,"251":0.0931113138794899,"252":0.08547988533973694,"253":0.00035147048765793443,"254":0.092979796230793,"255":0.08084706217050552,"256":-0.14624066650867462,"257":-0.1523887813091278,"258":0.1802527755498886,"259":0.05295124650001526,"260":-0.03215118125081062,"261":-0.021696489304304123,"262":0.02818635292351246,"263":-0.10771965980529785,"264":-0.13484624028205872,"265":-0.10360153019428253,"266":0.16721035540103912,"267":0.14030668139457703,"268":0.08638013154268265,"269":-0.15819548070430756,"270":0.09660175442695618,"271":-0.04216334968805313,"272":-0.19306543469429016,"273":-0.09438499063253403,"274":-0.18133887648582458,"275":-0.17537334561347961,"276":0.13913939893245697,"277":0.14934296905994415,"278":-0.1472153216600418,"279":0.017529591917991638,"280":0.04702037572860718,"281":-0.1942012757062912,"282":0.17239776253700256,"283":0.14413213729858398,"284":-0.1186901405453682,"285":-0.009157102555036545,"286":0.04252498224377632,"287":0.06023712828755379,"288":-0.0332597978413105,"289":0.1732243150472641,"290":0.060206566005945206,"291":0.16653211414813995,"292":-0.13946951925754547,"293":0.1420753002166748,"294":-0.1958286315202713,"295":-0.10960845649242401,"296":-0.07172472029924393,"297":0.040532857179641724,"298":0.10341636091470718,"299":0.07734499871730804,"300":0.08701014518737793,"301":-0.030434690415859222,"302":0.022473009303212166,"303":0.015203596092760563,"304":-0.14559811353683472,"305":0.01907501555979252,"306":-0.026466619223356247,"307":0.10704758018255234,"308":0.0837017148733139,"309":-0.07271884381771088,"310":0.08473674952983856,"311":-0.10442892462015152,"312":-0.16143375635147095,"313":0.0892866998910904,"314":-0.15880419313907623,"315":-0.09033507853746414,"316":-0.05225864052772522,"317":-0.15363255143165588,"318":-0.1301913559436798,"319":-0.13686108589172363,"320":0.09139051288366318,"321":-0.1868891417980194,"322":-0.17122653126716614,"323":-0.149940624833107,"324":-0.12866204977035522,"325":0.14154528081417084,"326":-0.16520825028419495,"327":-0.1811511218547821,"328":0.12224366515874863,"329":0.01034749485552311,"330":0.1790923923254013,"331":-0.17284443974494934,"332":-0.013649464584887028,"333":0.11928290873765945,"334":0.17338886857032776,"335":0.1907629817724228,"336":-0.08087761700153351,"337":-0.16950790584087372,"338":0.15013240277767181,"339":0.11866442859172821,"340":0.12986359000205994,"341":0.003558375872671604,"342":0.16194799542427063,"343":0.13526533544063568,"344":-0.12095402926206589,"345":-0.0019832374528050423,"346":-0.1488007754087448,"347":-0.17657501995563507,"348":-0.16720524430274963,"349":0.0750303715467453,"350":-0.0058755711652338505,"351":-0.01815209351480007,"352":-0.1115255206823349,"353":0.0034991083666682243,"354":-0.07464751601219177,"355":-0.12998762726783752,"356":0.07503147423267365,"357":0.10003111511468887,"358":-0.14647668600082397,"359":-0.11515164375305176,"360":0.07714256644248962,"361":0.13577814400196075,"362":-0.020458219572901726,"363":0.023040253669023514,"364":0.1674974411725998,"365":0.11008915305137634,"366":-0.043315887451171875,"367":-0.15461261570453644,"368":0.11578626185655594,"369":0.1475202590227127,"370":-0.20183829963207245,"371":0.022385088726878166,"372":0.09297062456607819,"373":-0.1885061264038086,"374":0.13676998019218445,"375":-0.042131125926971436,"376":-0.04243248701095581,"377":-0.0683034136891365,"378":0.06955017149448395,"379":0.027502425014972687,"380":0.07630914449691772,"381":-0.030051175504922867,"382":0.1711801141500473,"383":0.06102435663342476,"384":-0.09842661768198013,"385":0.05087127536535263,"386":0.023184221237897873,"387":-0.022731248289346695,"388":0.0003589967091102153,"389":0.1043836772441864,"390":0.15741054713726044,"391":0.18574336171150208,"392":-0.16875839233398438,"393":0.060007158666849136,"394":0.07550732046365738,"395":-0.19526609778404236,"396":-0.11439023911952972,"397":-0.1738351732492447,"398":-0.12466295808553696,"399":-0.020212113857269287}},"9":{"bias":-0.18220888078212738,"weights":{"0":0.11090835928916931,"1":0.19218800961971283,"2":-0.18261706829071045,"3":0.10718567669391632,"4":-0.1584143340587616,"5":0.029184186831116676,"6":-0.08957041800022125,"7":0.02283906191587448,"8":0.15674695372581482,"9":0.09253992140293121,"10":0.010500393807888031,"11":0.15137554705142975,"12":0.11591418087482452,"13":0.15182480216026306,"14":-0.06073010712862015,"15":0.014806658029556274,"16":-0.07325123250484467,"17":-0.03553398326039314,"18":-0.10229580104351044,"19":-0.20113518834114075,"20":0.0731295496225357,"21":-0.15592345595359802,"22":-0.0148951830342412,"23":0.05657236650586128,"24":0.02214408665895462,"25":-0.13491204380989075,"26":0.04481998085975647,"27":0.13244515657424927,"28":-0.06488098949193954,"29":0.17501506209373474,"30":-0.08950959891080856,"31":-0.15955308079719543,"32":0.04448831453919411,"33":-0.11351735889911652,"34":0.13073071837425232,"35":0.11004315316677094,"36":0.18663734197616577,"37":0.00988199282437563,"38":-0.14975081384181976,"39":0.10003281384706497,"40":0.0758628249168396,"41":0.07596554607152939,"42":-0.050783488899469376,"43":-0.1672455072402954,"44":0.11146283894777298,"45":0.13962672650814056,"46":-0.05927465856075287,"47":-0.041481468826532364,"48":-0.07710745185613632,"49":0.08289801329374313,"50":0.09025837481021881,"51":-0.0923924371600151,"52":-0.048706430941820145,"53":0.13299143314361572,"54":0.025380322709679604,"55":-0.040875084698200226,"56":0.0008778169867582619,"57":-0.20532730221748352,"58":-0.10737412422895432,"59":0.12546715140342712,"60":-0.08733877539634705,"61":0.09782563894987106,