var staticNet = {"sizes":[280,140,2],"layers":[{"0":{},"1":{},"2":{},"3":{},"4":{},"5":{},"6":{},"7":{},"8":{},"9":{},"10":{},"11":{},"12":{},"13":{},"14":{},"15":{},"16":{},"17":{},"18":{},"19":{},"20":{},"21":{},"22":{},"23":{},"24":{},"25":{},"26":{},"27":{},"28":{},"29":{},"30":{},"31":{},"32":{},"33":{},"34":{},"35":{},"36":{},"37":{},"38":{},"39":{},"40":{},"41":{},"42":{},"43":{},"44":{},"45":{},"46":{},"47":{},"48":{},"49":{},"50":{},"51":{},"52":{},"53":{},"54":{},"55":{},"56":{},"57":{},"58":{},"59":{},"60":{},"61":{},"62":{},"63":{},"64":{},"65":{},"66":{},"67":{},"68":{},"69":{},"70":{},"71":{},"72":{},"73":{},"74":{},"75":{},"76":{},"77":{},"78":{},"79":{},"80":{},"81":{},"82":{},"83":{},"84":{},"85":{},"86":{},"87":{},"88":{},"89":{},"90":{},"91":{},"92":{},"93":{},"94":{},"95":{},"96":{},"97":{},"98":{},"99":{},"100":{},"101":{},"102":{},"103":{},"104":{},"105":{},"106":{},"107":{},"108":{},"109":{},"110":{},"111":{},"112":{},"113":{},"114":{},"115":{},"116":{},"117":{},"118":{},"119":{},"120":{},"121":{},"122":{},"123":{},"124":{},"125":{},"126":{},"127":{},"128":{},"129":{},"130":{},"131":{},"132":{},"133":{},"134":{},"135":{},"136":{},"137":{},"138":{},"139":{},"140":{},"141":{},"142":{},"143":{},"144":{},"145":{},"146":{},"147":{},"148":{},"149":{},"150":{},"151":{},"152":{},"153":{},"154":{},"155":{},"156":{},"157":{},"158":{},"159":{},"160":{},"161":{},"162":{},"163":{},"164":{},"165":{},"166":{},"167":{},"168":{},"169":{},"170":{},"171":{},"172":{},"173":{},"174":{},"175":{},"176":{},"177":{},"178":{},"179":{},"180":{},"181":{},"182":{},"183":{},"184":{},"185":{},"186":{},"187":{},"188":{},"189":{},"190":{},"191":{},"192":{},"193":{},"194":{},"195":{},"196":{},"197":{},"198":{},"199":{},"200":{},"201":{},"202":{},"203":{},"204":{},"205":{},"206":{},"207":{},"208":{},"209":{},"210":{},"211":{},"212":{},"213":{},"214":{},"215":{},"216":{},"217":{},"218":{},"219":{},"220":{},"221":{},"222":{},"223":{},"224":{},"225":{},"226":{},"227":{},"228":{},"229":{},"230":{},"231":{},"232":{},"233":{},"234":{},"235":{},"236":{},"237":{},"238":{},"239":{},"240":{},"241":{},"242":{},"243":{},"244":{},"245":{},"246":{},"247":{},"248":{},"249":{},"250":{},"251":{},"252":{},"253":{},"254":{},"255":{},"256":{},"257":{},"258":{},"259":{},"260":{},"261":{},"262":{},"263":{},"264":{},"265":{},"266":{},"267":{},"268":{},"269":{},"270":{},"271":{},"272":{},"273":{},"274":{},"275":{},"276":{},"277":{},"278":{},"279":{}},{"0":{"bias":-0.13416042923927307,"weights":{"0":0.2771567106246948,"1":0.09159249812364578,"2":-0.25477299094200134,"3":0.31249964237213135,"4":-0.007272880058735609,"5":0.06698495149612427,"6":-0.11004537343978882,"7":0.00581365404650569,"8":-0.04135147109627724,"9":-0.05218800529837608,"10":-0.14605669677257538,"11":-0.02561708725988865,"12":-0.06862787902355194,"13":0.2139487862586975,"14":-0.14338624477386475,"15":0.22540171444416046,"16":-0.17922919988632202,"17":-0.2647988498210907,"18":-0.048865415155887604,"19":0.06147089600563049,"20":0.14249750971794128,"21":-0.24729174375534058,"22":0.11289947479963303,"23":0.14815205335617065,"24":0.26010432839393616,"25":-0.1218482106924057,"26":-0.08792456239461899,"27":-0.38831624388694763,"28":-0.0833120346069336,"29":0.14515255391597748,"30":0.23698174953460693,"31":-0.03223000466823578,"32":-0.07436395436525345,"33":0.15062853693962097,"34":0.07826784253120422,"35":-0.14733655750751495,"36":-0.15372595191001892,"37":0.028857553377747536,"38":0.11365505307912827,"39":-0.17866574227809906,"40":-0.15024277567863464,"41":0.07435975968837738,"42":-0.1178164929151535,"43":-0.10630455613136292,"44":0.08140409737825394,"45":0.06333998590707779,"46":-0.0009552811970934272,"47":0.1655329018831253,"48":-0.12219203263521194,"49":0.026404250413179398,"50":-0.11170171946287155,"51":-0.15825940668582916,"52":0.05902358517050743,"53":0.04100475087761879,"54":-0.23423005640506744,"55":-0.0008639312000013888,"56":0.16786246001720428,"57":0.016709018498659134,"58":-0.13315774500370026,"59":-0.018045570701360703,"60":-0.043216560035943985,"61":0.027008989825844765,"62":0.09689423441886902,"63":-0.12951916456222534,"64":0.04137570410966873,"65":-0.19713188707828522,"66":-0.08832491189241409,"67":-0.04256424680352211,"68":-0.08629556000232697,"69":-0.007765349466353655,"70":-0.15042829513549805,"71":-0.11427991837263107,"72":0.05749580264091492,"73":0.03651466220617294,"74":0.1008882001042366,"75":-0.20547541975975037,"76":0.09132108837366104,"77":0.07042179256677628,"78":0.05987599864602089,"79":0.1400606632232666,"80":-0.031667161732912064,"81":0.13717219233512878,"82":0.12305545061826706,"83":-0.12391873449087143,"84":0.19029951095581055,"85":-0.08591987937688828,"86":0.14011341333389282,"87":0.0006989976391196251,"88":-0.09289517253637314,"89":-0.16566799581050873,"90":-0.019401712343096733,"91":-0.17625334858894348,"92":0.06704945862293243,"93":0.15104739367961884,"94":-0.16824530065059662,"95":0.18255287408828735,"96":0.0795808956027031,"97":-0.19102172553539276,"98":0.18523919582366943,"99":-0.009215318597853184,"100":0.16744782030582428,"101":0.14148443937301636,"102":0.11705142259597778,"103":0.09359542280435562,"104":0.22068443894386292,"105":0.010285481810569763,"106":-0.1546272188425064,"107":-0.08299284428358078,"108":-0.19984011352062225,"109":0.1573796421289444,"110":0.0343187116086483,"111":-0.022380178794264793,"112":0.09366891533136368,"113":0.05992572754621506,"114":0.03306712955236435,"115":0.18946295976638794,"116":-0.07088693976402283,"117":0.11813774704933167,"118":0.10330642014741898,"119":-0.058194950222969055,"120":-0.11958799511194229,"121":0.16197612881660461,"122":0.12191521376371384,"123":0.10441621392965317,"124":0.09595645219087601,"125":-0.15254732966423035,"126":0.02822527475655079,"127":0.20159812271595,"128":-0.17208443582057953,"129":-0.10846621543169022,"130":-0.1125204861164093,"131":0.0640793889760971,"132":0.13367722928524017,"133":-0.059547096490859985,"134":0.14425911009311676,"135":-0.07119067013263702,"136":-0.1320270597934723,"137":-0.11826939880847931,"138":-0.18188509345054626,"139":0.1717108190059662,"140":-0.18178287148475647,"141":-0.1456843912601471,"142":0.07271143049001694,"143":-0.1491289585828781,"144":-0.0851014032959938,"145":-0.16498185694217682,"146":0.1090831309556961,"147":0.05729953199625015,"148":0.11524856090545654,"149":-0.004868237301707268,"150":0.18012702465057373,"151":-0.06881677359342575,"152":0.10708042234182358,"153":0.11728020757436752,"154":-0.09147171676158905,"155":0.008979788981378078,"156":0.13981486856937408,"157":0.19474981725215912,"158":0.031488917768001556,"159":0.024418285116553307,"160":-0.08259768038988113,"161":0.03974566608667374,"162":0.14780336618423462,"163":-0.007741618901491165,"164":-0.030769187957048416,"165":0.16275882720947266,"166":0.037061259150505066,"167":0.1510750651359558,"168":-0.05921512097120285,"169":-0.15802179276943207,"170":-0.19923089444637299,"171":0.02751222252845764,"172":-0.06226365268230438,"173":-0.0540517158806324,"174":0.18810486793518066,"175":0.03372979164123535,"176":0.10298778861761093,"177":0.06993211805820465,"178":0.07602523267269135,"179":0.0722355768084526,"180":-0.057636525481939316,"181":0.07815404236316681,"182":0.16434794664382935,"183":0.08416298776865005,"184":-0.18700149655342102,"185":0.007006063591688871,"186":-0.038523878902196884,"187":-0.11834670603275299,"188":0.11421563476324081,"189":0.11630616337060928,"190":-0.15595315396785736,"191":0.0174789410084486,"192":-0.18870751559734344,"193":-0.058937232941389084,"194":-0.12455619126558304,"195":0.07701948285102844,"196":-0.06457030028104782,"197":-0.06706101447343826,"198":0.0838947594165802,"199":0.13495860993862152,"200":-0.04242921620607376,"201":-0.0629800409078598,"202":-0.14522641897201538,"203":0.06267622113227844,"204":0.13012811541557312,"205":-0.05098090320825577,"206":0.039168111979961395,"207":-0.15766748785972595,"208":0.003582071280106902,"209":-0.039786968380212784,"210":0.013218460604548454,"211":-0.12292720377445221,"212":-0.1548767238855362,"213":-0.1403297334909439,"214":-0.004267885349690914,"215":0.14147204160690308,"216":0.06342410296201706,"217":0.169461190700531,"218":-0.0696677714586258,"219":0.10496832430362701,"220":-0.15996019542217255,"221":0.12683941423892975,"222":-0.1989070475101471,"223":0.05150080844759941,"224":-0.03239817172288895,"225":0.010428576730191708,"226":0.11508555710315704,"227":-0.02560044266283512,"228":-0.0520516075193882,"229":0.06938964873552322,"230":-0.04634178429841995,"231":-0.18221336603164673,"232":0.06277807056903839,"233":-0.020723514258861542,"234":0.06490641832351685,"235":0.0314425528049469,"236":0.11019653081893921,"237":-0.03372654691338539,"238":0.07334450632333755,"239":-0.07522475719451904,"240":-0.08206188678741455,"241":0.06854704022407532,"242":0.18924914300441742,"243":-0.07253853976726532,"244":-0.1406681090593338,"245":-0.07427506148815155,"246":-0.17800208926200867,"247":0.08345641195774078,"248":-0.018063336610794067,"249":-0.17162266373634338,"250":-0.1722072809934616,"251":-0.13389089703559875,"252":0.14289793372154236,"253":0.1225460097193718,"254":-0.1442520022392273,"255":0.04725857824087143,"256":-0.1958310604095459,"257":-0.10651881992816925,"258":0.04900366812944412,"259":-0.17368465662002563,"260":0.10708313435316086,"261":-0.15546317398548126,"262":-0.1944011151790619,"263":-0.1549680233001709,"264":-0.1709849238395691,"265":-0.07621445506811142,"266":-0.1994318664073944,"267":-0.07470235973596573,"268":-0.07523404061794281,"269":-0.03076157532632351,"270":0.13419480621814728,"271":-0.025356655940413475,"272":-0.10081040859222412,"273":-0.04334130510687828,"274":0.1600857675075531,"275":-0.10073181986808777,"276":0.1850186437368393,"277":0.019942181184887886,"278":-0.044592101126909256,"279":0.02187938429415226}},"1":{"bias":-0.09152018278837204,"weights":{"0":-0.30201002955436707,"1":0.16618745028972626,"2":0.08067647367715836,"3":-0.09716622531414032,"4":0.06877025961875916,"5":-0.2690231204032898,"6":-0.127289280295372,"7":0.06925000250339508,"8":0.2905935049057007,"9":-0.18466754257678986,"10":0.07518839836120605,"11":-0.358540803194046,"12":0.15777263045310974,"13":-0.19864508509635925,"14":-0.03923049569129944,"15":-0.2698781490325928,"16":0.013085812330245972,"17":0.1545621007680893,"18":-0.08240453898906708,"19":-0.010692546144127846,"20":-0.36321619153022766,"21":-0.03658785670995712,"22":-0.13729415833950043,"23":0.09962521493434906,"24":-0.06029822677373886,"25":0.1676645129919052,"26":-0.09984706342220306,"27":0.4647306203842163,"28":0.09207798540592194,"29":-0.07568753510713577,"30":-0.13741424679756165,"31":-0.32443827390670776,"32":-0.11350719630718231,"33":-0.13719704747200012,"34":-0.049988795071840286,"35":0.10807578265666962,"36":0.10554684698581696,"37":0.1698702871799469,"38":0.10702963918447495,"39":-0.0563325397670269,"40":-0.10976110398769379,"41":0.023965435102581978,"42":-0.08611162006855011,"43":-0.062139421701431274,"44":-0.05155380442738533,"45":0.15284228324890137,"46":0.28006601333618164,"47":-0.15919874608516693,"48":-0.06641842424869537,"49":0.2674444019794464,"50":0.05381367728114128,"51":-0.10631638020277023,"52":0.2272977977991104,"53":0.3312355875968933,"54":0.022102035582065582,"55":0.2204187512397766,"56":0.0837334617972374,"57":0.167496457695961,"58":-0.18228888511657715,"59":0.2951643466949463,"60":-0.03951164335012436,"61":-0.17966370284557343,"62":0.11677214503288269,"63":-0.0740634948015213,"64":0.032146550714969635,"65":0.14737734198570251,"66":-0.09951411932706833,"67":0.1328284591436386,"68":-0.04450198635458946,"69":0.1861216425895691,"70":-0.11168833822011948,"71":0.14433498680591583,"72":-0.07899487018585205,"73":0.1066395714879036,"74":-0.035927463322877884,"75":0.041524410247802734,"76":-0.19168999791145325,"77":-0.12972314655780792,"78":-0.07165239751338959,"79":0.15192143619060516,"80":-0.15731139481067657,"81":-0.17151230573654175,"82":-0.15103621780872345,"83":0.04299694299697876,"84":-0.1254056990146637,"85":-0.14978566765785217,"86":-0.08789341896772385,"87":0.10283360630273819,"88":-0.13602092862129211,"89":-0.03868969902396202,"90":0.12544508278369904,"91":-0.014600960537791252,"92":-0.05494106933474541,"93":0.04806752875447273,"94":-0.016524286940693855,"95":0.058649010956287384,"96":-0.11697030067443848,"97":-0.07597357779741287,"98":-0.05914827436208725,"99":0.1810179203748703,"100":0.12247255444526672,"101":-0.0882774069905281,"102":0.013813340105116367,"103":0.098015695810318,"104":-0.25665876269340515,"105":0.030267536640167236,"106":-0.2229640632867813,"107":0.028633717447519302,"108":-0.11226516962051392,"109":0.1626301109790802,"110":0.1039842739701271,"111":0.11504446715116501,"112":0.1910858452320099,"113":0.17227236926555634,"114":-0.12057040631771088,"115":0.003707260126248002,"116":0.07274404913187027,"117":0.14208251237869263,"118":0.022884754464030266,"119":0.11173191666603088,"120":0.12398344278335571,"121":-0.023024529218673706,"122":0.0598687082529068,"123":0.024225745350122452,"124":0.17049993574619293,"125":-0.22408859431743622,"126":-0.0020585639867931604,"127":-0.17021751403808594,"128":0.0626157596707344,"129":-0.16316790878772736,"130":0.12045518308877945,"131":0.14951784908771515,"132":0.020966311916708946,"133":-0.10807209461927414,"134":0.06429951637983322,"135":-0.05007987096905708,"136":-0.022826101630926132,"137":-0.019181955605745316,"138":0.15016135573387146,"139":-0.00032566580921411514,"140":0.04135191813111305,"141":0.14041835069656372,"142":-0.10686809569597244,"143":-0.02538493648171425,"144":-0.01759394258260727,"145":0.02197653241455555,"146":0.18427418172359467,"147":0.16896070539951324,"148":0.05607429891824722,"149":0.15629220008850098,"150":0.14906062185764313,"151":0.10717365890741348,"152":0.14108610153198242,"153":-0.1657591611146927,"154":0.17976902425289154,"155":0.014045236632227898,"156":0.08476760238409042,"157":-0.05917619541287422,"158":0.0006291146855801344,"159":-0.18506193161010742,"160":-0.18302565813064575,"161":0.011992709711194038,"162":-0.059826306998729706,"163":-0.024723632261157036,"164":-0.08984527736902237,"165":0.16318459808826447,"166":0.16871869564056396,"167":0.07936325669288635,"168":0.022435903549194336,"169":0.12305886298418045,"170":0.007505748420953751,"171":-0.16333752870559692,"172":0.10179447382688522,"173":0.1980656385421753,"174":0.1352817714214325,"175":-0.18870370090007782,"176":0.025722237303853035,"177":0.13960832357406616,"178":-0.03036912903189659,"179":0.1428530514240265,"180":-0.1971171796321869,"181":0.15869319438934326,"182":-0.05771208554506302,"183":-0.08447907119989395,"184":0.17442657053470612,"185":-0.006353003904223442,"186":0.011814434081315994,"187":0.1529679000377655,"188":0.05144345015287399,"189":-0.11900301277637482,"190":-0.15303288400173187,"191":0.07007865607738495,"192":0.12254896014928818,"193":0.08205520361661911,"194":0.05435134842991829,"195":-0.08831873536109924,"196":-0.12500609457492828,"197":0.05725618824362755,"198":0.009861662052571774,"199":0.09479165822267532,"200":-0.17747804522514343,"201":0.17305658757686615,"202":-0.029886620119214058,"203":0.06397359073162079,"204":0.08128128200769424,"205":0.028241857886314392,"206":0.08453670144081116,"207":0.08712372928857803,"208":-0.15384843945503235,"209":-0.15606895089149475,"210":0.16908398270606995,"211":-0.1938086897134781,"212":0.04648542404174805,"213":0.16618622839450836,"214":0.12320514768362045,"215":0.009109166450798512,"216":-0.030910076573491096,"217":0.07029975950717926,"218":-0.06291288882493973,"219":0.1664218157529831,"220":-0.16110824048519135,"221":0.1286197006702423,"222":-0.17125234007835388,"223":0.04366526007652283,"224":-0.005276279989629984,"225":-0.08010748773813248,"226":0.039384134113788605,"227":-0.02200981229543686,"228":0.12772445380687714,"229":-0.06930988281965256,"230":-0.1044418215751648,"231":-0.10583630204200745,"232":-0.09976502507925034,"233":0.06347653269767761,"234":0.08908260613679886,"235":0.09285422414541245,"236":0.018080709502100945,"237":0.0827692523598671,"238":-0.18798395991325378,"239":0.12537777423858643,"240":-0.1394740492105484,"241":-0.039198487997055054,"242":0.05451776459813118,"243":-0.10492489486932755,"244":-0.10543250292539597,"245":0.04452524706721306,"246":0.13157238066196442,"247":0.04322978854179382,"248":-0.034176744520664215,"249":0.02771146595478058,"250":-0.08825753629207611,"251":0.03132915496826172,"252":-0.17271971702575684,"253":-0.1525288075208664,"254":0.16223332285881042,"255":-0.06831058859825134,"256":0.0070601641200482845,"257":0.019606059417128563,"258":0.18665310740470886,"259":-0.07433278113603592,"260":-0.010742002166807652,"261":0.10252921283245087,"262":0.19853746891021729,"263":-0.10195700824260712,"264":-0.026364702731370926,"265":-0.15197230875492096,"266":-0.04787213355302811,"267":-0.0682237297296524,"268":0.11222989112138748,"269":-0.16450057923793793,"270":0.15668848156929016,"271":-0.11687330156564713,"272":-0.012685018591582775,"273":0.14868779480457306,"274":-0.01703324168920517,"275":-0.07886240631341934,"276":-0.1880117654800415,"277":-0.09223644435405731,"278":-0.05571724474430084,"279":-0.18779757618904114}},"2":{"bias":-0.002326802583411336,"weights":{"0":-0.3692728579044342,"1":0.1180846095085144,"2":0.3176496624946594,"3":-0.14540764689445496,"4":0.16714833676815033,"5":-0.2686809003353119,"6":-0.2645042836666107,"7":0.34686627984046936,"8":0.5466745495796204,"9":-0.07958346605300903,"10":0.05023865029215813,"11":-0.10303467512130737,"12":-0.0945810079574585,"13":-0.40123188495635986,"14":0.05974451079964638,"15":-0.3412124514579773,"16":0.24723254144191742,"17":0.32291704416275024,"18":-0.15974879264831543,"19":0.019550656899809837,"20":-0.4134262800216675,"21":0.28738439083099365,"22":-0.24007272720336914,"23":-0.30500608682632446,"24":-0.18074877560138702,"25":0.03489678353071213,"26":-0.1892274171113968,"27":0.5063295364379883,"28":0.469777375459671,"29":-0.14522765576839447,"30":-0.14592993259429932,"31":-0.1802048683166504,"32":-0.08411988615989685,"33":0.051942840218544006,"34":-0.12707862257957458,"35":0.06786904484033585,"36":0.1459835022687912,"37":0.03242091089487076,"38":0.09123347699642181,"39":-0.005244671367108822,"40":0.19147488474845886,"41":0.20979905128479004,"42":0.16264942288398743,"43":-0.15701451897621155,"44":-0.05564695596694946,"45":0.028018977493047714,"46":0.3156103789806366,"47":-0.15186132490634918,"48":0.11452130973339081,"49":0.12217102199792862,"50":-0.0695473700761795,"51":-0.15645551681518555,"52":-0.12253129482269287,"53":0.09597130119800568,"54":-0.05704508721828461,"55":-0.08136973530054092,"56":0.10374267399311066,"57":0.12409710139036179,"58":-0.1316107213497162,"59":0.23051480948925018,"60":-0.24413330852985382,"61":0.1349499225616455,"62":-0.07200410962104797,"63":-0.15857011079788208,"64":0.09195168316364288,"65":0.14606371521949768,"66":-0.1316719651222229,"67":-0.17757131159305573,"68":-0.1588403284549713,"69":0.003664793912321329,"70":-0.018940776586532593,"71":-0.043877504765987396,"72":0.04631718620657921,"73":-0.05600713938474655,"74":-0.12670552730560303,"75":0.14290928840637207,"76":0.01909438520669937,"77":-0.1957090198993683,"78":-0.1559790074825287,"79":0.13903586566448212,"80":0.1167193204164505,"81":-0.024633754044771194,"82":-0.17360828816890717,"83":0.042033351957798004,"84":-0.13520146906375885,"85":0.03321878984570503,"86":-0.09828397631645203,"87":-0.04395586624741554,"88":0.14462457597255707,"89":0.14148561656475067,"90":0.15033726394176483,"91":-0.16247035562992096,"92":0.039293546229600906,"93":0.038572296500205994,"94":0.2707621157169342,"95":-0.06727787107229233,"96":0.00749023025855422,"97":-0.10012535750865936,"98":-0.027775701135396957,"99":-0.04800616577267647,"100":-0.26559194922447205,"101":0.03247446566820145,"102":-0.2295798361301422,"103":-0.11133589595556259,"104":-0.03317137807607651,"105":-0.1095009371638298,"106":-0.19241894781589508,"107":0.0826144888997078,"108":-0.13070078194141388,"109":0.034330546855926514,"110":0.08200286328792572,"111":0.10436059534549713,"112":-0.08998966962099075,"113":0.14301997423171997,"114":-0.11892953515052795,"115":0.16439349949359894,"116":0.16110187768936157,"117":0.21289436519145966,"118":-0.005602935329079628,"119":-0.08294180780649185,"120":0.013845760375261307,"121":0.06361756473779678,"122":-0.018581537529826164,"123":0.19337481260299683,"124":-0.091102734208107,"125":-0.2003720998764038,"126":-0.146416574716568,"127":0.143766850233078,"128":0.09422376751899719,"129":-0.029286084696650505,"130":0.11108145862817764,"131":-0.12793788313865662,"132":-0.1701049506664276,"133":0.033738043159246445,"134":0.1654735952615738,"135":0.1098574846982956,"136":0.08278694748878479,"137":-0.06666715443134308,"138":-0.1006997674703598,"139":-0.13443167507648468,"140":-0.10999662429094315,"141":0.14794211089611053,"142":0.1814591884613037,"143":0.1663859337568283,"144":-0.16939817368984222,"145":-0.1075151115655899,"146":0.04299669340252876,"147":-0.17848128080368042,"148":-0.050370510667562485,"149":0.10205687582492828,"150":-0.04819542169570923,"151":-0.12871892750263214,"152":-0.015781521797180176,"153":-0.10558245331048965,"154":-0.15564990043640137,"155":0.13627569377422333,"156":-0.11552846431732178,"157":-0.11047812551259995,"158":-0.07742217183113098,"159":0.045069120824337006,"160":0.028224743902683258,"161":-0.0012891413643956184,"162":-0.0019776751287281513,"163":0.002312332158908248,"164":0.053690940141677856,"165":-0.034990571439266205,"166":-0.04387051239609718,"167":-0.04824187979102135,"168":0.0774228423833847,"169":-0.06462995707988739,"170":0.09743782132863998,"171":-0.06870614737272263,"172":-0.03942186012864113,"173":-0.021228939294815063,"174":0.13258348405361176,"175":-0.09002763777971268,"176":0.10936065763235092,"177":0.02209221012890339,"178":0.16204464435577393,"179":0.1671731024980545,"180":0.0013605443527922034,"181":0.14031191170215607,"182":0.10818234086036682,"183":-0.030752496793866158,"184":-0.0037649283185601234,"185":0.10979454964399338,"186":0.037483420222997665,"187":0.14715570211410522,"188":-0.04155635088682175,"189":0.05625515431165695,"190":-0.1842939704656601,"191":0.1553398072719574,"192":-0.10485811531543732,"193":-0.005044011864811182,"194":-0.08712559193372726,"195":-0.13339437544345856,"196":-0.13233375549316406,"197":-0.18273621797561646,"198":0.048916470259428024,"199":0.13595318794250488,"200":-0.022329939529299736,"201":0.0733330249786377,"202":0.15591944754123688,"203":-0.0004728914354927838,"204":0.08277706801891327,"205":0.08418647944927216,"206":0.14866550266742706,"207":-0.10469569265842438,"208":-0.037074487656354904,"209":-0.06905526667833328,"210":-0.05937705188989639,"211":0.019088134169578552,"212":0.20926126837730408,"213":0.1728561967611313,"214":-0.04988320544362068,"215":-0.0620579831302166,"216":0.1958049088716507,"217":0.039251428097486496,"218":-0.1197483241558075,"219":-0.15277856588363647,"220":-0.039834097027778625,"221":0.09063003957271576,"222":0.041534293442964554,"223":0.04003019258379936,"224":-0.1314648687839508,"225":0.16352029144763947,"226":0.12953545153141022,"227":-0.10821980983018875,"228":-0.09401994943618774,"229":-0.0819026306271553,"230":0.035125575959682465,"231":0.06177709251642227,"232":-0.13383719325065613,"233":-0.16577757894992828,"234":0.15116646885871887,"235":0.09929568320512772,"236":-0.0016484131338074803,"237":0.024995163083076477,"238":0.10374323278665543,"239":0.1940494179725647,"240":-0.09728062152862549,"241":0.1504979431629181,"242":0.07324662059545517,"243":-0.17136019468307495,"244":-0.10180184245109558,"245":0.16119243204593658,"246":0.13143013417720795,"247":-0.08063925057649612,"248":-0.12450600415468216,"249":-0.1393645852804184,"250":-0.06280611455440521,"251":0.14320331811904907,"252":-0.10209556668996811,"253":0.052521299570798874,"254":0.18336816132068634,"255":-0.10710304975509644,"256":0.037763576954603195,"257":-0.1806735396385193,"258":-0.10397331416606903,"259":-0.13310353457927704,"260":-0.1679966151714325,"261":0.04008512943983078,"262":-0.14425405859947205,"263":0.15140724182128906,"264":-0.18045270442962646,"265":0.12291999161243439,"266":-0.08187539875507355,"267":0.03210803121328354,"268":-0.14859583973884583,"269":0.0764925554394722,"270":0.048181209713220596,"271":0.13226516544818878,"272":-0.034142814576625824,"273":-0.021460149437189102,"274":0.10346268117427826,"275":0.10724970698356628,"276":0.052375540137290955,"277":0.18667194247245789,"278":-0.03299035504460335,"279":0.1313699185848236}},"3":{"bias":-0.044918544590473175,"weights":{"0":0.15191391110420227,"1":0.09401112049818039,"2":-0.03704700618982315,"3":0.031877823173999786,"4":-0.33934175968170166,"5":0.474140465259552,"6":0.13153637945652008,"7":-0.1054568961262703,"8":-0.38731488585472107,"9":0.32258132100105286,"10":0.033677056431770325,"11":0.1964518278837204,"12":0.057724691927433014,"13":0.3292936086654663,"14":0.06877007335424423,"15":0.5293200612068176,"16":-0.06634198129177094,"17":-0.21287564933300018,"18":-0.02304365672171116,"19":-0.05193660035729408,"20":0.3592677116394043,"21":-0.0016115105245262384,"22":0.00966204795986414,"23":-0.10964810848236084,"24":0.21295166015625,"25":0.05967431515455246,"26":0.17141297459602356,"27":-0.4166823625564575,"28":-0.348998099565506,"29":-0.06904245913028717,"30":0.1743890941143036,"31":0.1993405520915985,"32":-0.010398444719612598,"33":0.12954537570476532,"34":0.08313367515802383,"35":0.01264928001910448,"36":-0.06881579756736755,"37":-0.09764737635850906,"38":0.20002296566963196,"39":-0.08282504230737686,"40":-0.07289618253707886,"41":-0.15985961258411407,"42":-0.14846672117710114,"43":0.316311240196228,"44":0.00169130798894912,"45":-0.13957251608371735,"46":-0.16650378704071045,"47":0.005242064129561186,"48":0.046741608530282974,"49":-0.3780031204223633,"50":-0.1997804492712021,"51":-0.01859230175614357,"52":-0.1973578780889511,"53":-0.20341752469539642,"54":-0.16637581586837769,"55":0.05963218957185745,"56":0.06712859869003296,"57":0.09434400498867035,"58":0.11633411794900894,"59":-0.18271104991436005,"60":-0.03797292336821556,"61":0.038624927401542664,"62":0.034160420298576355,"63":0.1512671858072281,"64":-0.09641147404909134,"65":-0.21893078088760376,"66":-0.08793412894010544,"67":-0.11973650753498077,"68":0.15305741131305695,"69":-0.19201086461544037,"70":-0.03514685481786728,"71":-0.012523763813078403,"72":-0.08877034485340118,"73":0.01416599191725254,"74":-0.05774594843387604,"75":-0.1470312774181366,"76":0.11671781539916992,"77":0.35448509454727173,"78":0.05324282869696617,"79":-0.19087740778923035,"80":0.0762212872505188,"81":0.011714259162545204,"82":0.24121107161045074,"83":-0.3326244354248047,"84":0.24941791594028473,"85":0.05867183580994606,"86":-0.0023912617471069098,"87":0.18939527869224548,"88":-0.1791289895772934,"89":-0.324859619140625,"90":0.1785265952348709,"91":-0.05586188659071922,"92":-0.1473633050918579,"93":0.08536378294229507,"94":0.01356808003038168,"95":0.026268798857927322,"96":0.20166417956352234,"97":-0.11097105592489243,"98":0.05866292119026184,"99":0.06992096453905106,"100":0.19673319160938263,"101":-0.1717175841331482,"102":0.1852135807275772,"103":0.04287878796458244,"104":0.23027575016021729,"105":0.238678440451622,"106":-0.07346020638942719,"107":0.015506329014897346,"108":-0.10697916150093079,"109":-0.1498185098171234,"110":0.0797359049320221,"111":0.06255854666233063,"112":-0.18477167189121246,"113":0.20792454481124878,"114":0.08382517844438553,"115":-0.058720912784338,"116":-0.13089090585708618,"117":-0.2445298135280609,"118":-0.05817431956529617,"119":0.045939356088638306,"120":0.04042275249958038,"121":0.03487511724233627,"122":-0.046412236988544464,"123":-0.13705481588840485,"124":0.13056902587413788,"125":-0.03455296903848648,"126":0.07793784141540527,"127":0.19525280594825745,"128":0.19156982004642487,"129":0.025507792830467224,"130":0.051038987934589386,"131":-0.030168427154421806,"132":-0.021404681727290154,"133":-0.08658549189567566,"134":0.06952334195375443,"135":-0.06712867319583893,"136":-0.16348832845687866,"137":-0.02779184654355049,"138":-0.012376845814287663,"139":-0.1499490886926651,"140":-0.16372787952423096,"141":-0.21023565530776978,"142":-0.05543135479092598,"143":-0.11817493289709091,"144":-0.030910534784197807,"145":0.1655631810426712,"146":-0.13087956607341766,"147":-0.20451028645038605,"148":0.17821566760540009,"149":-0.05578691139817238,"150":-0.14911553263664246,"151":-0.08142059296369553,"152":0.1701725572347641,"153":-0.03945686295628548,"154":-0.1538066267967224,"155":0.09026232361793518,"156":0.09694817662239075,"157":-0.17452774941921234,"158":-0.13604389131069183,"159":-0.17050500214099884,"160":-0.03816738724708557,"161":0.06928254663944244,"162":-0.06691566109657288,"163":-0.05388990789651871,"164":0.04611038416624069,"165":-0.18822228908538818,"166":-0.18471625447273254,"167":0.17487534880638123,"168":-0.20557105541229248,"169":0.09881146997213364,"170":0.16457843780517578,"171":-0.025073356926441193,"172":0.036728885024785995,"173":0.09027159214019775,"174":-0.1727200448513031,"175":0.17647208273410797,"176":0.04305068030953407,"177":0.08607444912195206,"178":-0.12287136167287827,"179":0.08663862198591232,"180":-0.21821853518486023,"181":-0.06109306216239929,"182":-0.024257957935333252,"183":-0.05598185211420059,"184":-0.09974585473537445,"185":0.16546843945980072,"186":-0.2127566635608673,"187":0.05483648553490639,"188":0.12750215828418732,"189":-0.1625298410654068,"190":-0.06122209131717682,"191":0.09278316050767899,"192":0.1036188006401062,"193":-0.007010948844254017,"194":-0.06887216120958328,"195":-0.20756207406520844,"196":0.08999434113502502,"197":0.17074289917945862,"198":0.16207163035869598,"199":-0.014950894750654697,"200":-0.21658343076705933,"201":0.16405178606510162,"202":-0.13355152308940887,"203":0.1076827272772789,"204":-0.04232288524508476,"205":0.09049786627292633,"206":-0.04374200478196144,"207":-0.20495650172233582,"208":-0.12877315282821655,"209":-0.06590010225772858,"210":0.15940840542316437,"211":-0.20903904736042023,"212":-0.038864824920892715,"213":-0.19383955001831055,"214":0.14828655123710632,"215":-0.0499919094145298,"216":-0.06324884295463562,"217":0.03575471416115761,"218":-0.21400634944438934,"219":-0.15729068219661713,"220":0.08121243864297867,"221":0.04415860027074814,"222":-0.04937473312020302,"223":-0.1480254828929901,"224":0.1517355591058731,"225":0.12614049017429352,"226":0.1714448779821396,"227":-0.1743190735578537,"228":-0.04551117122173309,"229":0.0754367932677269,"230":0.17675738036632538,"231":-0.14871591329574585,"232":0.13127708435058594,"233":-0.14549605548381805,"234":-0.13979677855968475,"235":0.06381821632385254,"236":0.04605622962117195,"237":0.1333657205104828,"238":-0.025514744222164154,"239":-0.13162784278392792,"240":-0.14152854681015015,"241":0.137693390250206,"242":-0.028962524607777596,"243":-0.12007269263267517,"244":-0.01398040633648634,"245":-0.09558475762605667,"246":-0.12868665158748627,"247":0.013754837214946747,"248":0.1237291470170021,"249":-0.15680330991744995,"250":-0.20550987124443054,"251":-0.09468699246644974,"252":-0.10864770412445068,"253":-0.05014917254447937,"254":-0.05940955504775047,"255":-0.2169429361820221,"256":-0.03326243907213211,"257":0.12506286799907684,"258":0.0036006912123411894,"259":0.054256539791822433,"260":-0.045341089367866516,"261":0.1025441437959671,"262":0.078609399497509,"263":0.005649119149893522,"264":0.012515721842646599,"265":0.15662887692451477,"266":-0.05898313224315643,"267":-0.04037455841898918,"268":-0.18422967195510864,"269":-0.007852040231227875,"270":0.10977903753519058,"271":-0.07003017514944077,"272":0.01280099805444479,"273":-0.12281735241413116,"274":-0.04897267371416092,"275":0.17319318652153015,"276":-0.07360980659723282,"277":-0.029188664630055428,"278":-0.1432078629732132,"279":-0.10302026569843292}},"4":{"bias":-0.003309335559606552,"weights":{"0":-0.36295565962791443,"1":0.16921831667423248,"2":0.24872979521751404,"3":-0.4301881790161133,"4":0.060256801545619965,"5":-0.4088182747364044,"6":0.03768528252840042,"7":0.14416475594043732,"8":0.5781154036521912,"9":-0.41057825088500977,"10":-0.2411276400089264,"11":-0.28125548362731934,"12":-0.1294911652803421,"13":-0.30923405289649963,"14":0.044939544051885605,"15":-0.5510586500167847,"16":-0.03295213356614113,"17":0.32378554344177246,"18":-0.07205163687467575,"19":0.08313627541065216,"20":-0.09510387480258942,"21":-0.04399966821074486,"22":-0.2619391083717346,"23":0.06764919310808182,"24":-0.005322727840393782,"25":-0.17116965353488922,"26":-0.14022782444953918,"27":0.5885475277900696,"28":0.47305187582969666,"29":0.19262249767780304,"30":-0.20156872272491455,"31":-0.10290730744600296,"32":-0.15209153294563293,"33":-0.025531619787216187,"34":-0.0005862883408553898,"35":-0.1078302264213562,"36":0.010391492396593094,"37":0.15007427334785461,"38":0.15882135927677155,"39":-0.08203071355819702,"40":0.23739467561244965,"41":0.2467317432165146,"42":0.07032742351293564,"43":-0.30897408723831177,"44":0.10741666704416275,"45":-0.0919775739312172,"46":0.12031887471675873,"47":-0.016127342358231544,"48":0.0264410562813282,"49":0.053031325340270996,"50":0.13436561822891235,"51":-0.07707259058952332,"52":-0.11221613734960556,"53":0.4718358516693115,"54":0.016654619947075844,"55":-0.1284441202878952,"56":0.064572274684906,"57":0.04836060851812363,"58":0.09617667645215988,"59":0.12992984056472778,"60":0.016948161646723747,"61":0.12890534102916718,"62":0.08954624831676483,"63":-0.04918161407113075,"64":0.3152662217617035,"65":0.02744668535888195,"66":-0.045820724219083786,"67":0.1555848866701126,"68":-0.06359011679887772,"69":0.1813768595457077,"70":-0.07035402208566666,"71":0.004217694979161024,"72":0.26143717765808105,"73":-0.08916351944208145,"74":0.2549299895763397,"75":0.13513945043087006,"76":-0.21026617288589478,"77":-0.1457839459180832,"78":-0.09467773139476776,"79":0.16821640729904175,"80":-0.01207961980253458,"81":-0.1508740484714508,"82":-0.06652644276618958,"83":0.33881738781929016,"84":-0.012271388433873653,"85":-0.12115257978439331,"86":0.042529650032520294,"87":-0.13823100924491882,"88":-0.16187065839767456,"89":-0.013263953849673271,"90":0.17776688933372498,"91":-0.15678630769252777,"92":0.30886566638946533,"93":-0.1937679946422577,"94":0.15256741642951965,"95":0.10420912504196167,"96":0.031070362776517868,"97":0.027198083698749542,"98":0.024268554523587227,"99":-0.1021699383854866,"100":-0.2514309883117676,"101":-0.031788282096385956,"102":0.05125603824853897,"103":-0.196841761469841,"104":0.005004767328500748,"105":-0.23286090791225433,"106":-0.27963435649871826,"107":0.17737850546836853,"108":-0.14615094661712646,"109":0.04084177315235138,"110":0.1961824893951416,"111":-0.0884673073887825,"112":0.004080775659531355,"113":-0.18182115256786346,"114":0.05569692701101303,"115":0.031335338950157166,"116":0.05094302445650101,"117":0.15116383135318756,"118":0.017603211104869843,"119":-0.1008843183517456,"120":-0.15599073469638824,"121":-0.1896257847547531,"122":0.1847948431968689,"123":-0.055267129093408585,"124":0.10523198544979095,"125":0.06362120062112808,"126":0.1249937042593956,"127":0.04891664534807205,"128":0.08079526573419571,"129":0.0953890010714531,"130":0.04201321303844452,"131":0.012132391333580017,"132":-0.0878634974360466,"133":0.04860973358154297,"134":-0.023830166086554527,"135":0.1135043203830719,"136":-0.16945578157901764,"137":-0.1321619749069214,"138":-0.1228938102722168,"139":-0.08305977284908295,"140":-0.14004825055599213,"141":-0.05107354745268822,"142":0.18105801939964294,"143":-0.1326976865530014,"144":0.06599224358797073,"145":0.01787618175148964,"146":0.120083287358284,"147":0.0440242625772953,"148":-0.1283097267150879,"149":0.04859228804707527,"150":0.175636887550354,"151":-0.1542566567659378,"152":-0.06806869059801102,"153":0.1744421273469925,"154":0.003841092111542821,"155":0.11096056550741196,"156":0.04425979405641556,"157":-0.16098126769065857,"158":0.039844002574682236,"159":-0.014758540317416191,"160":0.04579474404454231,"161":0.19838380813598633,"162":0.14916270971298218,"163":0.1835852563381195,"164":-0.028321048244833946,"165":0.06435589492321014,"166":0.14823956787586212,"167":-0.1325153112411499,"168":-0.06299581378698349,"169":-0.047322362661361694,"170":-0.15082435309886932,"171":0.046864598989486694,"172":-0.0017634439282119274,"173":-0.12139598280191422,"174":0.06863575428724289,"175":-0.15749351680278778,"176":-0.015403556637465954,"177":-0.08373300731182098,"178":-0.07713313400745392,"179":0.18217819929122925,"180":-0.02538447640836239,"181":0.11275914311408997,"182":-0.10993723571300507,"183":0.12538990378379822,"184":0.1323748379945755,"185":0.20752057433128357,"186":-0.0486801452934742,"187":-0.12745501101016998,"188":0.2051059454679489,"189":-0.14210134744644165,"190":0.11749880760908127,"191":-0.06201588734984398,"192":0.10639932006597519,"193":0.16965079307556152,"194":0.026621311902999878,"195":-0.004081311635673046,"196":-0.11364791542291641,"197":-0.07373245060443878,"198":0.10796122997999191,"199":0.11365807801485062,"200":0.04593038186430931,"201":-0.188022643327713,"202":0.12484021484851837,"203":0.17130179703235626,"204":-0.03134759142994881,"205":0.1346638798713684,"206":-0.14984194934368134,"207":0.18339020013809204,"208":0.048375435173511505,"209":0.1140136793255806,"210":-0.12360420823097229,"211":-0.06660226732492447,"212":-0.1405637264251709,"213":-0.005503639578819275,"214":0.1571427583694458,"215":0.18842965364456177,"216":-0.006023508962243795,"217":0.10620615631341934,"218":-0.0341898612678051,"219":0.17210203409194946,"220":0.20309564471244812,"221":0.09648485481739044,"222":-0.04953417181968689,"223":-0.07687296718358994,"224":-0.18707413971424103,"225":-0.06436941772699356,"226":-0.175843745470047,"227":0.018012015148997307,"228":0.1301017552614212,"229":-0.06279823929071426,"230":0.09576475620269775,"231":0.12103479355573654,"232":-0.028347015380859375,"233":-0.16793586313724518,"234":0.153371661901474,"235":-0.1887131780385971,"236":0.1906183362007141,"237":0.18140755593776703,"238":0.06447840481996536,"239":0.1661905199289322,"240":0.20369961857795715,"241":-0.007907003164291382,"242":0.06723827868700027,"243":0.17933779954910278,"244":0.2050846964120865,"245":-0.19128794968128204,"246":-0.1520742028951645,"247":-0.16205501556396484,"248":0.1481625884771347,"249":0.15361657738685608,"250":-0.09270884841680527,"251":0.19233618676662445,"252":0.059106845408678055,"253":-0.11841761320829391,"254":0.05190563574433327,"255":0.20043803751468658,"256":-0.10882126539945602,"257":0.1408240795135498,"258":0.19713269174098969,"259":-0.09066282212734222,"260":-0.18560177087783813,"261":-0.07553384453058243,"262":0.11928267031908035,"263":-0.16991302371025085,"264":-0.07900428771972656,"265":0.11249737441539764,"266":-0.14765721559524536,"267":-0.1902914047241211,"268":0.15226148068904877,"269":0.025432225316762924,"270":0.10598265379667282,"271":-0.10210159420967102,"272":-0.00010367867798777297,"273":0.04635833948850632,"274":0.08807118982076645,"275":-0.04369533434510231,"276":0.1973986178636551,"277":-0.15274082124233246,"278":-0.12165567278862,"279":0.09127315878868103}},"5":{"bias":0.1251644790172577,"weights":{"0":-0.0895172581076622,"1":-0.08170310407876968,"2":-0.030194628983736038,"3":-0.12512712180614471,"4":0.12613284587860107,"5":-0.4721600413322449,"6":-0.13069330155849457,"7":0.37718909978866577,"8":0.6769635081291199,"9":-0.07290095835924149,"10":-0.06276906281709671,"11":-0.1811356097459793,"12":0.2484513223171234,"13":-0.14321434497833252,"14":0.11997756361961365,"15":-0.6221895217895508,"16":0.23861251771450043,"17":0.11813429743051529,"18":-0.0067786723375320435,"19":0.005805016029626131,"20":-0.3485499322414398,"21":-0.05214357376098633,"22":-0.21411952376365662,"23":0.008340083062648773,"24":-0.24951517581939697,"25":-0.11141674220561981,"26":0.1298256814479828,"27":0.34389886260032654,"28":0.21185244619846344,"29":-0.13015908002853394,"30":-0.11021727323532104,"31":-0.2962859272956848,"32":-0.0731906071305275,"33":-0.10352637618780136,"34":-0.2516024708747864,"35":0.08403920382261276,"36":0.05229433625936508,"37":0.014614769257605076,"38":0.13506552577018738,"39":0.06152598187327385,"40":0.19784297049045563,"41":0.23616889119148254,"42":0.1092458963394165,"43":-0.10743474960327148,"44":0.11680550128221512,"45":0.08258643746376038,"46":0.0077865030616521835,"47":0.093998022377491,"48":0.22557485103607178,"49":0.3921363055706024,"50":0.21506787836551666,"51":-0.12969687581062317,"52":0.08854823559522629,"53":0.14170342683792114,"54":-0.09246256202459335,"55":0.15562529861927032,"56":0.044608328491449356,"57":0.09406578540802002,"58":-0.1316959112882614,"59":0.4045242369174957,"60":-0.015061695128679276,"61":0.07248624414205551,"62":-0.18269509077072144,"63":-0.08013839274644852,"64":0.2041114717721939,"65":0.20677101612091064,"66":0.11180723458528519,"67":0.027269534766674042,"68":-0.3315841853618622,"69":-0.11979908496141434,"70":-0.146998330950737,"71":-0.017471177503466606,"72":0.042610540986061096,"73":-0.018367299810051918,"74":-0.08573727309703827,"75":-0.10948048532009125,"76":-0.013941692188382149,"77":-0.2470211684703827,"78":0.12140883505344391,"79":-0.08905314654111862,"80":-0.17378181219100952,"81":0.023826895281672478,"82":-0.010223844088613987,"83":0.2906292974948883,"84":-0.1326606571674347,"85":-0.033153705298900604,"86":-0.23533357679843903,"87":0.03439949080348015,"88":-0.1509460061788559,"89":0.02270541898906231,"90":-0.18868610262870789,"91":0.08747507631778717,"92":-0.06510627269744873,"93":-0.1642836332321167,"94":0.3229038119316101,"95":0.060979440808296204,"96":-0.2555196285247803,"97":0.1629583239555359,"98":-0.17817281186580658,"99":-0.03557880222797394,"100":-0.03844180330634117,"101":0.2366829365491867,"102":-0.16733859479427338,"103":-0.1371069699525833,"104":0.06765586137771606,"105":-0.31746193766593933,"106":-0.10245891660451889,"107":0.17576144635677338,"108":0.06180654093623161,"109":-0.1387765109539032,"110":-0.062337905168533325,"111":-0.14564447104930878,"112":-0.06973683089017868,"113":-0.07223706692457199,"114":-0.10418235510587692,"115":-0.0813424289226532,"116":0.08066904544830322,"117":-0.06980191171169281,"118":-0.08343697339296341,"119":0.01915263570845127,"120":0.039734385907649994,"121":0.010952477343380451,"122":0.11356516182422638,"123":0.05772088095545769,"124":0.10134457051753998,"125":-0.04038747772574425,"126":-0.09931100904941559,"127":-0.15337499976158142,"128":-0.12600073218345642,"129":-0.22756822407245636,"130":-0.012270580045878887,"131":-0.1760198473930359,"132":-0.031686607748270035,"133":0.11007676273584366,"134":0.14131896197795868,"135":0.14575882256031036,"136":-0.14931029081344604,"137":-0.17050164937973022,"138":0.20859389007091522,"139":0.08259449154138565,"140":-0.00841470155864954,"141":0.044746484607458115,"142":0.17750532925128937,"143":-0.17405535280704498,"144":0.09086804836988449,"145":0.05420789122581482,"146":0.020855814218521118,"147":0.12860538065433502,"148":-0.12031593173742294,"149":0.17766666412353516,"150":0.1890552043914795,"151":-0.18388713896274567,"152":0.09867657721042633,"153":0.1564113348722458,"154":0.09799344092607498,"155":0.19317281246185303,"156":0.07926914840936661,"157":0.033490050584077835,"158":0.1291133165359497,"159":0.01017877645790577,"160":-0.17434042692184448,"161":0.05225292965769768,"162":0.19252286851406097,"163":0.1762325018644333,"164":-0.06822519749403,"165":-0.014194827526807785,"166":0.005609877407550812,"167":-0.11532790213823318,"168":-0.15532492101192474,"169":0.07973819226026535,"170":0.10945849865674973,"171":0.13815420866012573,"172":-0.09792181104421616,"173":0.07513255625963211,"174":-0.095940962433815,"175":0.055267397314310074,"176":-0.050527989864349365,"177":-0.015470250509679317,"178":0.05198545381426811,"179":0.04910382255911827,"180":-0.09373518079519272,"181":0.08002160489559174,"182":-0.11396173387765884,"183":-0.17490780353546143,"184":0.11933882534503937,"185":0.040282901376485825,"186":-0.020363930612802505,"187":0.18698760867118835,"188":-0.03236554190516472,"189":-0.12578031420707703,"190":0.09923670440912247,"191":-0.09034455567598343,"192":0.04627469554543495,"193":-0.018890243023633957,"194":0.05122898519039154,"195":0.0443408340215683,"196":-0.006032255943864584,"197":-0.10004780441522598,"198":0.029239175841212273,"199":0.011929295025765896,"200":0.039746999740600586,"201":0.20480598509311676,"202":0.035271838307380676,"203":0.05629817023873329,"204":-0.039675962179899216,"205":-0.017528260126709938,"206":0.022295188158750534,"207":-0.13275590538978577,"208":-0.04010919854044914,"209":0.007396431174129248,"210":0.1885661631822586,"211":-0.12261107563972473,"212":-0.09351255744695663,"213":-0.056301165372133255,"214":0.19073446094989777,"215":-0.1708008050918579,"216":-0.1559646725654602,"217":-0.003235507756471634,"218":-0.015069309622049332,"219":0.058983754366636276,"220":-0.07760781049728394,"221":0.050861965864896774,"222":0.11746872216463089,"223":-0.040563177317380905,"224":-0.12518084049224854,"225":0.10939641296863556,"226":-0.049294184893369675,"227":-0.15648153424263,"228":-0.10676450282335281,"229":-0.06437592208385468,"230":0.17663009464740753,"231":-0.03423565998673439,"232":0.143136665225029,"233":0.029017183929681778,"234":0.1225617453455925,"235":-0.07232057303190231,"236":-0.18901316821575165,"237":0.2053934931755066,"238":-0.08689344674348831,"239":-0.0006991449045017362,"240":0.07622557878494263,"241":0.1891530603170395,"242":-0.12613719701766968,"243":-0.09302514046430588,"244":0.06525325030088425,"245":0.00449499161913991,"246":0.014308663085103035,"247":-0.17233119904994965,"248":-0.09690764546394348,"249":0.17258213460445404,"250":0.14472584426403046,"251":-0.11900089681148529,"252":0.02288457378745079,"253":-0.03474139794707298,"254":-0.18353676795959473,"255":-0.10713115334510803,"256":-0.19237150251865387,"257":0.10248790681362152,"258":-0.10467390716075897,"259":-0.16055352985858917,"260":-0.0018064492614939809,"261":-0.10491223633289337,"262":-0.1034061387181282,"263":-0.012959013693034649,"264":-0.002927735447883606,"265":0.20667009055614471,"266":-0.07191064953804016,"267":-0.14669185876846313,"268":-0.16329631209373474,"269":0.06500576436519623,"270":0.020209839567542076,"271":-0.13565906882286072,"272":0.17212720215320587,"273":-0.028780793771147728,"274":-0.10074971616268158,"275":0.11825204640626907,"276":0.12090758234262466,"277":0.17438611388206482,"278":0.0027991817332804203,"279":0.16953355073928833}},"6":{"bias":-0.19454678893089294,"weights":{"0":0.28973937034606934,"1":0.1736990213394165,"2":-0.20116563141345978,"3":0.1564020961523056,"4":-0.09739228338003159,"5":0.04310119152069092,"6":-0.038920436054468155,"7":-0.2423526644706726,"8":-0.2925143837928772,"9":-0.00339493271894753,"10":-0.16554531455039978,"11":0.14870695769786835,"12":0.09068305045366287,"13":0.25744709372520447,"14":0.08005458116531372,"15":0.16805331408977509,"16":0.11172368377447128,"17":0.013279544189572334,"18":0.12196002155542374,"19":0.05021079257130623,"20":0.0018357826629653573,"21":-0.18060103058815002,"22":0.10203886032104492,"23":0.13135994970798492,"24":0.22554467618465424,"25":0.09454665333032608,"26":0.036430053412914276,"27":-0.11615192145109177,"28":-0.1581227332353592,"29":-0.13108503818511963,"30":-0.04172740504145622,"31":0.1497095674276352,"32":0.06433457881212234,"33":0.14488255977630615,"34":0.12626957893371582,"35":0.17807428538799286,"36":0.05917711183428764,"37":-0.13055962324142456,"38":-0.1225946694612503,"39":-0.08485274761915207,"40":-0.12606395781040192,"41":-0.1492263227701187,"42":-0.15982888638973236,"43":-0.040807534009218216,"44":-0.005219132173806429,"45":-0.06452596932649612,"46":-0.19191937148571014,"47":0.12884198129177094,"48":0.07530996203422546,"49":-0.2889612317085266,"50":-0.14488957822322845,"51":-0.07498248666524887,"52":-0.21288013458251953,"53":-0.133566752076149,"54":0.13361988961696625,"55":-0.15311941504478455,"56":-0.05809714272618294,"57":-0.09536506235599518,"58":-0.07292970269918442,"59":-0.22536389529705048,"60":-0.05617335066199303,"61":0.1941288262605667,"62":0.031833019107580185,"63":0.201736181974411,"64":0.05610243231058121,"65":0.06431465595960617,"66":-0.0765693262219429,"67":-0.03710080310702324,"68":0.2256973534822464,"69":0.0654052123427391,"70":0.12108588963747025,"71":0.03580470010638237,"72":0.005228085909038782,"73":-0.107640340924263,"74":-0.03379448875784874,"75":-0.0698876604437828,"76":-0.010084223002195358,"77":0.0639742910861969,"78":0.10577468574047089,"79":0.14141155779361725,"80":0.1726781576871872,"81":-0.08894277364015579,"82":0.07594401389360428,"83":-0.04251391440629959,"84":0.0748121589422226,"85":0.18860404193401337,"86":0.11657682061195374,"87":0.021899892017245293,"88":0.01658768393099308,"89":0.060559410601854324,"90":-0.03933143615722656,"91":0.07622814178466797,"92":-0.26488539576530457,"93":0.028227506205439568,"94":-0.1382642537355423,"95":0.10706723481416702,"96":-0.09082195907831192,"97":0.03262709453701973,"98":-0.11350712925195694,"99":-0.16743560135364532,"100":-0.1607532799243927,"101":0.02363906241953373,"102":-0.1364746242761612,"103":0.17834466695785522,"104":-0.07903697341680527,"105":-0.06819566339254379,"106":0.14375028014183044,"107":0.0315084382891655,"108":-0.13913430273532867,"109":-0.19226349890232086,"110":-0.08448836207389832,"111":-0.005995857995003462,"112":0.020192302763462067,"113":-0.05919860675930977,"114":-0.07431555539369583,"115":-0.131968691945076,"116":0.18478147685527802,"117":-0.06517035514116287,"118":-0.21142494678497314,"119":-0.17292988300323486,"120":-0.09659405052661896,"121":-0.12661941349506378,"122":-0.06419986486434937,"123":-0.020130986347794533,"124":-0.059978947043418884,"125":-0.13188837468624115,"126":0.049748022109270096,"127":0.16366666555404663,"128":0.07754351198673248,"129":-0.08838343620300293,"130":-0.07157831639051437,"131":-0.11775624752044678,"132":-0.07432583719491959,"133":-0.0706859678030014,"134":0.09225424379110336,"135":0.0527598112821579,"136":-0.022537801414728165,"137":-0.18019022047519684,"138":-0.0788993313908577,"139":-0.022901395335793495,"140":-0.10584329813718796,"141":-0.1605609655380249,"142":0.1786929816007614,"143":0.14937818050384521,"144":0.16317802667617798,"145":0.024442460387945175,"146":-0.00793094839900732,"147":0.18301382660865784,"148":-0.03221588581800461,"149":-0.16296912729740143,"150":0.08059859275817871,"151":-0.046929191797971725,"152":0.05505162104964256,"153":-0.18083158135414124,"154":-0.04108593240380287,"155":0.01413783524185419,"156":-0.04664033651351929,"157":-0.189896821975708,"158":0.19189690053462982,"159":-0.15209713578224182,"160":0.05692831054329872,"161":0.08502137660980225,"162":0.012009981088340282,"163":-0.16543421149253845,"164":0.07678680866956711,"165":0.029437068849802017,"166":-0.11975177377462387,"167":-0.17487551271915436,"168":0.12770847976207733,"169":0.1418081820011139,"170":0.017457541078329086,"171":0.03294813632965088,"172":-0.06625678390264511,"173":0.028108788654208183,"174":0.02029271051287651,"175":-0.08592898398637772,"176":0.13879671692848206,"177":0.01199221983551979,"178":-0.023173818364739418,"179":0.06453888863325119,"180":-0.14745016396045685,"181":-0.17665082216262817,"182":0.015034111216664314,"183":0.10853493958711624,"184":-0.03592725470662117,"185":0.03691787272691727,"186":0.18201413750648499,"187":-0.20002467930316925,"188":0.1476190686225891,"189":0.044500838965177536,"190":-0.12844803929328918,"191":-0.07305363565683365,"192":-0.1974402666091919,"193":-0.06570277363061905,"194":-0.11304861307144165,"195":0.1106816753745079,"196":0.00026533566415309906,"197":0.13919800519943237,"198":0.0849621370434761,"199":0.07269421219825745,"200":0.09541730582714081,"201":0.15401692688465118,"202":0.03580582141876221,"203":-0.09773270785808563,"204":0.18568803369998932,"205":-0.16938373446464539,"206":0.033306848257780075,"207":-0.020820682868361473,"208":-0.19203172624111176,"209":-0.15658152103424072,"210":-0.1865718811750412,"211":-0.1264362782239914,"212":-0.18323835730552673,"213":-0.1553649753332138,"214":0.1251833289861679,"215":-0.18081356585025787,"216":-0.02004321478307247,"217":0.12717574834823608,"218":0.1021539568901062,"219":0.11289873719215393,"220":0.021330175921320915,"221":0.053780678659677505,"222":0.09505371749401093,"223":0.11475206166505814,"224":-0.0021949855145066977,"225":-0.013365928083658218,"226":-0.09704003483057022,"227":-0.10129454731941223,"228":-0.1108120009303093,"229":-0.06112771853804588,"230":0.17093145847320557,"231":-0.024837281554937363,"232":0.0875680148601532,"233":-0.1332593411207199,"234":0.18129898607730865,"235":0.07030786573886871,"236":-0.10723048448562622,"237":-0.027002498507499695,"238":0.07599794119596481,"239":-0.06321121007204056,"240":-0.18269191682338715,"241":0.1382802277803421,"242":0.038652658462524414,"243":-0.06915343552827835,"244":-0.07023406773805618,"245":-0.10020458698272705,"246":-0.1431608498096466,"247":0.14986355602741241,"248":-0.11904896795749664,"249":-0.14497056603431702,"250":0.117943674325943,"251":-0.07585854828357697,"252":0.03371504694223404,"253":0.030280819162726402,"254":0.15537028014659882,"255":0.0707038938999176,"256":-0.01817910000681877,"257":-0.0213382076472044,"258":-0.19694013893604279,"259":0.003613658482208848,"260":0.032361116260290146,"261":0.11833668500185013,"262":-0.11628252267837524,"263":0.11798398196697235,"264":-0.17856784164905548,"265":0.19323641061782837,"266":0.18701529502868652,"267":0.03287612646818161,"268":0.17767956852912903,"269":0.00892376247793436,"270":-0.10292370617389679,"271":0.16808763146400452,"272":-0.07641766965389252,"273":-0.10351334512233734,"274":-0.13029588758945465,"275":0.17279648780822754,"276":0.07983067631721497,"277":0.13180683553218842,"278":0.15688665211200714,"279":-0.10287648439407349}},"7":{"bias":0.1775750070810318,"weights":{"0":-0.19333882629871368,"1":0.10692667216062546,"2":-0.09602513909339905,"3":-0.04101075232028961,"4":0.19938327372074127,"5":-0.07893315702676773,"6":-0.155684232711792,"7":0.16124090552330017,"8":0.17928439378738403,"9":-0.22647790610790253,"10":-0.07685311138629913,"11":-0.21381346881389618,"12":-0.17258398234844208,"13":-0.30098438262939453,"14":-0.14992520213127136,"15":-0.18923690915107727,"16":-0.041324302554130554,"17":0.26593104004859924,"18":-0.09764934331178665,"19":0.046861689537763596,"20":-0.2471495419740677,"21":0.11642730981111526,"22":0.038137245923280716,"23":0.022202881053090096,"24":0.044770460575819016,"25":-0.09409333765506744,"26":0.07088927924633026,"27":0.15683576464653015,"28":0.24858631193637848,"29":0.022841421887278557,"30":-0.24977916479110718,"31":-0.09739769995212555,"32":0.08829434216022491,"33":-0.0502539798617363,"34":0.038629449903964996,"35":-0.04563864320516586,"36":0.008587833493947983,"37":0.14093327522277832,"38":0.09671507775783539,"39":-0.06732594221830368,"40":-0.12049339711666107,"41":0.12095517665147781,"42":0.2737375497817993,"43":-0.049364205449819565,"44":-0.1490461528301239,"45":-0.14770983159542084,"46":0.031086310744285583,"47":-0.08174339681863785,"48":0.22554363310337067,"49":0.3108324110507965,"50":-0.06542179733514786,"51":-0.01685323938727379,"52":0.05641980096697807,"53":0.05370042473077774,"54":-0.06429092586040497,"55":0.05780604109168053,"56":-0.17727719247341156,"57":-0.15929098427295685,"58":0.09830644726753235,"59":0.3010643720626831,"60":-0.266872376203537,"61":-0.013545877300202847,"62":0.07479362189769745,"63":-0.2523956000804901,"64":0.10744970291852951,"65":0.015206537209451199,"66":0.12248392403125763,"67":0.08802714943885803,"68":0.0035306294448673725,"69":-0.002232658676803112,"70":0.1056821271777153,"71":0.14671491086483002,"72":0.15517303347587585,"73":0.07245021313428879,"74":0.1713557094335556,"75":-0.005840332712978125,"76":-0.22670508921146393,"77":-0.11454931646585464,"78":-0.13020402193069458,"79":-0.1357390135526657,"80":0.15100955963134766,"81":-0.21637380123138428,"82":0.022329147905111313,"83":0.2620365023612976,"84":-0.15701532363891602,"85":0.17188116908073425,"86":-0.06266795843839645,"87":-0.011989708989858627,"88":0.06982945650815964,"89":-0.08438941091299057,"90":-0.02318406105041504,"91":-0.0574839748442173,"92":0.20479252934455872,"93":0.046067044138908386,"94":0.2810271084308624,"95":0.14455103874206543,"96":-0.10549440234899521,"97":-0.06451476365327835,"98":0.11394626647233963,"99":0.06765172630548477,"100":0.08667400479316711,"101":0.1688046008348465,"102":0.0018495196709409356,"103":-0.2276654690504074,"104":-0.050748806446790695,"105":-0.09366962313652039,"106":-0.19282874464988708,"107":-0.002038003411144018,"108":0.15202337503433228,"109":0.020048202946782112,"110":-0.031045934185385704,"111":0.029339229688048363,"112":-0.17460577189922333,"113":0.05534816533327103,"114":-0.012427641078829765,"115":-0.1593877226114273,"116":0.00019942423386964947,"117":0.19297315180301666,"118":0.052934303879737854,"119":0.0872839093208313,"120":-0.05634278431534767,"121":-0.04688723012804985,"122":-0.16197533905506134,"123":-0.022033585235476494,"124":-0.15027128159999847,"125":0.1299613118171692,"126":-0.08481407910585403,"127":-0.10519791394472122,"128":-0.1350274235010147,"129":-0.19908975064754486,"130":-0.09932760149240494,"131":-0.00753982737660408,"132":-0.02639918029308319,"133":-0.10230238735675812,"134":0.19453060626983643,"135":-0.06890461593866348,"136":0.13252072036266327,"137":-0.006046388763934374,"138":-0.14545218646526337,"139":-0.034516628831624985,"140":-0.09610070288181305,"141":-0.10079563409090042,"142":0.05750645697116852,"143":0.09026303142309189,"144":-0.09843500703573227,"145":-0.13757485151290894,"146":-0.07709632068872452,"147":0.02888615056872368,"148":-0.07563572376966476,"149":0.03917158767580986,"150":-0.1563708633184433,"151":0.013423128984868526,"152":0.08236029744148254,"153":-0.11523383110761642,"154":-0.17636574804782867,"155":0.19737659394741058,"156":0.16581566631793976,"157":-0.0059755705296993256,"158":0.08609464764595032,"159":0.13951390981674194,"160":0.04184228554368019,"161":0.12526893615722656,"162":-0.1668507605791092,"163":0.04740074276924133,"164":-0.07725857943296432,"165":-0.17786958813667297,"166":0.023993080481886864,"167":-0.0022759740240871906,"168":-0.1843487024307251,"169":-0.03001164272427559,"170":0.09774953126907349,"171":-0.10614665597677231,"172":0.03148415684700012,"173":-0.16930602490901947,"174":-0.1682523638010025,"175":-0.009019214659929276,"176":-0.05566350743174553,"177":-0.1366022825241089,"178":-0.14707155525684357,"179":0.06179399415850639,"180":0.09876110404729843,"181":0.16205132007598877,"182":0.012004329822957516,"183":0.16793762147426605,"184":0.10896430164575577,"185":-0.11988957226276398,"186":-0.05077976733446121,"187":0.034262482076883316,"188":-0.1332152634859085,"189":0.15610231459140778,"190":0.07210559397935867,"191":-0.08613388985395432,"192":0.008092996664345264,"193":-0.03668060153722763,"194":0.16500914096832275,"195":0.12978368997573853,"196":-0.18048959970474243,"197":-0.02782297693192959,"198":-0.04498517885804176,"199":-0.025787387043237686,"200":0.10196037590503693,"201":-0.18618634343147278,"202":0.12061938643455505,"203":0.10642297565937042,"204":-0.11749210953712463,"205":0.03589396923780441,"206":-0.0624513253569603,"207":-0.17275412380695343,"208":0.1288311630487442,"209":0.05996803194284439,"210":-0.18268799781799316,"211":0.1552962213754654,"212":-0.10963977128267288,"213":0.11212465912103653,"214":-0.07881278544664383,"215":-0.002612469485029578,"216":-0.010299856774508953,"217":-0.1790408343076706,"218":-0.17882642149925232,"219":-0.017702482640743256,"220":-0.04856507480144501,"221":-0.04446345940232277,"222":-0.08130522072315216,"223":-0.16022558510303497,"224":0.09577728807926178,"225":0.015423348173499107,"226":-0.09788487106561661,"227":0.14188142120838165,"228":-0.0014578509144484997,"229":-0.08163569867610931,"230":-0.17994052171707153,"231":-0.09524519741535187,"232":-0.14576083421707153,"233":-0.10048385709524155,"234":0.019416294991970062,"235":-0.06200282275676727,"236":0.18405331671237946,"237":-0.10926394909620285,"238":0.061694420874118805,"239":-0.16261525452136993,"240":-0.16981467604637146,"241":-0.1029830127954483,"242":0.0952455997467041,"243":-0.18004363775253296,"244":0.01416955329477787,"245":0.15265792608261108,"246":-0.05608280375599861,"247":0.061232972890138626,"248":-0.10298775881528854,"249":-0.12764976918697357,"250":0.06937132775783539,"251":0.010310188867151737,"252":0.10122475773096085,"253":-0.08348260819911957,"254":0.11584566533565521,"255":-0.18402184545993805,"256":-0.15973371267318726,"257":0.06019602343440056,"258":0.1083705872297287,"259":-0.12352529913187027,"260":0.14085696637630463,"261":0.16080830991268158,"262":-0.07742352783679962,"263":0.09586980193853378,"264":0.1489982008934021,"265":-0.10613547265529633,"266":-0.01886247843503952,"267":0.06685449182987213,"268":-0.10957770049571991,"269":0.07347729802131653,"270":-0.16084913909435272,"271":-0.06647885590791702,"272":-0.16769051551818848,"273":0.11522984504699707,"274":0.14097793400287628,"275":0.0849282294511795,"276":-0.09203431010246277,"277":-0.10200247168540955,"278":0.0761093720793724,"279":0.19035610556602478}},"8":{"bias":-0.06973275542259216,"weights":{"0":-0.18643110990524292,"1":0.07505888491868973,"2":-0.009548895061016083,"3":0.06554753333330154,"4":-0.13705073297023773,"5":0.027299586683511734,"6":0.012642528861761093,"7":0.1653907746076584,"8":0.005221182014793158,"9":0.19445684552192688,"10":0.1257331669330597,"11":0.1236652061343193,"12":-0.05068023502826691,"13":0.0319761224091053,"14":0.0660855695605278,"15":-0.04601716250181198,"16":0.08930012583732605,"17":0.150575652718544,"18":-0.12261999398469925,"19":0.08392779529094696,"20":-0.12927496433258057,"21":0.05318243429064751,"22":0.05643048882484436,"23":-0.006814595311880112,"24":0.1882077008485794,"25":-0.10837507992982864,"26":-0.02287709154188633,"27":-0.06633180379867554,"28":0.09207428991794586,"29":0.06583748757839203,"30":-0.0420110858976841,"31":-0.041346754878759384,"32":0.14917398989200592,"33":-0.19951635599136353,"34":-0.12223444879055023,"35":0.15187476575374603,"36":0.15187856554985046,"37":-0.0025136531330645084,"38":0.12952518463134766,"39":-0.05162977799773216,"40":-0.12969982624053955,"41":0.1301673948764801,"42":-0.06560930609703064,"43":0.15136480331420898,"44":-0.18605151772499084,"45":0.06979228556156158,"46":-0.18083584308624268,"47":-0.1830005794763565,"48":-0.16690590977668762,"49":-0.12028679996728897,"50":0.022738508880138397,"51":0.0910288542509079,"52":0.030759796500205994,"53":0.13983072340488434,"54":0.17568783462047577,"55":0.02285858802497387,"56":-0.06761349737644196,"57":0.17256391048431396,"58":0.14860495924949646,"59":-0.1423405110836029,"60":-0.17181669175624847,"61":-0.08017490804195404,"62":-0.05048670992255211,"63":-0.17677900195121765,"64":0.17231282591819763,"65":-0.13417255878448486,"66":0.009968170896172523,"67":-0.03524026647210121,"68":-0.14692683517932892,"69":-0.18044303357601166,"70":0.07724779844284058,"71":-0.20764586329460144,"72":-0.0019416583236306906,"73":-0.008214353583753109,"74":-0.03319084271788597,"75":0.12407998740673065,"76":-0.18091969192028046,"77":0.004651152063161135,"78":0.07679842412471771,"79":0.17902198433876038,"80":0.0883132666349411,"81":0.0003411564393900335,"82":-0.18793392181396484,"83":-0.12520645558834076,"84":-0.03176761046051979,"85":0.13041767477989197,"86":-0.2029188871383667,"87":-0.0355076864361763,"88":0.08088429272174835,"89":0.0732259526848793,"90":-0.02782210148870945,"91":0.0925687924027443,"92":0.01233619637787342,"93":0.1603548675775528,"94":-0.07385636121034622,"95":0.15609489381313324,"96":0.004574228078126907,"97":0.03862743824720383,"98":-0.07056713104248047,"99":-0.1350119560956955,"100":0.03514626622200012,"101":0.12216978520154953,"102":-0.10857975482940674,"103":0.17492614686489105,"104":0.0384836308658123,"105":-0.19592086970806122,"106":0.1959863156080246,"107":0.07780425995588303,"108":-0.18679621815681458,"109":-0.12353985011577606,"110":0.09268578886985779,"111":-0.13594821095466614,"112":0.012357249855995178,"113":0.17376576364040375,"114":-0.12493111193180084,"115":0.009228196926414967,"116":-0.019436750560998917,"117":0.1429368257522583,"118":-0.1719084084033966,"119":0.1599244475364685,"120":0.1304236203432083,"121":-0.14456604421138763,"122":0.13756166398525238,"123":0.06003705412149429,"124":-0.16237084567546844,"125":0.16423988342285156,"126":-0.041211627423763275,"127":0.023266464471817017,"128":-0.08553411066532135,"129":0.04545976594090462,"130":0.12095052003860474,"131":-0.07691357284784317,"132":-0.11940735578536987,"133":0.11034491658210754,"134":0.02909090369939804,"135":0.08419996500015259,"136":-0.1044713482260704,"137":-0.16541610658168793,"138":-0.15264347195625305,"139":-0.09918108582496643,"140":-0.14151853322982788,"141":-0.027017947286367416,"142":-0.1861787587404251,"143":-0.12138873338699341,"144":-0.05711638182401657,"145":0.06427521258592606,"146":-0.19740715622901917,"147":-0.16369718313217163,"148":-0.1146778017282486,"149":0.10212473571300507,"150":-0.17156851291656494,"151":-0.12354631721973419,"152":-0.02906576357781887,"153":-0.2042076736688614,"154":-0.08640541136264801,"155":0.03501832112669945,"156":0.07976643741130829,"157":0.028550801798701286,"158":-0.17834235727787018,"159":-0.027110222727060318,"160":-0.1353910118341446,"161":0.15423575043678284,"162":-0.11802678555250168,"163":-0.08985545486211777,"164":0.02981829084455967,"165":-0.09456560015678406,"166":0.08590056747198105,"167":-0.0935581848025322,"168":0.17534077167510986,"169":-0.049377232789993286,"170":0.024738047271966934,"171":0.01933254487812519,"172":-0.0823574885725975,"173":-0.1743771880865097,"174":-0.08539633452892303,"175":-0.0026036626659333706,"176":-0.010524336248636246,"177":0.17877686023712158,"178":-0.06344772130250931,"179":0.11580339074134827,"180":0.10940747708082199,"181":-0.06649079918861389,"182":-0.20416899025440216,"183":0.08892721682786942,"184":0.08761157840490341,"185":-0.11230877786874771,"186":-0.00900077261030674,"187":-0.17794866859912872,"188":0.07869528979063034,"189":-0.044987138360738754,"190":-0.027325578033924103,"191":-0.2028939425945282,"192":0.1174178496003151,"193":-0.051472604274749756,"194":-0.007525668013840914,"195":0.17745186388492584,"196":-0.05773013085126877,"197":0.14826959371566772,"198":-0.1651836782693863,"199":-0.1395198255777359,"200":-0.03455537185072899,"201":-0.18790851533412933,"202":-0.06194501742720604,"203":0.11103175580501556,"204":0.04020565003156662,"205":-0.11209781467914581,"206":0.04227570444345474,"207":0.004340705927461386,"208":-0.1908450871706009,"209":0.07731801271438599,"210":0.1719653457403183,"211":0.018386518582701683,"212":0.10760687291622162,"213":-0.1553829312324524,"214":0.006537206005305052,"215":-0.16389121115207672,"216":-0.16007308661937714,"217":0.02047419734299183,"218":-0.09626675397157669,"219":-0.09574615955352783,"220":0.17415201663970947,"221":-0.06624389439821243,"222":-0.07773943245410919,"223":0.05032173544168472,"224":-0.12464243173599243,"225":-0.04837376996874809,"226":0.18971100449562073,"227":-0.03226350620388985,"228":-0.07172924280166626,"229":0.1486901044845581,"230":-0.012394596822559834,"231":0.19036535918712616,"232":-0.12320128828287125,"233":0.02637503296136856,"234":0.07936139404773712,"235":0.05568099394440651,"236":-0.1957336664199829,"237":0.010994973592460155,"238":-0.14557407796382904,"239":0.10060045123100281,"240":-0.06840506941080093,"241":0.05297449976205826,"242":-0.0026426236145198345,"243":0.0418204627931118,"244":-0.17075304687023163,"245":0.08929816633462906,"246":0.022012267261743546,"247":0.19247199594974518,"248":0.057721637189388275,"249":0.09151582419872284,"250":0.020100735127925873,"251":-0.17262063920497894,"252":-0.009352581575512886,"253":0.11125944554805756,"254":0.1832306832075119,"255":0.07000692188739777,"256":0.14445605874061584,"257":0.050077036023139954,"258":-0.1418685019016266,"259":0.04943350329995155,"260":0.006501617841422558,"261":-0.0733834058046341,"262":0.15562528371810913,"263":-0.18845833837985992,"264":-0.06068938970565796,"265":0.13951344788074493,"266":0.08846642076969147,"267":-0.10556916892528534,"268":0.011298442259430885,"269":-0.1587163358926773,"270":-0.09688807278871536,"271":-0.08778366446495056,"272":0.023732807487249374,"273":-0.2033524364233017,"274":0.1445634812116623,"275":0.10255070775747299,"276":-0.07202904671430588,"277":0.1787923276424408,"278":-0.07609658688306808,"279":0.18338793516159058}},"9":{"bias":-0.23074646294116974,"weights":{"0":0.04592321440577507,"1":-0.08040238171815872,"2":0.07039709389209747,"3":-0.18618570268154144,"4":0.16618387401103973,"5":-0.1703198105096817,"6":-0.12069815397262573,"7":0.1776985377073288,"8":0.19087155163288116,"9":-0.2007552534341812,"10":-0.10792288929224014,"11":0.007653245702385902,"12":-0.05007009580731392,"13":-0.3096392750740051,"14":-0.10159288346767426,"15":-0.3404906690120697,"16":0.014567265287041664,"17":-0.027555691078305244,"18":-0.0037317571695894003,"19":0.11942526698112488,"20":-0.1193167045712471,"21":-0.16549302637577057,"22":0.03124791756272316,"23":-0.15358231961727142,"24":-0.08707655966281891,"25":0.11710643023252487,"26":-0.22242684662342072,"27":0.09944060444831848,"28":0.0852026641368866,"29":-0.0897904559969902,"30":-0.1024424135684967,"31":-0.12378332763910294,"32":0.09689730405807495,"33":0.12358352541923523,"34":0.007284990977495909,"35":0.1334446519613266,"36":-0.0018797036027535796,"37":-0.09567107260227203,"38":0.12652450799942017,"39":0.10723479837179184,"40":0.0354628786444664,"41":0.13160040974617004,"42":0.14700600504875183,"43":-0.1681448370218277,"44":-0.08714818954467773,"45":0.028187619522213936,"46":0.16254641115665436,"47":0.04658357426524162,"48":0.12314337491989136,"49":0.2333110123872757,"50":0.09153049439191818,"51":0.12019753456115723,"52":-0.07276807725429535,"53":0.12018533796072006,"54":-0.10096414387226105,"55":0.17601947486400604,"56":0.1772724837064743,"57":-0.08546581119298935,"58":-0.11683841049671173,"59":0.2588220238685608,"60":-0.08629174530506134,"61":0.10409396141767502,"62":-0.046188678592443466,"63":-0.16571946442127228,"64":0.017961613833904266,"65":0.1567225158214569,"66":-0.19171886146068573,"67":0.17774106562137604,"68":-0.04309239238500595,"69":-0.08468681573867798,"70":0.03449414670467377,"71":0.04233584553003311,"72":0.05470666661858559,"73":-0.0008298167958855629,"74":0.026717472821474075,"75":-0.10378028452396393,"76":-0.11160576343536377,"77":0.007034345529973507,"78":-0.11142940819263458,"79":-0.010428052395582199,"80":-0.1726699322462082,"81":0.049878787249326706,"82":-0.032788779586553574,"83":0.026392986997961998,"84":-0.23043294250965118,"85":-0.0913357138633728,"86":0.112989641726017,"87":-0.20205767452716827,"88":-0.13296544551849365,"89":0.07753390818834305,"90":-0.1851101815700531,"91":0.1141689196228981,"92":-0.07477645576000214,"93":0.04883640259504318,"94":0.25637373328208923,"95":-0.1915113627910614,"96":0.09430482238531113,"97":-0.1367356777191162,"98":0.11747168004512787,"99":0.18505288660526276,"100":-0.13564430177211761,"101":-0.1440872848033905,"102":0.1154894009232521,"103":-0.050964824855327606,"104":0.11700722575187683,"105":0.06102143973112106,"106":0.14729641377925873,"107":0.18376687169075012,"108":-0.19195950031280518,"109":-0.05042576417326927,"110":-0.006761984433978796,"111":0.11338724195957184,"112":0.03264899551868439,"113":0.049958501011133194,"114":-0.10839632898569107,"115":-0.059960830956697464,"116":0.1341235339641571,"117":-0.08220640569925308,"118":-0.013946397230029106,"119":-0.08324066549539566,"120":-0.20550161600112915,"121":-0.17024511098861694,"122":-0.16342207789421082,"123":0.12643380463123322,"124":0.16276642680168152,"125":-0.21896585822105408,"126":0.08243436366319656,"127":0.11395904421806335,"128":-0.001300279749557376,"129":-0.016866590827703476,"130":-0.1953614205121994,"131":0.04283115267753601,"132":-0.13836313784122467,"133":-0.003442005719989538,"134":0.17407791316509247,"135":-0.1483277827501297,"136":-0.01881321705877781,"137":-0.017660783603787422,"138":0.006470572203397751,"139":-0.05228135362267494,"140":-0.07424558699131012,"141":-0.05466977134346962,"142":0.06986744701862335,"143":0.1351851224899292,"144":0.18453361093997955,"145":0.055934157222509384,"146":0.06606944650411606,"147":0.16276121139526367,"148":-0.17614887654781342,"149":-0.17542056739330292,"150":-0.0276285819709301,"151":-0.05959739908576012,"152":0.03075430542230606,"153":0.1034955084323883,"154":-0.14782258868217468,"155":0.10154443979263306,"156":-0.15125682950019836,"157":0.12022898346185684,"158":-0.09993430227041245,"159":0.12838779389858246,"160":0.15585215389728546,"161":-0.0501466728746891,"162":-0.11723967641592026,"163":0.13661006093025208,"164":0.11821972578763962,"165":-0.08801543712615967,"166":-0.09817390888929367,"167":-0.02565733529627323,"168":-0.12639319896697998,"169":-0.20539873838424683,"170":-0.1689329594373703,"171":0.16425958275794983,"172":0.06977531313896179,"173":-0.04427385702729225,"174":0.11210590600967407,"175":-0.0002758906048256904,"176":0.10500229150056839,"177":-0.08882970362901688,"178":0.025657234713435173,"179":0.10349322110414505,"180":-0.04734425991773605,"181":0.018446892499923706,"182":0.0030464171431958675,"183":0.07080572843551636,"184":0.16911162436008453,"185":0.02025914378464222,"186":-0.0871700644493103,"187":-0.104830801486969,"188":0.1656532734632492,"189":-0.08920774608850479,"190":-0.07469501346349716,"191":-0.055586088448762894,"192":0.17411011457443237,"193":0.05645236372947693,"194":0.0026492620818316936,"195":0.1645258367061615,"196":0.1869586706161499,"197":0.08192872256040573,"198":-0.05373383313417435,"199":0.11371041089296341,"200":0.18739120662212372,"201":0.14141754806041718,"202":0.03325731307268143,"203":-0.019442664459347725,"204":-0.04299706220626831,"205":0.17117586731910706,"206":-0.13612213730812073,"207":0.15382735431194305,"208":-0.050411492586135864,"209":-0.03249432519078255,"210":0.18392696976661682,"211":0.10753023624420166,"212":0.1895207315683365,"213":-0.044232651591300964,"214":-0.019238103181123734,"215":0.09380091726779938,"216":-0.017524518072605133,"217":-0.01182058360427618,"218":-0.07924807071685791,"219":-0.14988656342029572,"220":-0.1988915354013443,"221":-0.11665242910385132,"222":0.024809498339891434,"223":0.129738450050354,"224":-0.019835758954286575,"225":-0.16001740097999573,"226":0.12862080335617065,"227":0.15559956431388855,"228":0.018928905948996544,"229":0.059527236968278885,"230":-0.04433169588446617,"231":0.12296919524669647,"232":-0.12159144133329391,"233":0.13909079134464264,"234":0.009244542568922043,"235":0.11356848478317261,"236":-0.0331975482404232,"237":0.1424640417098999,"238":-0.13958345353603363,"239":0.09116169810295105,"240":-0.06821940094232559,"241":-0.0468435175716877,"242":0.007072650361806154,"243":0.08910219371318817,"244":-0.0032697422429919243,"245":0.1434098184108734,"246":-0.07575143873691559,"247":-0.022031059488654137,"248":0.0012527992948889732,"249":-0.13871417939662933,"250":0.1624365895986557,"251":-0.07527686655521393,"252":-0.030750656500458717,"253":-0.013074813410639763,"254":0.11362003535032272,"255":0.06240638345479965,"256":-0.12375729531049728,"257":0.1898999959230423,"258":-0.10773420333862305,"259":0.15719881653785706,"260":0.13140073418617249,"261":0.16313351690769196,"262":0.0879448726773262,"263":-0.08866304159164429,"264":-0.047557055950164795,"265":-0.07022997736930847,"266":-0.18920734524726868,"267":-0.07215718924999237,"268":0.14627207815647125,"269":0.15493875741958618,"270":0.18260160088539124,"271":0.06795743852853775,"272":0.07292866706848145,"273":0.14832153916358948,"274":-0.2025938332080841,"275":0.1356218010187149,"276":0.061908748000860214,"277":-0.13938306272029877,"278":-0.1430346667766571,"279":-0.08530671894550323}},"10":{"bias":-0.029194749891757965,"weights":{"0":0.1390637755393982,"1":-0.1749846339225769,"2":-0.10954799503087997,"3":0.3943096101284027,"4":-0.20915932953357697,"5":0.3442767560482025,"6":0.0671759620308876,"7":-0.04646153748035431,"8":-0.4714227020740509,"9":0.43295392394065857,"10":0.05877534672617912,"11":0.5167948603630066,"12":-0.20017722249031067,"13":0.15186072885990143,"14":-0.26455771923065186,"15":0.7938497066497803,"16":-0.06108003109693527,"17":-0.44817617535591125,"18":0.05553159862756729,"19":0.018510233610868454,"20":0.11564649641513824,"21":-0.1660078763961792,"22":0.17597119510173798,"23":0.15124502778053284,"24":0.08319699019193649,"25":-0.032432783395051956,"26":-0.10704982280731201,"27":-0.7174032330513,"28":-0.4807976186275482,"29":-0.050641339272260666,"30":0.27583593130111694,"31":0.18131369352340698,"32":-0.08149686455726624,"33":0.04371035471558571,"34":0.08292362838983536,"35":0.09594742953777313,"36":0.048366058617830276,"37":-0.06705687195062637,"38":-0.11062205582857132,"39":-0.1774827390909195,"40":-0.23673084378242493,"41":-0.10539809614419937,"42":-0.08635413646697998,"43":-0.034315068274736404,"44":-0.13035306334495544,"45":-0.019015688449144363,"46":-0.10813974589109421,"47":-0.07406690716743469,"48":-0.0049899062141776085,"49":-0.09000839293003082,"50":0.025119615718722343,"51":-0.14529603719711304,"52":-0.11635805666446686,"53":-0.3991013467311859,"54":-0.09166483581066132,"55":0.06784474104642868,"56":-0.00004982571772416122,"57":0.02061000093817711,"58":0.14187613129615784,"59":-0.3596843481063843,"60":0.05277261137962341,"61":0.01949366368353367,"62":0.1730685532093048,"63":0.020029909908771515,"64":-0.30360427498817444,"65":-0.04667537286877632,"66":-0.08716859668493271,"67":-0.2065477818250656,"68":0.016631295904517174,"69":-0.03327758237719536,"70":0.16898228228092194,"71":-0.13490746915340424,"72":-0.27296462655067444,"73":0.05530862137675285,"74":0.005843219347298145,"75":-0.11608604341745377,"76":-0.0802847146987915,"77":0.2519982159137726,"78":0.09395627677440643,"79":-0.10881618410348892,"80":-0.13881976902484894,"81":-0.023420270532369614,"82":0.0343342088162899,"83":-0.3243623375892639,"84":-0.0388268306851387,"85":-0.22045277059078217,"86":0.016456009820103645,"87":-0.015144177712500095,"88":0.006396959535777569,"89":-0.20853649079799652,"90":0.13045236468315125,"91":-0.0018145573558285832,"92":-0.13529622554779053,"93":0.07536369562149048,"94":-0.3899487555027008,"95":-0.1556406170129776,"96":0.015905629843473434,"97":-0.050815094262361526,"98":0.09845863282680511,"99":0.009369618259370327,"100":-0.11825249344110489,"101":-0.02555265463888645,"102":0.07146701216697693,"103":0.12499538064002991,"104":0.09741426259279251,"105":-0.07074625045061111,"106":0.15015935897827148,"107":-0.14169810712337494,"108":0.14117160439491272,"109":0.1035156399011612,"110":0.13103856146335602,"111":-0.08703074604272842,"112":-0.21502771973609924,"113":0.16599614918231964,"114":-0.04309481382369995,"115":-0.04534156247973442,"116":0.12027661502361298,"117":0.12170269340276718,"118":0.12624947726726532,"119":0.14715085923671722,"120":0.04021739214658737,"121":0.1239011362195015,"122":-0.16657738387584686,"123":-0.15026068687438965,"124":-0.0273274015635252,"125":-0.018298286944627762,"126":-0.06219538301229477,"127":0.04868380352854729,"128":0.048605334013700485,"129":0.126546248793602,"130":-0.01574833132326603,"131":0.21006649732589722,"132":0.04954751208424568,"133":0.15819421410560608,"134":-0.1482498198747635,"135":0.14638854563236237,"136":-0.16617009043693542,"137":-0.02908376231789589,"138":-0.13077323138713837,"139":-0.0907488763332367,"140":0.12527045607566833,"141":-0.10412723571062088,"142":-0.10529641807079315,"143":-0.16295726597309113,"144":-0.14183665812015533,"145":0.1534980833530426,"146":-0.04778140410780907,"147":-0.18394696712493896,"148":-0.059904903173446655,"149":-0.16673557460308075,"150":-0.0212619137018919,"151":-0.015639016404747963,"152":0.013407731428742409,"153":-0.04293041303753853,"154":-0.11775818467140198,"155":0.05864982679486275,"156":0.10539243370294571,"157":-0.13715149462223053,"158":-0.13513591885566711,"159":-0.14924468100070953,"160":0.0070848045870661736,"161":-0.07013463973999023,"162":-0.04378332942724228,"163":0.16613325476646423,"164":0.04903602600097656,"165":0.17269223928451538,"166":-0.042939286679029465,"167":-0.16094957292079926,"168":0.11331900209188461,"169":0.11351064592599869,"170":0.1285228729248047,"171":0.07851766794919968,"172":0.11876951158046722,"173":0.14649370312690735,"174":0.044912032783031464,"175":0.002689064247533679,"176":-0.046119071543216705,"177":0.14677457511425018,"178":0.13411365449428558,"179":-0.1849658340215683,"180":-0.20280872285366058,"181":-0.18260221183300018,"182":-0.1327260136604309,"183":0.03927481174468994,"184":-0.12556235492229462,"185":-0.08325419574975967,"186":0.1489599049091339,"187":0.06372776627540588,"188":-0.07523204386234283,"189":-0.18091602623462677,"190":0.06258759647607803,"191":-0.12754939496517181,"192":0.1826755255460739,"193":-0.07192832976579666,"194":0.032740794122219086,"195":-0.023052582517266273,"196":0.18161708116531372,"197":-0.031105849891901016,"198":-0.006356371100991964,"199":-0.029908712953329086,"200":0.1847304403781891,"201":-0.11564594507217407,"202":0.08334586769342422,"203":0.16746117174625397,"204":-0.2042427361011505,"205":0.1362035721540451,"206":0.05173581466078758,"207":-0.06615830957889557,"208":-0.19264540076255798,"209":-0.06627393513917923,"210":-0.029149696230888367,"211":0.03820192813873291,"212":0.08745366334915161,"213":-0.1331702321767807,"214":-0.04087122157216072,"215":0.0739559605717659,"216":0.07668163627386093,"217":-0.11867569386959076,"218":0.06445127725601196,"219":-0.0041168807074427605,"220":0.04072721302509308,"221":0.07213400304317474,"222":-0.03814782574772835,"223":-0.21468764543533325,"224":-0.008525393903255463,"225":-0.07640203088521957,"226":0.1709226667881012,"227":0.1284908503293991,"228":-0.05075248330831528,"229":0.11674026399850845,"230":-0.11204146593809128,"231":0.007272862829267979,"232":-0.1787601113319397,"233":-0.1231645718216896,"234":-0.14169058203697205,"235":-0.06295158714056015,"236":-0.10153574496507645,"237":0.03218477591872215,"238":0.04489423707127571,"239":-0.14466771483421326,"240":0.10512702167034149,"241":0.09894849359989166,"242":-0.0885290876030922,"243":-0.09470806270837784,"244":-0.027961622923612595,"245":0.08120034635066986,"246":0.1075921580195427,"247":0.1114286556839943,"248":0.10744637995958328,"249":-0.028065666556358337,"250":-0.13616420328617096,"251":0.008328309282660484,"252":0.13178317248821259,"253":0.055577050894498825,"254":-0.14075487852096558,"255":-0.1930016726255417,"256":-0.17020300030708313,"257":0.17493195831775665,"258":-0.07516445219516754,"259":-0.08773869276046753,"260":-0.17005829513072968,"261":-0.028099671006202698,"262":0.016113504767417908,"263":0.016525685787200928,"264":0.09702085703611374,"265":0.14198578894138336,"266":-0.10180947929620743,"267":0.11538492143154144,"268":-0.03648826852440834,"269":-0.007491315249353647,"270":0.06486913561820984,"271":-0.17038148641586304,"272":-0.01819360814988613,"273":-0.20857584476470947,"274":-0.10531452298164368,"275":0.044198792427778244,"276":-0.03961578384041786,"277":-0.032827068120241165,"278":-0.10810916870832443,"279":0.004002568311989307}},"11":{"bias":0.02339792251586914,"weights":{"0":-0.22956565022468567,"1":0.12616589665412903,"2":0.1484222114086151,"3":-0.1261996030807495,"4":-0.04084467515349388,"5":0.04611949250102043,"6":-0.016718236729502678,"7":0.024198075756430626,"8":0.043912578374147415,"9":-0.019647769629955292,"10":-0.027934513986110687,"11":-0.20979416370391846,"12":-0.11690611392259598,"13":-0.2657260596752167,"14":0.06888585537672043,"15":-0.15074990689754486,"16":0.11906547099351883,"17":-0.022056985646486282,"18":-0.18639560043811798,"19":-0.05551842972636223,"20":0.0975169837474823,"21":0.14252294600009918,"22":0.04485093057155609,"23":-0.1446189284324646,"24":-0.0006279780645854771,"25":0.029123613610863686,"26":-0.02967914380133152,"27":-0.09653332829475403,"28":-0.17617394030094147,"29":-0.09455955028533936,"30":0.057761579751968384,"31":-0.1828533113002777,"32":-0.13505280017852783,"33":0.09944070875644684,"34":-0.1578650027513504,"35":-0.17313966155052185,"36":0.11141151934862137,"37":-0.09240315854549408,"38":-0.020585110411047935,"39":-0.10384644567966461,"40":-0.016222475096583366,"41":-0.01604781486093998,"42":0.11429567635059357,"43":0.13682253658771515,"44":-0.07783828675746918,"45":-0.08338765799999237,"46":0.12633271515369415,"47":-0.06916982680559158,"48":0.14677481353282928,"49":-0.1449877768754959,"50":0.08922592550516129,"51":0.08487909287214279,"52":-0.03910756856203079,"53":-0.0969787985086441,"54":0.10835644602775574,"55":0.1970362663269043,"56":-0.09313157200813293,"57":0.15620163083076477,"58":0.18161894381046295,"59":-0.13675156235694885,"60":0.11661258339881897,"61":-0.08502644300460815,"62":-0.12459299713373184,"63":-0.13495950400829315,"64":-0.03673529624938965,"65":0.12954562902450562,"66":0.1795416623353958,"67":0.11384424567222595,"68":0.050039105117321014,"69":0.17417773604393005,"70":0.028857721015810966,"71":-0.014134223572909832,"72":0.012108304537832737,"73":0.14383375644683838,"74":0.09845390170812607,"75":-0.06048562005162239,"76":-0.13596665859222412,"77":-0.1916540414094925,"78":0.13057802617549896,"79":0.17270496487617493,"80":0.012593506835401058,"81":-0.1838451623916626,"82":-0.20610252022743225,"83":-0.010383160784840584,"84":-0.02112404629588127,"85":0.019866567105054855,"86":-0.15719890594482422,"87":0.173634871840477,"88":0.14056123793125153,"89":-0.02379036135971546,"90":-0.11620087921619415,"91":0.05155366286635399,"92":0.08548986911773682,"93":-0.00494666351005435,"94":0.15685005486011505,"95":0.16735760867595673,"96":0.05325448885560036,"97":-0.18676963448524475,"98":0.03533831238746643,"99":-0.09270288795232773,"100":0.11112941056489944,"101":-0.0781632736325264,"102":-0.09617063403129578,"103":0.14523322880268097,"104":-0.14631415903568268,"105":-0.21252135932445526,"106":-0.05350992828607559,"107":-0.0535978227853775,"108":0.13898979127407074,"109":0.014768039807677269,"110":-0.012172766961157322,"111":0.005877980031073093,"112":0.028494229540228844,"113":-0.03135956451296806,"114":-0.2060849964618683,"115":-0.05866311490535736,"116":0.11636481434106827,"117":-0.038795363157987595,"118":0.12520070374011993,"119":0.15021483600139618,"120":-0.1429917961359024,"121":0.053410500288009644,"122":0.12278694659471512,"123":-0.16581356525421143,"124":-0.07960151880979538,"125":-0.16310618817806244,"126":-0.064847432076931,"127":-0.19588568806648254,"128":0.01908125728368759,"129":0.13163729012012482,"130":0.03915483132004738,"131":-0.004742761608213186,"132":-0.05244794860482216,"133":-0.1227586641907692,"134":0.1522742062807083,"135":-0.17001058161258698,"136":-0.1810692548751831,"137":-0.0976201519370079,"138":0.1513087898492813,"139":-0.17177575826644897,"140":0.18765978515148163,"141":0.0239064060151577,"142":-0.1541288197040558,"143":-0.17140060663223267,"144":-0.10945948958396912,"145":0.04335639253258705,"146":-0.1449136883020401,"147":-0.15947698056697845,"148":0.12168530374765396,"149":0.19281376898288727,"150":-0.011783207766711712,"151":-0.20366257429122925,"152":-0.033869337290525436,"153":-0.17827190458774567,"154":-0.172164186835289,"155":0.1505376696586609,"156":-0.0024588981177657843,"157":0.031932856887578964,"158":-0.10902605205774307,"159":-0.06749236583709717,"160":-0.1949325054883957,"161":-0.03438714146614075,"162":0.03948977217078209,"163":0.11979153007268906,"164":0.08949979394674301,"165":0.08464258164167404,"166":0.17412474751472473,"167":0.016245722770690918,"168":0.00175470148678869,"169":0.09459169209003448,"170":0.1401204764842987,"171":0.026645293459296227,"172":-0.1855105757713318,"173":0.14438197016716003,"174":0.1422078162431717,"175":-0.03780464082956314,"176":-0.08189240843057632,"177":-0.0881151631474495,"178":0.08909189701080322,"179":0.009729895740747452,"180":0.07628437131643295,"181":-0.1423829197883606,"182":-0.1539766490459442,"183":-0.002037702826783061,"184":0.15512895584106445,"185":-0.13352470099925995,"186":-0.10814715921878815,"187":-0.1917128562927246,"188":0.022227780893445015,"189":0.02934444695711136,"190":0.16428183019161224,"191":0.15680915117263794,"192":0.17206795513629913,"193":-0.08039683848619461,"194":-0.15367530286312103,"195":-0.16594360768795013,"196":-0.11213795095682144,"197":-0.06356606632471085,"198":0.18655353784561157,"199":0.09335332363843918,"200":-0.09483812749385834,"201":-0.12514947354793549,"202":0.15662170946598053,"203":-0.19606105983257294,"204":-0.0774480551481247,"205":0.1493251472711563,"206":-0.16459810733795166,"207":0.18138322234153748,"208":-0.06920216977596283,"209":0.01988820545375347,"210":-0.031956154853105545,"211":0.03498096391558647,"212":0.0895724818110466,"213":0.09182722121477127,"214":0.09111311286687851,"215":0.13234928250312805,"216":-0.06711329519748688,"217":-0.150962233543396,"218":-0.04940072447061539,"219":0.0913991779088974,"220":0.17462901771068573,"221":0.13040511310100555,"222":0.05509796366095543,"223":0.16745759546756744,"224":-0.18874788284301758,"225":-0.09267862141132355,"226":0.163312166929245,"227":-0.008432681672275066,"228":-0.1270684152841568,"229":0.1726214587688446,"230":-0.13348466157913208,"231":-0.037266805768013,"232":0.14886170625686646,"233":0.10791712254285812,"234":0.01016823947429657,"235":0.138106107711792,"236":0.11031001061201096,"237":-0.038184117525815964,"238":-0.11759961396455765,"239":0.1500609666109085,"240":-0.030236797407269478,"241":0.12200382351875305,"242":-0.16528566181659698,"243":0.05400700494647026,"244":0.07699359953403473,"245":-0.07283777743577957,"246":-0.20467358827590942,"247":-0.11959914863109589,"248":0.08877154439687729,"249":-0.06120770424604416,"250":0.10694470256567001,"251":0.05382326990365982,"252":-0.14286580681800842,"253":-0.20051811635494232,"254":0.10406630486249924,"255":-0.12424260377883911,"256":0.07078595459461212,"257":-0.09384515136480331,"258":-0.09453628212213516,"259":0.19028142094612122,"260":0.1292598396539688,"261":-0.078834667801857,"262":0.09075937420129776,"263":0.07606473565101624,"264":-0.05969234183430672,"265":0.08343105763196945,"266":0.02136860601603985,"267":0.10886195302009583,"268":0.017290856689214706,"269":-0.07788005471229553,"270":0.1860753893852234,"271":-0.20641811192035675,"272":0.057920243591070175,"273":0.07657145708799362,"274":0.18429377675056458,"275":0.18235823512077332,"276":-0.03636154904961586,"277":0.07274141162633896,"278":0.01891803741455078,"279":-0.13022442162036896}},"12":{"bias":-0.024290738627314568,"weights":{"0":-0.4220808744430542,"1":0.2139042615890503,"2":0.2530331313610077,"3":-0.23104146122932434,"4":0.35571783781051636,"5":-0.244659423828125,"6":-0.2508567273616791,"7":0.2869637608528137,"8":0.37019068002700806,"9":-0.28600993752479553,"10":-0.06447840481996536,"11":-0.4179723262786865,"12":0.1681896299123764,"13":-0.41492757201194763,"14":0.20647183060646057,"15":-0.4564950466156006,"16":-0.03949051722884178,"17":0.24184155464172363,"18":0.16886763274669647,"19":-0.02941473387181759,"20":-0.13584312796592712,"21":0.2580283284187317,"22":-0.2161809653043747,"23":-0.1712701916694641,"24":-0.21269913017749786,"25":-0.13149526715278625,"26":-0.15741701424121857,"27":0.6496436595916748,"28":0.39126157760620117,"29":0.18980395793914795,"30":-0.30731257796287537,"31":-0.14267171919345856,"32":-0.07138416171073914,"33":-0.05939734727144241,"34":-0.24953116476535797,"35":-0.04948733374476433,"36":-0.2124369740486145,"37":-0.11610554158687592,"38":0.10723643004894257,"39":-0.022557538002729416,"40":-0.07115397602319717,"41":0.21402190625667572,"42":0.14199069142341614,"43":-0.039921559393405914,"44":0.11795099824666977,"45":-0.06403732299804688,"46":0.19452939927577972,"47":0.049513671547174454,"48":-0.14146266877651215,"49":0.3870306611061096,"50":0.13289889693260193,"51":-0.09193199127912521,"52":0.006800682283937931,"53":0.13702738285064697,"54":-0.07851842790842056,"55":0.03818422183394432,"56":-0.00005540860729524866,"57":-0.008803511038422585,"58":-0.08443187922239304,"59":0.26723963022232056,"60":-0.3194906711578369,"61":-0.17576315999031067,"62":-0.23616617918014526,"63":-0.16493453085422516,"64":0.014243065379559994,"65":0.08442740142345428,"66":-0.08910762518644333,"67":-0.13083416223526,"68":-0.27752387523651123,"69":0.021059412509202957,"70":-0.16192564368247986,"71":0.08461461216211319,"72":-0.0077683450654149055,"73":0.13069206476211548,"74":-0.13960859179496765,"75":0.04592909663915634,"76":-0.07172621041536331,"77":-0.23443245887756348,"78":-0.02090519666671753,"79":-0.10213528573513031,"80":-0.17045621573925018,"81":-0.2028636783361435,"82":0.044309817254543304,"83":0.2119046300649643,"84":-0.17353300750255585,"85":0.16352449357509613,"86":0.12978102266788483,"87":0.1155424416065216,"88":-0.16895589232444763,"89":0.02091093920171261,"90":0.03701646625995636,"91":-0.10369819402694702,"92":0.0064707305282354355,"93":0.0644962340593338,"94":0.3020726144313812,"95":-0.10442838072776794,"96":0.015510663390159607,"97":0.15695281326770782,"98":-0.1423623263835907,"99":0.18248350918293,"100":0.09051254391670227,"101":-0.031588390469551086,"102":-0.2217196375131607,"103":-0.27060630917549133,"104":-0.10097609460353851,"105":-0.24857094883918762,"106":-0.07627644389867783,"107":0.03310376778244972,"108":0.07959950715303421,"109":-0.14728526771068573,"110":0.1538492888212204,"111":-0.12209456413984299,"112":0.160969540476799,"113":0.05638844519853592,"114":-0.18078431487083435,"115":0.09066692739725113,"116":-0.07726863026618958,"117":0.037336450070142746,"118":-0.1055016964673996,"119":-0.13570161163806915,"120":-0.005157696083188057,"121":0.16875691711902618,"122":-0.061788734048604965,"123":0.03417961671948433,"124":0.04946345463395119,"125":-0.1603620946407318,"126":-0.03216513618826866,"127":-0.04689262434840202,"128":-0.22653891146183014,"129":0.022186072543263435,"130":0.11608903855085373,"131":0.1465146839618683,"132":-0.0762190893292427,"133":0.1548844426870346,"134":0.15570291876792908,"135":-0.05024809017777443,"136":-0.15217122435569763,"137":0.16317468881607056,"138":0.01050142478197813,"139":0.20044691860675812,"140":0.15643520653247833,"141":-0.06185247376561165,"142":-0.11489764600992203,"143":0.08889257162809372,"144":0.1425931751728058,"145":-0.15880246460437775,"146":-0.07530879229307175,"147":0.1694769263267517,"148":0.0600261315703392,"149":0.0026334342546761036,"150":0.13156862556934357,"151":0.015950653702020645,"152":0.1687057912349701,"153":0.09948451817035675,"154":-0.17247526347637177,"155":-0.029156897217035294,"156":0.17557166516780853,"157":-0.14156052470207214,"158":-0.10235798358917236,"159":-0.0011628824286162853,"160":-0.06838922947645187,"161":-0.014968463219702244,"162":0.09032131731510162,"163":0.16586948931217194,"164":-0.06718435883522034,"165":-0.15347705781459808,"166":0.029119474813342094,"167":-0.13367591798305511,"168":-0.0945088192820549,"169":0.06358324736356735,"170":0.0702592134475708,"171":-0.1620941013097763,"172":0.14179036021232605,"173":0.12245935201644897,"174":0.017800498753786087,"175":0.00032136295340023935,"176":0.15150071680545807,"177":0.1553470939397812,"178":-0.023019975051283836,"179":-0.08006779104471207,"180":-0.15498784184455872,"181":-0.07747069001197815,"182":0.07373345643281937,"183":0.16851335763931274,"184":0.1513151079416275,"185":-0.07822593301534653,"186":-0.11534769833087921,"187":-0.0814187079668045,"188":0.13107284903526306,"189":0.08375553786754608,"190":0.09740803390741348,"191":-0.0005398222710937262,"192":0.055774081498384476,"193":-0.05180748179554939,"194":-0.004225086886435747,"195":0.07689496874809265,"196":0.07859955728054047,"197":0.04433124139904976,"198":-0.1526835709810257,"199":-0.02142295427620411,"200":-0.12065035849809647,"201":0.02284971810877323,"202":-0.11126521229743958,"203":-0.11547291278839111,"204":-0.038969986140728,"205":0.009836077690124512,"206":0.18524332344532013,"207":-0.15497657656669617,"208":0.1921730637550354,"209":0.11848625540733337,"210":-0.07405728101730347,"211":-0.09283428639173508,"212":0.02678472362458706,"213":0.18890362977981567,"214":0.05073627457022667,"215":0.015022441744804382,"216":0.1618577390909195,"217":0.05423210561275482,"218":0.07718151807785034,"219":0.08984705060720444,"220":0.03153960406780243,"221":0.07765986025333405,"222":0.09925271570682526,"223":-0.15094627439975739,"224":0.024411465972661972,"225":0.02830319106578827,"226":0.016785189509391785,"227":-0.091469906270504,"228":0.16373488306999207,"229":0.19966842234134674,"230":0.1357673555612564,"231":0.1331315040588379,"232":0.1284971982240677,"233":-0.09043927490711212,"234":0.15571056306362152,"235":-0.00347433565184474,"236":0.08653539419174194,"237":0.08564068377017975,"238":-0.13433240354061127,"239":0.07268061488866806,"240":0.1484287530183792,"241":-0.12124186754226685,"242":0.004573325160890818,"243":0.16360525786876678,"244":0.16800807416439056,"245":-0.16941680014133453,"246":0.17704740166664124,"247":0.16768446564674377,"248":-0.12473298609256744,"249":-0.056806501001119614,"250":0.13664577901363373,"251":-0.0446602962911129,"252":0.003769407980144024,"253":-0.17359603941440582,"254":0.17757442593574524,"255":0.11499976366758347,"256":0.057557519525289536,"257":0.023323319852352142,"258":-0.13918432593345642,"259":-0.0069153206422924995,"260":-0.10706114023923874,"261":0.15020522475242615,"262":-0.06506793946027756,"263":0.17663362622261047,"264":-0.17439690232276917,"265":-0.16758975386619568,"266":0.15830259025096893,"267":-0.18301844596862793,"268":-0.0006224190583452582,"269":-0.002242997055873275,"270":-0.17405657470226288,"271":0.030789289623498917,"272":0.1828763335943222,"273":-0.1699160784482956,"274":-0.08041246235370636,"275":-0.1260186731815338,"276":-0.06825356930494308,"277":-0.134195014834404,"278":-0.06907868385314941,"279":-0.10427297651767731}},"13":{"bias":-0.0814049020409584,"weights":{"0":-0.21104979515075684,"1":-0.17297253012657166,"2":0.22716304659843445,"3":-0.10686799138784409,"4":0.28531697392463684,"5":-0.19934654235839844,"6":-0.002698656404390931,"7":0.21086040139198303,"8":0.2049705982208252,"9":-0.1938561201095581,"10":-0.20604820549488068,"11":-0.13145723938941956,"12":-0.001949957339093089,"13":-0.1043652594089508,"14":0.037528034299612045,"15":-0.2709531784057617,"16":0.04809212684631348,"17":0.3492310047149658,"18":-0.10602881759405136,"19":-0.16648393869400024,"20":-0.09993648529052734,"21":0.2217271625995636,"22":-0.25063377618789673,"23":-0.02108018472790718,"24":-0.20494414865970612,"25":0.04904666915535927,"26":0.0647764727473259,"27":0.25418955087661743,"28":0.05714568495750427,"29":-0.12715797126293182,"30":-0.09612726420164108,"31":0.0180741585791111,"32":-0.005904170218855143,"33":-0.17672017216682434,"34":-0.12478680908679962,"35":-0.009751036763191223,"36":0.09355974197387695,"37":0.05764017999172211,"38":-0.17903879284858704,"39":-0.04389367997646332,"40":0.099965900182724,"41":-0.07636085152626038,"42":0.19110609591007233,"43":0.010265330784022808,"44":0.1623036116361618,"45":0.04180211201310158,"46":-0.10324883460998535,"47":-0.14874908328056335,"48":0.034142620861530304,"49":0.10862977802753448,"50":0.09610410034656525,"51":-0.07570155709981918,"52":-0.13800883293151855,"53":0.02248825691640377,"54":0.07899532467126846,"55":-0.11076264828443527,"56":-0.15662781894207,"57":0.010392159223556519,"58":-0.011190757155418396,"59":0.1741839498281479,"60":-0.1683792620897293,"61":-0.032817061990499496,"62":0.06660173088312149,"63":-0.10078119486570358,"64":-0.03704091161489487,"65":0.08109539747238159,"66":-0.08671438694000244,"67":0.1424228698015213,"68":-0.18240995705127716,"69":0.02867576666176319,"70":0.09610504657030106,"71":-0.1654295027256012,"72":-0.03591475635766983,"73":0.20571479201316833,